SNNS network definition file V1.4-3D
generated at Wed Jan 10 15:02:03 2018

network name : numbers1.net
source files :
no. of units : 220
no. of connections : 5600
no. of unit types : 0
no. of site types : 0


learning function : Std_Backpropagation
update function   : Topological_Order


unit default section :

act      | bias     | st | subnet | layer | act func     | out func
---------|----------|----|--------|-------|--------------|-------------
 0.00000 |  0.00000 | h  |      0 |     1 | Act_Logistic | Out_Identity 
---------|----------|----|--------|-------|--------------|-------------


unit definition section :

no. | typeName | unitName | act      | bias     | st | position | act func     | out func | sites
----|----------|----------|----------|----------|----|----------|--------------|----------|-------
  1 |          | Input    |  0.00000 | -0.08998 | i  |  1, 1, 1 | Act_Identity |          | 
  2 |          | noName   |  0.00000 | -0.05405 | i  |  2, 1, 1 | Act_Identity |          | 
  3 |          | noName   |  0.00000 | -0.00900 | i  |  3, 1, 1 | Act_Identity |          | 
  4 |          | noName   |  1.00000 | -0.07028 | i  |  4, 1, 1 | Act_Identity |          | 
  5 |          | noName   |  1.00000 | -0.00504 | i  |  5, 1, 1 | Act_Identity |          | 
  6 |          | noName   |  1.00000 | -0.05406 | i  |  6, 1, 1 | Act_Identity |          | 
  7 |          | noName   |  1.00000 | -0.01990 | i  |  7, 1, 1 | Act_Identity |          | 
  8 |          | noName   |  1.00000 | -0.06543 | i  |  8, 1, 1 | Act_Identity |          | 
  9 |          | noName   |  0.00000 |  0.04555 | i  |  9, 1, 1 | Act_Identity |          | 
 10 |          | noName   |  0.00000 |  0.05386 | i  | 10, 1, 1 | Act_Identity |          | 
 11 |          | noName   |  0.00000 | -0.08787 | i  |  1, 2, 1 | Act_Identity |          | 
 12 |          | noName   |  0.00000 |  0.06695 | i  |  2, 2, 1 | Act_Identity |          | 
 13 |          | noName   |  0.00000 | -0.02406 | i  |  3, 2, 1 | Act_Identity |          | 
 14 |          | noName   |  1.00000 | -0.05863 | i  |  4, 2, 1 | Act_Identity |          | 
 15 |          | noName   |  1.00000 |  0.02949 | i  |  5, 2, 1 | Act_Identity |          | 
 16 |          | noName   |  1.00000 | -0.07297 | i  |  6, 2, 1 | Act_Identity |          | 
 17 |          | noName   |  1.00000 | -0.09667 | i  |  7, 2, 1 | Act_Identity |          | 
 18 |          | noName   |  1.00000 |  0.00392 | i  |  8, 2, 1 | Act_Identity |          | 
 19 |          | noName   |  1.00000 |  0.00506 | i  |  9, 2, 1 | Act_Identity |          | 
 20 |          | noName   |  1.00000 |  0.01897 | i  | 10, 2, 1 | Act_Identity |          | 
 21 |          | noName   |  0.00000 |  0.04698 | i  |  1, 3, 1 | Act_Identity |          | 
 22 |          | noName   |  1.00000 |  0.08844 | i  |  2, 3, 1 | Act_Identity |          | 
 23 |          | noName   |  1.00000 |  0.08358 | i  |  3, 3, 1 | Act_Identity |          | 
 24 |          | noName   |  1.00000 | -0.04839 | i  |  4, 3, 1 | Act_Identity |          | 
 25 |          | noName   |  1.00000 |  0.05113 | i  |  5, 3, 1 | Act_Identity |          | 
 26 |          | noName   |  1.00000 | -0.05014 | i  |  6, 3, 1 | Act_Identity |          | 
 27 |          | noName   |  1.00000 |  0.03753 | i  |  7, 3, 1 | Act_Identity |          | 
 28 |          | noName   |  1.00000 | -0.00414 | i  |  8, 3, 1 | Act_Identity |          | 
 29 |          | noName   |  1.00000 |  0.03791 | i  |  9, 3, 1 | Act_Identity |          | 
 30 |          | noName   |  1.00000 | -0.08286 | i  | 10, 3, 1 | Act_Identity |          | 
 31 |          | noName   |  0.00000 |  0.09375 | i  |  1, 4, 1 | Act_Identity |          | 
 32 |          | noName   |  1.00000 | -0.07007 | i  |  2, 4, 1 | Act_Identity |          | 
 33 |          | noName   |  1.00000 | -0.00332 | i  |  3, 4, 1 | Act_Identity |          | 
 34 |          | noName   |  1.00000 | -0.04950 | i  |  4, 4, 1 | Act_Identity |          | 
 35 |          | noName   |  0.00000 |  0.08694 | i  |  5, 4, 1 | Act_Identity |          | 
 36 |          | noName   |  0.00000 |  0.00368 | i  |  6, 4, 1 | Act_Identity |          | 
 37 |          | noName   |  0.00000 |  0.01582 | i  |  7, 4, 1 | Act_Identity |          | 
 38 |          | noName   |  0.00000 | -0.02920 | i  |  8, 4, 1 | Act_Identity |          | 
 39 |          | noName   |  0.00000 | -0.00354 | i  |  9, 4, 1 | Act_Identity |          | 
 40 |          | noName   |  1.00000 | -0.04659 | i  | 10, 4, 1 | Act_Identity |          | 
 41 |          | noName   |  0.00000 | -0.03654 | i  |  1, 5, 1 | Act_Identity |          | 
 42 |          | noName   |  1.00000 |  0.04245 | i  |  2, 5, 1 | Act_Identity |          | 
 43 |          | noName   |  1.00000 | -0.07755 | i  |  3, 5, 1 | Act_Identity |          | 
 44 |          | noName   |  1.00000 |  0.09827 | i  |  4, 5, 1 | Act_Identity |          | 
 45 |          | noName   |  0.00000 | -0.07673 | i  |  5, 5, 1 | Act_Identity |          | 
 46 |          | noName   |  0.00000 |  0.09119 | i  |  6, 5, 1 | Act_Identity |          | 
 47 |          | noName   |  0.00000 |  0.05780 | i  |  7, 5, 1 | Act_Identity |          | 
 48 |          | noName   |  0.00000 |  0.04957 | i  |  8, 5, 1 | Act_Identity |          | 
 49 |          | noName   |  0.00000 | -0.00851 | i  |  9, 5, 1 | Act_Identity |          | 
 50 |          | noName   |  1.00000 | -0.06230 | i  | 10, 5, 1 | Act_Identity |          | 
 51 |          | noName   |  0.00000 | -0.08806 | i  |  1, 6, 1 | Act_Identity |          | 
 52 |          | noName   |  1.00000 |  0.06422 | i  |  2, 6, 1 | Act_Identity |          | 
 53 |          | noName   |  1.00000 | -0.05834 | i  |  3, 6, 1 | Act_Identity |          | 
 54 |          | noName   |  1.00000 | -0.07131 | i  |  4, 6, 1 | Act_Identity |          | 
 55 |          | noName   |  0.00000 | -0.05702 | i  |  5, 6, 1 | Act_Identity |          | 
 56 |          | noName   |  0.00000 | -0.02646 | i  |  6, 6, 1 | Act_Identity |          | 
 57 |          | noName   |  0.00000 | -0.03691 | i  |  7, 6, 1 | Act_Identity |          | 
 58 |          | noName   |  0.00000 | -0.05367 | i  |  8, 6, 1 | Act_Identity |          | 
 59 |          | noName   |  0.00000 |  0.05411 | i  |  9, 6, 1 | Act_Identity |          | 
 60 |          | noName   |  1.00000 | -0.08124 | i  | 10, 6, 1 | Act_Identity |          | 
 61 |          | noName   |  1.00000 | -0.02055 | i  |  1, 7, 1 | Act_Identity |          | 
 62 |          | noName   |  1.00000 |  0.07750 | i  |  2, 7, 1 | Act_Identity |          | 
 63 |          | noName   |  1.00000 | -0.08910 | i  |  3, 7, 1 | Act_Identity |          | 
 64 |          | noName   |  0.00000 |  0.02439 | i  |  4, 7, 1 | Act_Identity |          | 
 65 |          | noName   |  0.00000 | -0.04634 | i  |  5, 7, 1 | Act_Identity |          | 
 66 |          | noName   |  0.00000 | -0.07587 | i  |  6, 7, 1 | Act_Identity |          | 
 67 |          | noName   |  0.00000 | -0.06456 | i  |  7, 7, 1 | Act_Identity |          | 
 68 |          | noName   |  0.00000 |  0.04069 | i  |  8, 7, 1 | Act_Identity |          | 
 69 |          | noName   |  0.00000 |  0.08543 | i  |  9, 7, 1 | Act_Identity |          | 
 70 |          | noName   |  1.00000 |  0.03570 | i  | 10, 7, 1 | Act_Identity |          | 
 71 |          | noName   |  1.00000 | -0.06632 | i  |  1, 8, 1 | Act_Identity |          | 
 72 |          | noName   |  1.00000 |  0.08659 | i  |  2, 8, 1 | Act_Identity |          | 
 73 |          | noName   |  0.00000 | -0.09252 | i  |  3, 8, 1 | Act_Identity |          | 
 74 |          | noName   |  0.00000 |  0.04530 | i  |  4, 8, 1 | Act_Identity |          | 
 75 |          | noName   |  0.00000 |  0.01229 | i  |  5, 8, 1 | Act_Identity |          | 
 76 |          | noName   |  0.00000 | -0.07577 | i  |  6, 8, 1 | Act_Identity |          | 
 77 |          | noName   |  0.00000 | -0.01295 | i  |  7, 8, 1 | Act_Identity |          | 
 78 |          | noName   |  0.00000 | -0.00952 | i  |  8, 8, 1 | Act_Identity |          | 
 79 |          | noName   |  0.00000 | -0.05884 | i  |  9, 8, 1 | Act_Identity |          | 
 80 |          | noName   |  1.00000 |  0.09637 | i  | 10, 8, 1 | Act_Identity |          | 
 81 |          | noName   |  1.00000 |  0.03851 | i  |  1, 9, 1 | Act_Identity |          | 
 82 |          | noName   |  1.00000 |  0.00006 | i  |  2, 9, 1 | Act_Identity |          | 
 83 |          | noName   |  0.00000 |  0.01789 | i  |  3, 9, 1 | Act_Identity |          | 
 84 |          | noName   |  0.00000 | -0.04202 | i  |  4, 9, 1 | Act_Identity |          | 
 85 |          | noName   |  0.00000 | -0.04631 | i  |  5, 9, 1 | Act_Identity |          | 
 86 |          | noName   |  0.00000 |  0.02826 | i  |  6, 9, 1 | Act_Identity |          | 
 87 |          | noName   |  0.00000 | -0.00954 | i  |  7, 9, 1 | Act_Identity |          | 
 88 |          | noName   |  0.00000 | -0.06683 | i  |  8, 9, 1 | Act_Identity |          | 
 89 |          | noName   |  1.00000 | -0.04393 | i  |  9, 9, 1 | Act_Identity |          | 
 90 |          | noName   |  1.00000 |  0.01733 | i  | 10, 9, 1 | Act_Identity |          | 
 91 |          | noName   |  1.00000 |  0.09437 | i  |  1,10, 1 | Act_Identity |          | 
 92 |          | noName   |  1.00000 |  0.02881 | i  |  2,10, 1 | Act_Identity |          | 
 93 |          | noName   |  0.00000 | -0.01509 | i  |  3,10, 1 | Act_Identity |          | 
 94 |          | noName   |  0.00000 | -0.03011 | i  |  4,10, 1 | Act_Identity |          | 
 95 |          | noName   |  0.00000 | -0.03951 | i  |  5,10, 1 | Act_Identity |          | 
 96 |          | noName   |  0.00000 | -0.06399 | i  |  6,10, 1 | Act_Identity |          | 
 97 |          | noName   |  0.00000 | -0.08420 | i  |  7,10, 1 | Act_Identity |          | 
 98 |          | noName   |  0.00000 | -0.08762 | i  |  8,10, 1 | Act_Identity |          | 
 99 |          | noName   |  1.00000 |  0.04982 | i  |  9,10, 1 | Act_Identity |          | 
100 |          | noName   |  1.00000 | -0.04925 | i  | 10,10, 1 | Act_Identity |          | 
101 |          | noName   |  1.00000 | -0.07623 | i  |  1,11, 1 | Act_Identity |          | 
102 |          | noName   |  1.00000 |  0.03074 | i  |  2,11, 1 | Act_Identity |          | 
103 |          | noName   |  0.00000 | -0.02849 | i  |  3,11, 1 | Act_Identity |          | 
104 |          | noName   |  0.00000 |  0.04491 | i  |  4,11, 1 | Act_Identity |          | 
105 |          | noName   |  0.00000 | -0.00475 | i  |  5,11, 1 | Act_Identity |          | 
106 |          | noName   |  0.00000 | -0.04049 | i  |  6,11, 1 | Act_Identity |          | 
107 |          | noName   |  0.00000 | -0.05971 | i  |  7,11, 1 | Act_Identity |          | 
108 |          | noName   |  1.00000 | -0.08109 | i  |  8,11, 1 | Act_Identity |          | 
109 |          | noName   |  1.00000 |  0.09506 | i  |  9,11, 1 | Act_Identity |          | 
110 |          | noName   |  1.00000 | -0.09410 | i  | 10,11, 1 | Act_Identity |          | 
111 |          | noName   |  1.00000 | -0.07036 | i  |  1,12, 1 | Act_Identity |          | 
112 |          | noName   |  1.00000 | -0.03270 | i  |  2,12, 1 | Act_Identity |          | 
113 |          | noName   |  0.00000 | -0.00522 | i  |  3,12, 1 | Act_Identity |          | 
114 |          | noName   |  0.00000 | -0.01034 | i  |  4,12, 1 | Act_Identity |          | 
115 |          | noName   |  0.00000 | -0.02315 | i  |  5,12, 1 | Act_Identity |          | 
116 |          | noName   |  0.00000 | -0.01160 | i  |  6,12, 1 | Act_Identity |          | 
117 |          | noName   |  0.00000 |  0.06866 | i  |  7,12, 1 | Act_Identity |          | 
118 |          | noName   |  1.00000 |  0.08035 | i  |  8,12, 1 | Act_Identity |          | 
119 |          | noName   |  1.00000 | -0.00362 | i  |  9,12, 1 | Act_Identity |          | 
120 |          | noName   |  1.00000 | -0.03057 | i  | 10,12, 1 | Act_Identity |          | 
121 |          | noName   |  1.00000 |  0.06334 | i  |  1,13, 1 | Act_Identity |          | 
122 |          | noName   |  1.00000 | -0.08691 | i  |  2,13, 1 | Act_Identity |          | 
123 |          | noName   |  0.00000 | -0.04242 | i  |  3,13, 1 | Act_Identity |          | 
124 |          | noName   |  0.00000 | -0.02179 | i  |  4,13, 1 | Act_Identity |          | 
125 |          | noName   |  0.00000 | -0.05228 | i  |  5,13, 1 | Act_Identity |          | 
126 |          | noName   |  0.00000 | -0.03592 | i  |  6,13, 1 | Act_Identity |          | 
127 |          | noName   |  1.00000 | -0.01682 | i  |  7,13, 1 | Act_Identity |          | 
128 |          | noName   |  1.00000 |  0.09277 | i  |  8,13, 1 | Act_Identity |          | 
129 |          | noName   |  1.00000 |  0.04915 | i  |  9,13, 1 | Act_Identity |          | 
130 |          | noName   |  0.00000 |  0.06707 | i  | 10,13, 1 | Act_Identity |          | 
131 |          | noName   |  1.00000 |  0.02467 | i  |  1,14, 1 | Act_Identity |          | 
132 |          | noName   |  1.00000 |  0.00012 | i  |  2,14, 1 | Act_Identity |          | 
133 |          | noName   |  1.00000 | -0.01794 | i  |  3,14, 1 | Act_Identity |          | 
134 |          | noName   |  0.00000 |  0.05224 | i  |  4,14, 1 | Act_Identity |          | 
135 |          | noName   |  0.00000 |  0.07093 | i  |  5,14, 1 | Act_Identity |          | 
136 |          | noName   |  1.00000 | -0.00460 | i  |  6,14, 1 | Act_Identity |          | 
137 |          | noName   |  1.00000 | -0.02438 | i  |  7,14, 1 | Act_Identity |          | 
138 |          | noName   |  1.00000 | -0.01154 | i  |  8,14, 1 | Act_Identity |          | 
139 |          | noName   |  1.00000 | -0.05365 | i  |  9,14, 1 | Act_Identity |          | 
140 |          | noName   |  0.00000 |  0.01264 | i  | 10,14, 1 | Act_Identity |          | 
141 |          | noName   |  1.00000 | -0.09366 | i  |  1,15, 1 | Act_Identity |          | 
142 |          | noName   |  1.00000 | -0.08964 | i  |  2,15, 1 | Act_Identity |          | 
143 |          | noName   |  1.00000 |  0.05453 | i  |  3,15, 1 | Act_Identity |          | 
144 |          | noName   |  1.00000 |  0.01845 | i  |  4,15, 1 | Act_Identity |          | 
145 |          | noName   |  1.00000 |  0.04203 | i  |  5,15, 1 | Act_Identity |          | 
146 |          | noName   |  1.00000 |  0.01145 | i  |  6,15, 1 | Act_Identity |          | 
147 |          | noName   |  1.00000 | -0.07597 | i  |  7,15, 1 | Act_Identity |          | 
148 |          | noName   |  1.00000 | -0.00014 | i  |  8,15, 1 | Act_Identity |          | 
149 |          | noName   |  0.00000 |  0.00340 | i  |  9,15, 1 | Act_Identity |          | 
150 |          | noName   |  0.00000 | -0.01557 | i  | 10,15, 1 | Act_Identity |          | 
151 |          | noName   |  0.00000 | -0.08764 | i  |  1,16, 1 | Act_Identity |          | 
152 |          | noName   |  1.00000 |  0.07748 | i  |  2,16, 1 | Act_Identity |          | 
153 |          | noName   |  1.00000 | -0.05065 | i  |  3,16, 1 | Act_Identity |          | 
154 |          | noName   |  1.00000 |  0.09014 | i  |  4,16, 1 | Act_Identity |          | 
155 |          | noName   |  1.00000 | -0.07573 | i  |  5,16, 1 | Act_Identity |          | 
156 |          | noName   |  1.00000 | -0.02460 | i  |  6,16, 1 | Act_Identity |          | 
157 |          | noName   |  1.00000 |  0.09254 | i  |  7,16, 1 | Act_Identity |          | 
158 |          | noName   |  0.00000 |  0.03610 | i  |  8,16, 1 | Act_Identity |          | 
159 |          | noName   |  0.00000 | -0.09910 | i  |  9,16, 1 | Act_Identity |          | 
160 |          | noName   |  0.00000 | -0.02110 | i  | 10,16, 1 | Act_Identity |          | 
161 |          | noName   |  0.28481 |  0.25130 | h  | 13, 6, 1 |||
162 |          | noName   |  0.99997 | -0.38257 | h  | 14, 6, 1 |||
163 |          | noName   |  0.00800 | -0.12230 | h  | 15, 6, 1 |||
164 |          | noName   |  0.00229 |  0.12715 | h  | 16, 6, 1 |||
165 |          | noName   |  0.00906 | -0.02354 | h  | 17, 6, 1 |||
166 |          | noName   |  0.89622 | -0.03244 | h  | 13, 7, 1 |||
167 |          | noName   |  0.27687 |  0.17585 | h  | 14, 7, 1 |||
168 |          | noName   |  0.92505 |  0.04373 | h  | 15, 7, 1 |||
169 |          | noName   |  0.98547 | -0.28365 | h  | 16, 7, 1 |||
170 |          | noName   |  0.02185 |  0.09468 | h  | 17, 7, 1 |||
171 |          | noName   |  0.98953 | -0.02068 | h  | 13, 8, 1 |||
172 |          | noName   |  0.06424 |  0.57330 | h  | 14, 8, 1 |||
173 |          | noName   |  0.99295 |  0.11700 | h  | 15, 8, 1 |||
174 |          | noName   |  0.14149 | -0.06346 | h  | 16, 8, 1 |||
175 |          | noName   |  0.99900 | -0.29328 | h  | 17, 8, 1 |||
176 |          | noName   |  0.00020 |  0.58156 | h  | 13, 9, 1 |||
177 |          | noName   |  0.66187 | -0.17657 | h  | 14, 9, 1 |||
178 |          | noName   |  0.75398 | -0.35594 | h  | 15, 9, 1 |||
179 |          | noName   |  0.12933 |  0.33532 | h  | 16, 9, 1 |||
180 |          | noName   |  0.17163 | -0.10602 | h  | 17, 9, 1 |||
181 |          | noName   |  0.43166 | -0.29429 | h  | 13,10, 1 |||
182 |          | noName   |  0.99914 |  0.28557 | h  | 14,10, 1 |||
183 |          | noName   |  0.24304 | -0.11135 | h  | 15,10, 1 |||
184 |          | noName   |  0.75647 | -0.30410 | h  | 16,10, 1 |||
185 |          | noName   |  0.02564 | -0.05693 | h  | 17,10, 1 |||
186 |          | noName   |  0.00230 | -0.28080 | h  | 13,11, 1 |||
187 |          | noName   |  0.54015 | -0.12084 | h  | 14,11, 1 |||
188 |          | noName   |  0.99986 | -0.32321 | h  | 15,11, 1 |||
189 |          | noName   |  0.00002 |  0.39400 | h  | 16,11, 1 |||
190 |          | noName   |  0.00133 |  0.61366 | h  | 17,11, 1 |||
191 |          | noName   |  0.05403 |  0.00498 | h  | 20, 4, 1 |||
192 |          | noName   |  0.27129 | -0.05193 | h  | 21, 4, 1 |||
193 |          | noName   |  0.38875 | -0.12178 | h  | 20, 5, 1 |||
194 |          | noName   |  0.00927 | -0.00257 | h  | 21, 5, 1 |||
195 |          | noName   |  0.86701 | -0.03113 | h  | 20, 6, 1 |||
196 |          | noName   |  0.88645 |  0.12936 | h  | 21, 6, 1 |||
197 |          | noName   |  0.94749 |  0.08626 | h  | 20, 7, 1 |||
198 |          | noName   |  0.00157 | -0.34043 | h  | 21, 7, 1 |||
199 |          | noName   |  0.98831 | -0.05816 | h  | 20, 8, 1 |||
200 |          | noName   |  0.91055 | -0.07307 | h  | 21, 8, 1 |||
201 |          | noName   |  0.06563 |  0.26942 | h  | 20, 9, 1 |||
202 |          | noName   |  0.02074 | -0.32918 | h  | 21, 9, 1 |||
203 |          | noName   |  0.96721 |  0.00663 | h  | 20,10, 1 |||
204 |          | noName   |  0.01891 |  0.18057 | h  | 21,10, 1 |||
205 |          | noName   |  0.89886 |  0.06602 | h  | 20,11, 1 |||
206 |          | noName   |  0.97542 |  0.06978 | h  | 21,11, 1 |||
207 |          | noName   |  0.40514 |  0.30889 | h  | 20,12, 1 |||
208 |          | noName   |  0.92132 | -0.04685 | h  | 21,12, 1 |||
209 |          | noName   |  0.95976 |  0.13820 | h  | 20,13, 1 |||
210 |          | noName   |  0.19821 |  0.22169 | h  | 21,13, 1 |||
211 |          | noName   |  0.90410 | -1.23148 | o  | 23, 4, 1 |||
212 |          | noName   |  0.00022 | -0.89295 | o  | 23, 5, 1 |||
213 |          | noName   |  0.04068 | -0.68083 | o  | 23, 6, 1 |||
214 |          | noName   |  0.00003 | -1.46817 | o  | 23, 7, 1 |||
215 |          | noName   |  0.00140 | -0.74294 | o  | 23, 8, 1 |||
216 |          | noName   |  0.13044 | -1.00136 | o  | 23, 9, 1 |||
217 |          | noName   |  0.04333 | -0.84279 | o  | 23,10, 1 |||
218 |          | noName   |  0.00000 | -1.06395 | o  | 23,11, 1 |||
219 |          | noName   |  0.00068 | -0.47420 | o  | 23,12, 1 |||
220 |          | noName   |  0.00238 | -1.25006 | o  | 23,13, 1 |||
----|----------|----------|----------|----------|----|----------|--------------|----------|-------


connection definition section :

target | site | source:weight
-------|------|----------------------------------------------------------------------------------------------------------------
   161 |      |   1: 0.12798,   2:-0.21150,   3:-0.25474,   4: 0.04333,   5: 0.12195,   6: 0.50378,   7: 0.13472,   8: 0.00525,
                  9:-0.11774,  10: 0.46558,  11: 0.25669,  12: 0.06620,  13: 0.38056,  14: 0.29401,  15: 0.52349,  16: 0.58319,
                 17: 0.63192,  18: 0.21595,  19: 0.02595,  20: 0.14185,  21: 0.08408,  22: 0.09100,  23:-0.08982,  24: 0.13112,
                 25: 0.05830,  26: 0.30302,  27: 0.26312,  28:-0.17323,  29:-0.31637,  30:-0.05674,  31:-0.20500,  32:-0.12370,
                 33:-0.21178,  34:-0.13026,  35:-0.04597,  36: 0.33898,  37: 0.29113,  38:-0.00846,  39:-0.16976,  40:-0.52987,
                 41:-0.04679,  42:-0.18081,  43:-0.18967,  44:-0.44504,  45:-0.32433,  46:-0.02191,  47:-0.04287,  48:-0.17602,
                 49:-0.27988,  50:-0.51713,  51:-0.12983,  52:-0.29319,  53:-0.16991,  54:-0.17867,  55:-0.29610,  56: 0.07497,
                 57: 0.45021,  58:-0.08576,  59:-0.19154,  60:-0.57490,  61:-0.33807,  62:-0.36171,  63:-0.39484,  64:-0.23974,
                 65:-0.15586,  66: 0.44873,  67:-0.08182,  68:-0.17731,  69:-0.46727,  70:-0.70877,  71:-0.38473,  72:-0.11021,
                 73:-0.31215,  74:-0.20223,  75: 0.26960,  76: 0.32660,  77: 0.19147,  78:-0.03236,  79:-0.40052,  80:-0.64265,
                 81:-0.34374,  82:-0.14174,  83:-0.19336,  84:-0.19501,  85: 0.78031,  86: 0.23292,  87:-0.03355,  88: 0.00305,
                 89:-0.31078,  90:-0.25530,  91: 0.13619,  92:-0.12094,  93: 0.04234,  94: 0.34848,  95: 0.47607,  96:-0.21987,
                 97:-0.11645,  98: 0.04019,  99:-0.19290, 100: 0.04857, 101: 0.08508, 102:-0.06572, 103: 0.29887, 104: 0.41873,
                105: 0.07243, 106:-0.19184, 107:-0.23757, 108:-0.30290, 109:-0.03085, 110:-0.04156, 111: 0.24126, 112: 0.20276,
                113: 0.35789, 114: 0.03462, 115: 0.10889, 116: 0.20614, 117:-0.08176, 118: 0.07980, 119: 0.01222, 120: 0.38342,
                121: 0.45983, 122: 0.21751, 123: 0.34515, 124: 0.11715, 125: 0.30851, 126: 0.01929, 127: 0.18229, 128: 0.23041,
                129: 0.35081, 130: 0.36430, 131: 0.24001, 132:-0.17227, 133:-0.15799, 134: 0.14381, 135: 0.04280, 136: 0.02508,
                137: 0.09209, 138: 0.32613, 139: 0.26226, 140: 0.39079, 141:-0.30153, 142:-0.34679, 143: 0.16235, 144: 0.02040,
                145: 0.01077, 146: 0.05576, 147: 0.20063, 148: 0.20937, 149:-0.00396, 150: 0.01028, 151: 0.00980, 152:-0.13150,
                153: 0.24467, 154:-0.10023, 155:-0.23613, 156: 0.22798, 157: 0.42332, 158:-0.12051, 159:-0.08412, 160:-0.00853
   162 |      |   1:-0.15734,   2:-0.01224,   3: 0.05048,   4: 0.17087,   5: 0.33054,   6: 0.01889,   7: 0.00170,   8: 0.10732,
                  9: 0.40501,  10:-0.11077,  11:-0.43031,  12:-0.30423,  13:-0.12637,  14:-0.18509,  15: 0.02184,  16: 0.10541,
                 17: 0.18907,  18: 0.44026,  19: 0.32545,  20: 0.30157,  21:-0.09613,  22:-0.08684,  23: 0.00227,  24:-0.14713,
                 25:-0.01903,  26:-0.15813,  27: 0.29205,  28: 0.11332,  29: 0.08175,  30: 0.24087,  31: 0.17909,  32: 0.16821,
                 33:-0.06908,  34: 0.23674,  35: 0.29204,  36: 0.06598,  37: 0.14136,  38: 0.04041,  39:-0.06285,  40:-0.02544,
                 41: 0.09338,  42: 0.18598,  43: 0.19327,  44: 0.24838,  45: 0.27817,  46: 0.07345,  47:-0.14339,  48:-0.28783,
                 49:-0.23804,  50: 0.18500,  51: 0.13876,  52: 0.24874,  53: 0.11485,  54: 0.12253,  55: 0.17585,  56:-0.00644,
                 57:-0.30089,  58:-0.03014,  59:-0.05231,  60: 0.04731,  61: 0.10819,  62: 0.19821,  63:-0.16069,  64:-0.08825,
                 65:-0.18380,  66:-0.08159,  67:-0.07967,  68:-0.04286,  69: 0.04855,  70:-0.07963,  71:-0.07086,  72: 0.04475,
                 73:-0.27953,  74:-0.14997,  75:-0.44110,  76: 0.02321,  77:-0.25554,  78:-0.11064,  79:-0.22930,  80:-0.08561,
                 81:-0.14749,  82: 0.05680,  83:-0.27282,  84:-0.04632,  85:-0.54846,  86: 0.04300,  87:-0.31492,  88:-0.52179,
                 89:-0.22463,  90:-0.04855,  91:-0.08216,  92:-0.17434,  93:-0.26652,  94:-0.19351,  95:-0.26765,  96: 0.00673,
                 97:-0.07345,  98:-0.13089,  99: 0.03982, 100:-0.02688, 101:-0.15021, 102: 0.02307, 103:-0.25654, 104:-0.18185,
                105:-0.33352, 106:-0.12281, 107: 0.01011, 108: 0.07844, 109:-0.04283, 110: 0.22211, 111:-0.01674, 112: 0.08438,
                113:-0.01628, 114:-0.53252, 115:-0.51596, 116:-0.54496, 117:-0.19439, 118:-0.18203, 119:-0.02209, 120: 0.16387,
                121: 0.30755, 122: 0.36412, 123: 0.06526, 124:-0.47813, 125:-0.17252, 126:-0.33280, 127:-0.09822, 128:-0.20952,
                129: 0.14599, 130: 0.29824, 131: 0.49599, 132: 0.37380, 133: 0.11005, 134: 0.00839, 135: 0.17004, 136: 0.23699,
                137: 0.01467, 138: 0.01758, 139: 0.23670, 140: 0.19129, 141: 0.65991, 142: 0.58976, 143: 0.47384, 144: 0.33316,
                145: 0.12498, 146: 0.16465, 147: 0.16988, 148: 0.34958, 149: 0.38423, 150: 0.18144, 151: 0.36960, 152: 0.61680,
                153: 0.67916, 154: 0.59281, 155: 0.17798, 156: 0.24875, 157: 0.16747, 158: 0.12462, 159: 0.16877, 160:-0.22995
   163 |      |   1: 0.20200,   2:-0.20728,   3:-0.29745,   4:-0.26952,   5:-0.17865,   6:-0.04815,   7: 0.14048,   8:-0.17929,
                  9:-0.00017,  10: 0.14412,  11: 0.11885,  12:-0.04532,  13:-0.12593,  14:-0.15905,  15:-0.33624,  16:-0.25061,
                 17: 0.08542,  18:-0.13301,  19:-0.18923,  20:-0.06342,  21:-0.06732,  22:-0.14566,  23:-0.23528,  24:-0.18345,
                 25:-0.06007,  26:-0.16772,  27:-0.09722,  28:-0.20789,  29:-0.01192,  30:-0.16980,  31:-0.01730,  32:-0.05085,
                 33:-0.06749,  34:-0.23721,  35:-0.13614,  36: 0.10831,  37:-0.07305,  38:-0.04371,  39: 0.07244,  40:-0.18923,
                 41:-0.05428,  42:-0.02196,  43:-0.08780,  44:-0.08727,  45:-0.04506,  46:-0.16091,  47:-0.15436,  48: 0.01100,
                 49: 0.15578,  50:-0.02998,  51: 0.15467,  52:-0.23106,  53:-0.00056,  54: 0.15831,  55:-0.27635,  56:-0.01161,
                 57: 0.21304,  58:-0.17775,  59: 0.04929,  60:-0.19499,  61:-0.08413,  62:-0.20400,  63: 0.11700,  64:-0.04042,
                 65:-0.14662,  66: 0.11303,  67: 0.09231,  68: 0.08956,  69:-0.23591,  70:-0.17792,  71:-0.18972,  72:-0.05149,
                 73:-0.02038,  74: 0.23644,  75: 0.34942,  76: 0.31735,  77: 0.55584,  78: 0.07190,  79:-0.23480,  80:-0.33915,
                 81:-0.09298,  82:-0.04442,  83: 0.31858,  84: 0.00919,  85: 0.41250,  86:-0.04456,  87: 0.26883,  88: 0.47603,
                 89:-0.18893,  90:-0.39819,  91: 0.35398,  92: 0.35248,  93: 0.25371,  94: 0.45859,  95: 0.38711,  96:-0.02773,
                 97: 0.30090,  98:-0.00507,  99:-0.19242, 100:-0.02094, 101: 0.60353, 102: 0.42826, 103: 0.37570, 104: 0.02771,
                105: 0.02277, 106: 0.19762, 107: 0.01617, 108:-0.22848, 109: 0.07335, 110:-0.04803, 111: 0.37564, 112: 0.51719,
                113: 0.47192, 114: 0.29400, 115: 0.49015, 116: 0.31305, 117: 0.27881, 118:-0.11151, 119: 0.13708, 120: 0.26209,
                121: 0.10029, 122: 0.27180, 123: 0.21882, 124: 0.32652, 125: 0.29962, 126:-0.07324, 127: 0.03647, 128:-0.03976,
                129: 0.20051, 130: 0.09057, 131:-0.09871, 132:-0.17121, 133:-0.02044, 134: 0.11317, 135:-0.33449, 136:-0.24595,
                137: 0.04803, 138: 0.03050, 139:-0.00534, 140: 0.06235, 141:-0.24259, 142:-0.29194, 143:-0.09741, 144:-0.12180,
                145:-0.05279, 146:-0.13512, 147:-0.02063, 148:-0.09709, 149:-0.01142, 150:-0.18578, 151:-0.03386, 152:-0.15700,
                153:-0.05265, 154:-0.41326, 155:-0.08662, 156: 0.03478, 157:-0.01742, 158:-0.28814, 159:-0.01590, 160:-0.13340
   164 |      |   1:-0.10258,   2:-0.02448,   3:-0.09347,   4: 0.21280,   5: 0.10520,   6: 0.09469,   7:-0.19579,   8:-0.26147,
                  9:-0.27537,  10: 0.03077,  11: 0.13707,  12: 0.13690,  13: 0.13631,  14: 0.10911,  15:-0.03326,  16: 0.35436,
                 17: 0.19430,  18: 0.01573,  19:-0.17699,  20:-0.10162,  21: 0.00599,  22:-0.00859,  23: 0.15206,  24: 0.03042,
                 25:-0.15905,  26: 0.28952,  27: 0.00600,  28:-0.07230,  29: 0.03031,  30:-0.11063,  31:-0.13616,  32:-0.36120,
                 33:-0.19562,  34:-0.25688,  35:-0.27172,  36:-0.11617,  37: 0.07023,  38: 0.01101,  39: 0.17712,  40: 0.10452,
                 41:-0.14756,  42:-0.48137,  43:-0.41196,  44:-0.36909,  45:-0.35538,  46:-0.16264,  47: 0.00510,  48:-0.11840,
                 49: 0.45925,  50: 0.05979,  51:-0.25767,  52:-0.50178,  53:-0.34184,  54:-0.37632,  55:-0.32502,  56:-0.14961,
                 57: 0.14455,  58: 0.20377,  59: 0.06847,  60:-0.26617,  61:-0.16475,  62:-0.42047,  63:-0.44399,  64:-0.34617,
                 65:-0.10337,  66: 0.03971,  67: 0.21411,  68: 0.13936,  69: 0.01629,  70:-0.29508,  71:-0.19178,  72:-0.28795,
                 73:-0.14408,  74:-0.19471,  75: 0.28538,  76: 0.21099,  77: 0.06184,  78: 0.35061,  79:-0.00820,  80:-0.23532,
                 81:-0.14379,  82:-0.16540,  83:-0.10033,  84:-0.06485,  85: 0.15491,  86: 0.26644,  87: 0.11411,  88: 0.02886,
                 89: 0.02078,  90: 0.07121,  91:-0.02991,  92:-0.15907,  93:-0.12177,  94:-0.26258,  95:-0.18699,  96:-0.14532,
                 97: 0.16165,  98: 0.14305,  99: 0.38487, 100: 0.22146, 101:-0.05496, 102:-0.23716, 103: 0.00617, 104:-0.30809,
                105:-0.26684, 106:-0.12243, 107:-0.00316, 108:-0.08764, 109: 0.14630, 110: 0.12479, 111: 0.08237, 112:-0.21999,
                113:-0.14288, 114:-0.15164, 115:-0.32375, 116:-0.03571, 117:-0.21644, 118:-0.08323, 119:-0.02561, 120: 0.16747,
                121:-0.10558, 122:-0.00074, 123: 0.02242, 124: 0.01759, 125:-0.07251, 126:-0.19705, 127:-0.08108, 128: 0.08672,
                129: 0.06127, 130: 0.08585, 131: 0.05129, 132: 0.08250, 133:-0.05577, 134: 0.03726, 135:-0.23794, 136:-0.16222,
                137:-0.25448, 138: 0.10831, 139:-0.05455, 140: 0.06308, 141:-0.22690, 142: 0.08492, 143: 0.10056, 144:-0.19935,
                145:-0.20283, 146: 0.08940, 147: 0.04239, 148:-0.04883, 149:-0.11119, 150:-0.05967, 151:-0.03661, 152:-0.14544,
                153:-0.25030, 154:-0.00665, 155:-0.26745, 156: 0.04003, 157: 0.06129, 158:-0.26966, 159:-0.07539, 160: 0.02842
   165 |      |   1: 0.12790,   2:-0.11346,   3: 0.22507,   4: 0.11483,   5:-0.06363,   6:-0.15283,   7:-0.07159,   8: 0.12590,
                  9:-0.06650,  10:-0.06697,  11: 0.21372,  12: 0.34743,  13: 0.00884,  14: 0.05790,  15:-0.14465,  16:-0.02846,
                 17:-0.41022,  18:-0.28467,  19:-0.33557,  20: 0.01288,  21: 0.14406,  22: 0.17887,  23: 0.05812,  24:-0.32161,
                 25: 0.02328,  26: 0.14287,  27:-0.40079,  28:-0.12351,  29:-0.06076,  30:-0.05065,  31: 0.14561,  32: 0.00677,
                 33: 0.06188,  34: 0.05266,  35:-0.15140,  36: 0.03846,  37:-0.36064,  38: 0.02318,  39: 0.15223,  40: 0.27411,
                 41:-0.03796,  42:-0.03632,  43:-0.07973,  44: 0.04201,  45: 0.05691,  46:-0.03978,  47: 0.11451,  48: 0.17241,
                 49: 0.43655,  50: 0.32526,  51: 0.26293,  52:-0.01875,  53:-0.15728,  54: 0.01142,  55: 0.21131,  56: 0.25602,
                 57: 0.08102,  58:-0.13160,  59: 0.43110,  60: 0.41740,  61: 0.09050,  62:-0.09002,  63:-0.00021,  64: 0.10266,
                 65: 0.24040,  66:-0.05294,  67: 0.18948,  68: 0.32325,  69: 0.15861,  70: 0.51408,  71:-0.01562,  72:-0.07390,
                 73:-0.12363,  74:-0.07479,  75: 0.13640,  76: 0.09416,  77: 0.30884,  78: 0.18016,  79: 0.31316,  80: 0.44479,
                 81:-0.12448,  82:-0.23801,  83:-0.19915,  84: 0.15654,  85: 0.13527,  86: 0.18611,  87: 0.28383,  88: 0.35593,
                 89: 0.14980,  90: 0.12203,  91:-0.13774,  92:-0.22528,  93:-0.10277,  94: 0.35010,  95: 0.46312,  96: 0.33624,
                 97: 0.19586,  98:-0.02393,  99:-0.20314, 100:-0.28533, 101:-0.21496, 102:-0.05551, 103: 0.42805, 104: 0.56333,
                105: 0.22378, 106: 0.37743, 107: 0.15025, 108: 0.16098, 109:-0.14710, 110:-0.53880, 111:-0.26996, 112:-0.02527,
                113: 0.49106, 114: 0.56850, 115: 0.31585, 116: 0.35833, 117: 0.30049, 118: 0.08922, 119:-0.37847, 120:-0.51813,
                121:-0.13616, 122:-0.05706, 123: 0.15738, 124: 0.21849, 125:-0.15085, 126:-0.12837, 127:-0.06769, 128:-0.12085,
                129:-0.31919, 130:-0.21405, 131:-0.30494, 132: 0.29215, 133: 0.01898, 134: 0.13542, 135:-0.11116, 136: 0.02224,
                137: 0.02054, 138:-0.23651, 139:-0.23154, 140:-0.14677, 141: 0.03593, 142: 0.26102, 143:-0.12142, 144:-0.10516,
                145:-0.10648, 146:-0.09420, 147: 0.40431, 148:-0.13317, 149: 0.04473, 150:-0.03380, 151:-0.08195, 152:-0.19386,
                153:-0.25625, 154:-0.21082, 155:-0.19571, 156: 0.03495, 157:-0.06476, 158: 0.04561, 159:-0.00970, 160: 0.31062
   166 |      |   1: 0.12272,   2: 0.05550,   3:-0.11799,   4:-0.18210,   5: 0.03754,   6:-0.34589,   7:-0.19481,   8:-0.29566,
                  9: 0.24496,  10: 0.14227,  11: 0.08741,  12:-0.18673,  13:-0.45425,  14:-0.61960,  15:-0.70279,  16:-0.72715,
                 17:-0.56400,  18:-0.04095,  19: 0.18908,  20:-0.15587,  21: 0.10265,  22:-0.02109,  23:-0.35877,  24:-0.58898,
                 25:-0.50437,  26:-0.45731,  27:-0.10934,  28:-0.03159,  29: 0.24743,  30:-0.14473,  31: 0.14492,  32: 0.36053,
                 33:-0.14737,  34:-0.39258,  35:-0.19821,  36:-0.24564,  37:-0.21749,  38: 0.14826,  39: 0.11552,  40: 0.06389,
                 41: 0.16305,  42: 0.20331,  43: 0.11604,  44:-0.08386,  45:-0.07498,  46:-0.05492,  47:-0.18069,  48: 0.08636,
                 49:-0.34852,  50:-0.00868,  51: 0.15945,  52: 0.19360,  53: 0.16753,  54: 0.08476,  55:-0.09157,  56: 0.01455,
                 57:-0.28895,  58: 0.09951,  59:-0.22487,  60: 0.00366,  61:-0.01279,  62: 0.24876,  63: 0.41414,  64: 0.12111,
                 65:-0.16660,  66:-0.11502,  67:-0.00502,  68: 0.22850,  69:-0.01015,  70: 0.24355,  71: 0.21694,  72: 0.34898,
                 73: 0.50944,  74: 0.21234,  75:-0.15551,  76:-0.05852,  77: 0.00267,  78: 0.01579,  79: 0.13341,  80: 0.39182,
                 81: 0.37452,  82: 0.36043,  83: 0.29546,  84:-0.01832,  85:-0.06038,  86: 0.01328,  87:-0.06162,  88:-0.10770,
                 89: 0.23262,  90:-0.04172,  91: 0.63241,  92: 1.06237,  93: 0.33202,  94:-0.22954,  95:-0.42265,  96:-0.13000,
                 97:-0.07925,  98:-0.01546,  99: 0.11122, 100: 0.18010, 101: 0.62966, 102: 0.92389, 103: 0.30400, 104:-0.16429,
                105:-0.06964, 106:-0.10366, 107: 0.19377, 108: 0.16190, 109: 0.31612, 110: 0.24712, 111: 0.56526, 112: 0.99275,
                113:-0.03020, 114:-0.09248, 115: 0.00704, 116:-0.08429, 117: 0.12841, 118: 0.01345, 119: 0.39951, 120: 0.07085,
                121: 0.12409, 122: 0.39140, 123: 0.12338, 124: 0.08040, 125: 0.06543, 126: 0.12000, 127: 0.25163, 128: 0.15057,
                129: 0.21921, 130:-0.12237, 131:-0.20979, 132: 0.06965, 133:-0.12464, 134:-0.18342, 135:-0.24670, 136: 0.01575,
                137: 0.09592, 138:-0.00795, 139: 0.20559, 140: 0.04521, 141:-0.23143, 142:-0.13690, 143:-0.44759, 144:-0.22965,
                145:-0.22129, 146:-0.00769, 147:-0.29181, 148:-0.12292, 149: 0.07639, 150:-0.05155, 151:-0.27968, 152:-0.09150,
                153:-0.28632, 154:-0.00588, 155:-0.12354, 156:-0.33717, 157:-0.53316, 158:-0.03610, 159:-0.03393, 160:-0.04824
   167 |      |   1: 0.04555,   2: 0.15527,   3:-0.17235,   4:-0.30536,   5: 0.08775,   6: 0.14289,   7: 0.10583,   8:-0.02693,
                  9: 0.04167,  10: 0.43391,  11:-0.09674,  12:-0.24963,  13:-0.29953,  14:-0.31178,  15:-0.09397,  16:-0.34340,
                 17: 0.06229,  18: 0.17109,  19: 0.38295,  20: 0.26884,  21:-0.11155,  22:-0.17829,  23:-0.35636,  24:-0.01717,
                 25:-0.01747,  26:-0.10867,  27: 0.28494,  28: 0.01901,  29: 0.00629,  30: 0.00453,  31:-0.18314,  32:-0.08632,
                 33:-0.13384,  34: 0.01611,  35: 0.07083,  36: 0.09762,  37: 0.17205,  38:-0.17817,  39:-0.53341,  40:-0.57294,
                 41:-0.05479,  42: 0.06515,  43: 0.18164,  44:-0.05089,  45: 0.06378,  46: 0.28550,  47:-0.23293,  48:-0.52220,
                 49:-0.95500,  50:-1.06517,  51:-0.13631,  52: 0.00158,  53: 0.29875,  54: 0.05552,  55:-0.00717,  56: 0.00827,
                 57:-0.21479,  58:-0.35843,  59:-0.60966,  60:-0.89767,  61:-0.00880,  62: 0.08854,  63: 0.15273,  64: 0.23033,
                 65: 0.10182,  66: 0.10530,  67:-0.03294,  68:-0.10217,  69:-0.24977,  70:-0.70361,  71: 0.31425,  72: 0.21889,
                 73: 0.43493,  74: 0.09666,  75: 0.20729,  76: 0.13581,  77:-0.11490,  78:-0.12107,  79:-0.37775,  80:-0.53603,
                 81: 0.11426,  82: 0.06953,  83:-0.06894,  84: 0.00503,  85: 0.28564,  86: 0.02749,  87:-0.05300,  88:-0.33382,
                 89:-0.21170,  90:-0.03222,  91:-0.00367,  92:-0.07751,  93:-0.09720,  94: 0.00007,  95: 0.15069,  96:-0.16386,
                 97:-0.06166,  98:-0.24697,  99:-0.22339, 100: 0.27369, 101:-0.08326, 102:-0.26514, 103:-0.66633, 104:-0.05117,
                105: 0.04850, 106:-0.22002, 107:-0.25657, 108:-0.24898, 109: 0.04689, 110: 0.32888, 111: 0.05104, 112:-0.24690,
                113:-0.55558, 114:-0.03218, 115:-0.05021, 116:-0.11535, 117:-0.26744, 118:-0.09932, 119: 0.37307, 120: 0.39898,
                121:-0.09039, 122:-0.44270, 123:-0.31554, 124: 0.19652, 125: 0.23926, 126: 0.40236, 127:-0.12045, 128: 0.24114,
                129: 0.33686, 130: 0.11084, 131:-0.00277, 132:-0.55685, 133: 0.00577, 134: 0.11973, 135: 0.26974, 136:-0.01864,
                137: 0.15138, 138: 0.51469, 139: 0.35816, 140: 0.16519, 141:-0.12811, 142:-0.45811, 143:-0.01142, 144: 0.33902,
                145: 0.25407, 146: 0.24937, 147: 0.08819, 148: 0.23948, 149: 0.03883, 150: 0.00381, 151: 0.05726, 152:-0.09835,
                153: 0.17382, 154:-0.01904, 155: 0.34652, 156:-0.09410, 157: 0.32742, 158: 0.15028, 159:-0.02444, 160:-0.21211
   168 |      |   1: 0.12074,   2:-0.06592,   3: 0.08979,   4: 0.01889,   5:-0.22375,   6:-0.07898,   7: 0.11207,   8: 0.14495,
                  9:-0.01184,  10:-0.16660,  11: 0.00179,  12: 0.01474,  13:-0.11941,  14: 0.01075,  15:-0.28679,  16:-0.30794,
                 17:-0.29661,  18:-0.27449,  19:-0.21380,  20:-0.06737,  21:-0.03155,  22: 0.08075,  23:-0.31180,  24:-0.28863,
                 25: 0.00667,  26:-0.03743,  27:-0.29073,  28: 0.02631,  29:-0.14068,  30:-0.03436,  31: 0.03339,  32:-0.03549,
                 33:-0.00545,  34: 0.06199,  35: 0.05649,  36: 0.01439,  37:-0.27036,  38: 0.20344,  39:-0.01638,  40: 0.03244,
                 41: 0.07170,  42: 0.03260,  43: 0.06876,  44: 0.28172,  45: 0.11031,  46:-0.01484,  47: 0.06212,  48: 0.23128,
                 49: 0.13587,  50: 0.25274,  51: 0.21032,  52: 0.27931,  53: 0.25648,  54: 0.22271,  55: 0.08799,  56: 0.13778,
                 57:-0.10738,  58:-0.12858,  59:-0.03036,  60: 0.50568,  61: 0.14207,  62: 0.31588,  63: 0.27532,  64: 0.13940,
                 65: 0.18209,  66:-0.13849,  67:-0.07607,  68: 0.08139,  69: 0.18131,  70: 0.56527,  71: 0.28450,  72: 0.09428,
                 73:-0.14925,  74:-0.16741,  75: 0.19233,  76:-0.08481,  77: 0.12573,  78: 0.12346,  79: 0.23473,  80: 0.49351,
                 81: 0.20072,  82:-0.09117,  83:-0.12362,  84:-0.05641,  85: 0.06072,  86:-0.08728,  87: 0.19215,  88: 0.31193,
                 89: 0.25440,  90: 0.00597,  91: 0.15739,  92: 0.11233,  93:-0.01675,  94: 0.33932,  95: 0.26753,  96: 0.11104,
                 97: 0.02399,  98: 0.00554,  99:-0.16623, 100:-0.24575, 101: 0.17861, 102: 0.40404, 103: 0.39989, 104: 0.30651,
                105: 0.28670, 106: 0.22436, 107: 0.05983, 108: 0.12486, 109: 0.02363, 110:-0.35364, 111:-0.02435, 112: 0.47747,
                113: 0.46682, 114: 0.40667, 115: 0.19066, 116: 0.16358, 117: 0.05530, 118:-0.01923, 119:-0.16318, 120:-0.35655,
                121:-0.11425, 122: 0.29306, 123: 0.18903, 124: 0.52633, 125: 0.07158, 126:-0.02980, 127:-0.06640, 128:-0.01252,
                129:-0.10882, 130:-0.20373, 131:-0.16840, 132: 0.38240, 133: 0.23943, 134: 0.11282, 135: 0.06365, 136: 0.00246,
                137: 0.36932, 138:-0.06953, 139:-0.04385, 140:-0.16292, 141: 0.01492, 142: 0.06345, 143:-0.34098, 144:-0.03768,
                145: 0.06355, 146: 0.02276, 147: 0.27880, 148: 0.10876, 149: 0.05369, 150:-0.05201, 151: 0.03381, 152:-0.14855,
                153:-0.33022, 154:-0.01650, 155:-0.14706, 156: 0.09885, 157:-0.05433, 158: 0.21720, 159: 0.00654, 160: 0.30681
   169 |      |   1:-0.01568,   2: 0.20568,   3:-0.10293,   4:-0.11950,   5: 0.22762,   6:-0.02201,   7:-0.08027,   8: 0.00424,
                  9: 0.09952,  10:-0.00885,  11:-0.26653,  12:-0.28267,  13:-0.24480,  14:-0.23397,  15: 0.05725,  16: 0.05738,
                 17: 0.20865,  18: 0.21534,  19: 0.19337,  20: 0.08365,  21:-0.19740,  22:-0.09494,  23: 0.08355,  24:-0.07680,
                 25: 0.00300,  26: 0.04648,  27: 0.43117,  28: 0.14188,  29:-0.08507,  30: 0.12918,  31:-0.16610,  32:-0.00476,
                 33:-0.07071,  34: 0.10378,  35: 0.35858,  36: 0.01418,  37: 0.15027,  38:-0.12424,  39:-0.20802,  40:-0.08141,
                 41: 0.01765,  42: 0.03972,  43: 0.14081,  44: 0.12689,  45: 0.10974,  46: 0.02673,  47:-0.06697,  48:-0.21503,
                 49:-0.22274,  50:-0.04930,  51:-0.07436,  52: 0.13908,  53: 0.14185,  54:-0.01169,  55:-0.03269,  56:-0.29011,
                 57:-0.22122,  58: 0.10181,  59:-0.15705,  60:-0.03549,  61: 0.01924,  62: 0.26217,  63:-0.03350,  64: 0.04355,
                 65:-0.06742,  66:-0.00641,  67: 0.10646,  68:-0.05869,  69: 0.06163,  70: 0.01098,  71: 0.01514,  72: 0.18726,
                 73: 0.14956,  74: 0.21332,  75:-0.12360,  76: 0.02488,  77:-0.29394,  78: 0.00280,  79:-0.09601,  80:-0.04595,
                 81:-0.03855,  82: 0.23477,  83: 0.13821,  84: 0.16985,  85:-0.16620,  86: 0.03773,  87:-0.11668,  88:-0.40405,
                 89:-0.00645,  90: 0.17695,  91:-0.13007,  92:-0.00412,  93: 0.01838,  94:-0.12081,  95:-0.14972,  96: 0.05574,
                 97: 0.02072,  98:-0.01567,  99: 0.18823, 100: 0.29833, 101:-0.05800, 102:-0.17760, 103:-0.40837, 104:-0.31770,
                105:-0.08562, 106:-0.08700, 107: 0.03957, 108: 0.09098, 109: 0.17931, 110: 0.53112, 111:-0.04825, 112:-0.29985,
                113:-0.51603, 114:-0.50344, 115:-0.25268, 116:-0.31983, 117:-0.08813, 118: 0.06427, 119: 0.25229, 120: 0.26084,
                121:-0.07776, 122:-0.26428, 123:-0.27162, 124:-0.37864, 125:-0.00618, 126:-0.04085, 127:-0.05436, 128: 0.12489,
                129: 0.10408, 130: 0.30547, 131: 0.10006, 132:-0.28859, 133:-0.00405, 134:-0.02483, 135: 0.30605, 136: 0.18050,
                137: 0.17480, 138:-0.02915, 139: 0.00730, 140: 0.20866, 141:-0.00116, 142:-0.01855, 143: 0.31614, 144: 0.21883,
                145: 0.03097, 146:-0.10169, 147:-0.21877, 148:-0.04709, 149:-0.05652, 150:-0.01820, 151: 0.15184, 152: 0.21042,
                153: 0.20934, 154: 0.32789, 155: 0.15741, 156: 0.01135, 157:-0.10653, 158:-0.03389, 159: 0.06308, 160:-0.22766
   170 |      |   1: 0.03277,   2:-0.15484,   3:-0.18352,   4:-0.16715,   5:-0.30433,   6:-0.21450,   7: 0.03891,   8:-0.20514,
                  9:-0.18525,  10: 0.06350,  11: 0.25544,  12:-0.16978,  13:-0.29741,  14:-0.20622,  15:-0.62527,  16:-0.58637,
                 17:-0.22721,  18:-0.23293,  19:-0.39933,  20:-0.14940,  21: 0.01192,  22:-0.04762,  23:-0.20084,  24:-0.34344,
                 25:-0.14170,  26:-0.25462,  27:-0.32447,  28:-0.17466,  29:-0.27848,  30:-0.24712,  31:-0.03663,  32: 0.14460,
                 33:-0.08546,  34:-0.27620,  35:-0.26661,  36: 0.16264,  37:-0.26107,  38:-0.24392,  39: 0.02226,  40:-0.16349,
                 41: 0.04948,  42: 0.22483,  43: 0.20163,  44: 0.02419,  45: 0.02138,  46:-0.06596,  47:-0.41330,  48:-0.27762,
                 49: 0.00259,  50:-0.21472,  51: 0.15949,  52:-0.12704,  53: 0.13276,  54: 0.16919,  55:-0.02359,  56: 0.02946,
                 57: 0.16121,  58:-0.18214,  59:-0.04095,  60:-0.21709,  61: 0.07322,  62:-0.03418,  63: 0.14382,  64: 0.15854,
                 65: 0.15859,  66: 0.14966,  67: 0.08080,  68:-0.02342,  69:-0.16815,  70:-0.09806,  71: 0.02691,  72: 0.11976,
                 73: 0.13797,  74: 0.53136,  75: 0.68622,  76: 0.41911,  77: 0.56453,  78:-0.10261,  79:-0.20502,  80:-0.18442,
                 81:-0.03719,  82: 0.13069,  83: 0.20919,  84: 0.12058,  85: 0.67525,  86: 0.03273,  87: 0.06259,  88: 0.23147,
                 89:-0.00164,  90:-0.32938,  91: 0.60876,  92: 0.57644,  93: 0.46435,  94: 0.65470,  95: 0.50667,  96:-0.00299,
                 97: 0.11531,  98: 0.03226,  99:-0.13682, 100:-0.21347, 101: 0.59406, 102: 0.64575, 103: 0.37184, 104: 0.21810,
                105:-0.03068, 106: 0.17029, 107:-0.06833, 108:-0.27518, 109: 0.25117, 110:-0.13836, 111: 0.43129, 112: 0.58664,
                113: 0.52390, 114: 0.52442, 115: 0.28549, 116: 0.13618, 117: 0.17600, 118:-0.04104, 119: 0.26589, 120: 0.30041,
                121: 0.05596, 122: 0.22583, 123: 0.05975, 124: 0.40373, 125:-0.02702, 126:-0.29522, 127: 0.16994, 128: 0.11769,
                129: 0.34122, 130: 0.11437, 131:-0.12063, 132:-0.24603, 133: 0.01232, 134: 0.06178, 135:-0.64860, 136:-0.37368,
                137:-0.09387, 138: 0.09144, 139: 0.04787, 140:-0.04479, 141:-0.17869, 142:-0.15365, 143:-0.14543, 144:-0.17916,
                145:-0.23330, 146:-0.27110, 147: 0.17856, 148:-0.02579, 149: 0.10973, 150:-0.08271, 151:-0.08749, 152:-0.09138,
                153: 0.08503, 154:-0.45635, 155:-0.25424, 156:-0.10910, 157:-0.07597, 158:-0.11965, 159:-0.01874, 160: 0.16804
   171 |      |   1: 0.04153,   2: 0.20840,   3: 0.15683,   4: 0.25106,   5: 0.12921,   6: 0.06812,   7:-0.05311,   8:-0.08958,
                  9: 0.09871,  10:-0.07913,  11: 0.03366,  12: 0.13623,  13: 0.42829,  14: 0.41145,  15: 0.27968,  16: 0.29064,
                 17:-0.03610,  18: 0.13919,  19: 0.22871,  20: 0.18531,  21: 0.10247,  22: 0.23985,  23: 0.33381,  24: 0.08260,
                 25: 0.11656,  26: 0.08571,  27:-0.10265,  28: 0.02008,  29: 0.31545,  30: 0.36122,  31: 0.26203,  32: 0.26212,
                 33: 0.02769,  34:-0.06094,  35:-0.10725,  36:-0.11980,  37:-0.15998,  38: 0.18960,  39: 0.18947,  40: 0.37211,
                 41: 0.18031,  42: 0.13519,  43: 0.00170,  44:-0.08769,  45:-0.11470,  46:-0.03525,  47: 0.13002,  48: 0.27885,
                 49: 0.38371,  50: 0.25124,  51: 0.08965,  52: 0.24110,  53: 0.05476,  54:-0.11912,  55:-0.00449,  56:-0.06361,
                 57:-0.05201,  58: 0.17344,  59: 0.20410,  60: 0.36332,  61:-0.01879,  62: 0.20160,  63:-0.05719,  64:-0.07233,
                 65:-0.19151,  66:-0.00559,  67: 0.00558,  68:-0.00238,  69: 0.10811,  70: 0.16741,  71: 0.08955,  72: 0.10646,
                 73:-0.23896,  74:-0.19315,  75:-0.18157,  76:-0.06737,  77:-0.07334,  78: 0.05644,  79: 0.16302,  80: 0.01111,
                 81:-0.08757,  82:-0.16173,  83:-0.02770,  84:-0.11771,  85:-0.16741,  86: 0.13617,  87: 0.13841,  88: 0.04849,
                 89: 0.09915,  90: 0.14795,  91:-0.09320,  92:-0.09771,  93: 0.00610,  94:-0.26115,  95:-0.24728,  96: 0.08087,
                 97: 0.00524,  98: 0.02454,  99: 0.10571, 100:-0.06369, 101:-0.21891, 102:-0.06756, 103: 0.13239, 104:-0.02122,
                105:-0.08333, 106: 0.03272, 107:-0.09396, 108: 0.10778, 109:-0.03047, 110:-0.06044, 111:-0.17931, 112: 0.10359,
                113: 0.16850, 114:-0.14772, 115:-0.33356, 116:-0.09674, 117: 0.02403, 118:-0.11360, 119:-0.08945, 120:-0.13529,
                121:-0.02437, 122: 0.24634, 123: 0.04386, 124:-0.22788, 125:-0.19281, 126:-0.07515, 127:-0.11311, 128:-0.13199,
                129:-0.12226, 130: 0.02082, 131: 0.14614, 132: 0.17993, 133:-0.00136, 134:-0.00210, 135:-0.09269, 136:-0.07617,
                137:-0.12026, 138:-0.13226, 139:-0.06567, 140: 0.24441, 141: 0.11999, 142: 0.22666, 143: 0.11742, 144:-0.14787,
                145:-0.15814, 146: 0.08114, 147:-0.03322, 148:-0.06039, 149: 0.10279, 150: 0.08310, 151: 0.13233, 152: 0.25732,
                153: 0.01593, 154: 0.11520, 155:-0.06935, 156:-0.00159, 157:-0.04261, 158:-0.06932, 159: 0.11408, 160:-0.04149
   172 |      |   1:-0.07031,   2: 0.11799,   3:-0.01715,   4: 0.26272,   5:-0.04137,   6:-0.08580,   7:-0.17459,   8:-0.10208,
                  9:-0.22893,  10:-0.21851,  11: 0.12131,  12: 0.42305,  13: 0.56395,  14: 0.42264,  15: 0.44514,  16: 0.60830,
                 17: 0.24912,  18: 0.20013,  19: 0.16997,  20: 0.06268,  21: 0.21808,  22: 0.13443,  23: 0.10925,  24: 0.32109,
                 25: 0.26305,  26: 0.21660,  27: 0.11671,  28: 0.15056,  29:-0.04269,  30:-0.15988,  31:-0.22383,  32:-0.13837,
                 33: 0.15645,  34: 0.30807,  35: 0.02617,  36: 0.05787,  37: 0.11718,  38: 0.09974,  39:-0.22779,  40:-0.19561,
                 41:-0.04049,  42:-0.44776,  43:-0.20404,  44: 0.00094,  45:-0.15484,  46:-0.01246,  47: 0.00149,  48:-0.21434,
                 49:-0.06816,  50:-0.41578,  51:-0.36354,  52:-0.15661,  53:-0.23831,  54:-0.26066,  55:-0.02710,  56:-0.01908,
                 57: 0.17248,  58:-0.12459,  59:-0.54328,  60:-0.48364,  61:-0.18337,  62:-0.38454,  63:-0.23911,  64:-0.13827,
                 65: 0.31536,  66:-0.03209,  67: 0.00610,  68:-0.28381,  69: 0.08097,  70:-0.57558,  71:-0.26062,  72:-0.38993,
                 73:-0.19409,  74:-0.20284,  75: 0.06223,  76: 0.09777,  77:-0.07811,  78: 0.04075,  79:-0.06737,  80:-0.34392,
                 81:-0.15758,  82:-0.20173,  83:-0.37089,  84:-0.16911,  85:-0.04049,  86: 0.08977,  87:-0.01801,  88:-0.34669,
                 89:-0.30076,  90: 0.04369,  91:-0.13907,  92:-0.46169,  93:-0.29249,  94:-0.27711,  95:-0.22038,  96:-0.15978,
                 97:-0.08096,  98: 0.00828,  99: 0.01903, 100:-0.17715, 101:-0.25882, 102:-0.79669, 103:-0.24879, 104:-0.04919,
                105:-0.12431, 106:-0.39231, 107:-0.15149, 108:-0.21163, 109:-0.34327, 110:-0.16724, 111:-0.10418, 112:-0.49048,
                113:-0.20882, 114:-0.00510, 115:-0.12810, 116:-0.13470, 117:-0.56305, 118:-0.15639, 119:-0.13357, 120:-0.28557,
                121: 0.03347, 122:-0.04021, 123: 0.28461, 124: 0.32374, 125: 0.29424, 126: 0.02806, 127:-0.16912, 128:-0.14137,
                129:-0.13022, 130:-0.37577, 131: 0.34877, 132: 0.39356, 133: 0.32131, 134: 0.13466, 135:-0.06236, 136:-0.09927,
                137:-0.57130, 138: 0.15471, 139: 0.09606, 140:-0.08034, 141: 0.15998, 142: 0.40581, 143: 0.26949, 144:-0.02809,
                145:-0.04193, 146:-0.02420, 147: 0.04986, 148: 0.13679, 149:-0.00821, 150: 0.18269, 151: 0.15220, 152: 0.19705,
                153: 0.01067, 154: 0.21573, 155: 0.06720, 156: 0.11352, 157: 0.66929, 158: 0.36646, 159: 0.24007, 160: 0.14432
   173 |      |   1:-0.09823,   2: 0.08663,   3: 0.17645,   4: 0.06616,   5: 0.00902,   6: 0.10263,   7:-0.05919,   8: 0.06326,
                  9: 0.10161,  10:-0.12222,  11:-0.18151,  12: 0.19425,  13: 0.01267,  14: 0.17350,  15: 0.18257,  16: 0.03485,
                 17:-0.02732,  18: 0.23136,  19: 0.60205,  20: 0.22447,  21: 0.23416,  22: 0.28397,  23: 0.00562,  24: 0.02474,
                 25: 0.25864,  26:-0.18184,  27:-0.16244,  28: 0.14270,  29: 0.08742,  30:-0.02855,  31: 0.28909,  32: 0.05852,
                 33: 0.32949,  34: 0.18457,  35: 0.14580,  36:-0.08982,  37:-0.23802,  38: 0.08563,  39:-0.40934,  40:-0.15503,
                 41: 0.33078,  42:-0.12096,  43: 0.16751,  44: 0.14295,  45: 0.11320,  46: 0.06068,  47:-0.17376,  48:-0.16365,
                 49:-0.55893,  50:-0.39906,  51:-0.04288,  52: 0.34580,  53:-0.05743,  54: 0.14430,  55: 0.24861,  56: 0.07508,
                 57:-0.39381,  58:-0.23463,  59:-0.58062,  60:-0.07228,  61:-0.01434,  62: 0.16396,  63: 0.03611,  64: 0.04784,
                 65:-0.02168,  66:-0.40239,  67:-0.40703,  68:-0.27390,  69: 0.01395,  70:-0.12072,  71:-0.00109,  72:-0.10606,
                 73:-0.29258,  74:-0.47713,  75:-0.42619,  76:-0.37454,  77:-0.32082,  78:-0.33592,  79:-0.12433,  80: 0.07890,
                 81: 0.13999,  82:-0.09362,  83:-0.56780,  84:-0.43910,  85:-0.57334,  86:-0.10560,  87:-0.04344,  88:-0.30547,
                 89:-0.25431,  90:-0.05506,  91: 0.06138,  92:-0.04657,  93:-0.31551,  94:-0.44164,  95:-0.31102,  96:-0.15367,
                 97:-0.33263,  98:-0.48300,  99:-0.32134, 100:-0.29735, 101:-0.17460, 102:-0.13826, 103:-0.18809, 104: 0.00820,
                105:-0.09194, 106:-0.36450, 107:-0.33330, 108:-0.06056, 109:-0.27546, 110:-0.52705, 111:-0.04512, 112: 0.12338,
                113:-0.20213, 114:-0.03325, 115:-0.20633, 116:-0.22030, 117:-0.33248, 118: 0.09758, 119:-0.01332, 120:-0.47614,
                121: 0.02589, 122: 0.26415, 123: 0.39014, 124: 0.24839, 125: 0.01101, 126: 0.05596, 127: 0.10114, 128: 0.01362,
                129:-0.10266, 130:-0.40838, 131: 0.20773, 132: 0.42128, 133: 0.35095, 134: 0.09869, 135: 0.23132, 136: 0.21612,
                137: 0.07606, 138: 0.03177, 139: 0.24848, 140:-0.17834, 141: 0.35510, 142: 0.31859, 143:-0.04726, 144:-0.01846,
                145: 0.12300, 146: 0.28303, 147: 0.18711, 148: 0.20165, 149: 0.21249, 150: 0.16247, 151: 0.06179, 152: 0.25930,
                153:-0.13091, 154: 0.33072, 155: 0.24771, 156: 0.24311, 157: 0.34166, 158: 0.52068, 159: 0.36026, 160: 0.28205
   174 |      |   1: 0.10526,   2:-0.28992,   3:-0.16391,   4:-0.14043,   5:-0.09131,   6: 0.13266,   7: 0.24232,   8:-0.05536,
                  9: 0.06642,  10: 0.03625,  11:-0.05801,  12:-0.21352,  13:-0.15544,  14: 0.04787,  15:-0.15997,  16:-0.15497,
                 17:-0.06363,  18: 0.00949,  19:-0.19201,  20:-0.14737,  21: 0.01107,  22:-0.17384,  23:-0.07541,  24:-0.18759,
                 25:-0.02086,  26:-0.28550,  27:-0.10487,  28:-0.25859,  29: 0.06322,  30:-0.00872,  31: 0.11343,  32: 0.18961,
                 33: 0.06083,  34:-0.11139,  35:-0.15447,  36: 0.09678,  37:-0.02327,  38:-0.02583,  39: 0.12139,  40: 0.00538,
                 41:-0.02248,  42: 0.13451,  43: 0.19039,  44: 0.01052,  45:-0.08094,  46:-0.03154,  47:-0.08927,  48: 0.11930,
                 49: 0.04057,  50: 0.09572,  51: 0.13238,  52:-0.09383,  53: 0.10929,  54: 0.25871,  55: 0.05464,  56: 0.19294,
                 57: 0.05203,  58:-0.10740,  59: 0.15385,  60: 0.00362,  61:-0.09018,  62:-0.16858,  63:-0.01462,  64: 0.04540,
                 65:-0.22174,  66: 0.25510,  67:-0.00038,  68:-0.04133,  69:-0.22145,  70: 0.08773,  71:-0.07303,  72:-0.10335,
                 73:-0.07345,  74: 0.07421,  75: 0.18073,  76: 0.28771,  77: 0.37275,  78:-0.13767,  79:-0.25063,  80:-0.14640,
                 81:-0.07351,  82:-0.00689,  83: 0.15449,  84:-0.18994,  85: 0.12868,  86:-0.09697,  87: 0.03865,  88: 0.21310,
                 89:-0.17249,  90:-0.54935,  91: 0.33269,  92: 0.26260,  93: 0.20160,  94: 0.37407,  95: 0.14332,  96:-0.12715,
                 97:-0.07829,  98:-0.19185,  99:-0.40206, 100:-0.37711, 101: 0.45768, 102: 0.56625, 103: 0.45137, 104: 0.13620,
                105: 0.00121, 106: 0.17697, 107:-0.10507, 108:-0.25186, 109: 0.00595, 110:-0.14637, 111: 0.41569, 112: 0.71068,
                113: 0.51313, 114: 0.35062, 115: 0.21207, 116: 0.12928, 117: 0.15214, 118:-0.23984, 119:-0.02332, 120: 0.09737,
                121: 0.27228, 122: 0.44956, 123: 0.22481, 124: 0.24971, 125: 0.22612, 126:-0.17375, 127: 0.15359, 128:-0.24217,
                129: 0.03779, 130: 0.15206, 131:-0.03673, 132:-0.07257, 133:-0.03621, 134: 0.10082, 135:-0.25760, 136:-0.14187,
                137:-0.03078, 138:-0.27546, 139:-0.03901, 140: 0.08519, 141:-0.22107, 142:-0.22458, 143:-0.17324, 144:-0.10906,
                145:-0.03677, 146:-0.11517, 147:-0.09239, 148:-0.05332, 149: 0.13056, 150:-0.13174, 151:-0.12016, 152: 0.05967,
                153: 0.14578, 154:-0.17641, 155:-0.18232, 156: 0.14000, 157:-0.06525, 158:-0.08168, 159:-0.11699, 160:-0.11758
   175 |      |   1:-0.01968,   2: 0.17422,   3:-0.18894,   4:-0.18783,   5: 0.10022,   6: 0.14838,   7: 0.17267,   8: 0.20640,
                  9: 0.20125,  10: 0.29457,  11:-0.11059,  12:-0.35679,  13:-0.17885,  14:-0.15193,  15: 0.10136,  16:-0.04133,
                 17: 0.14100,  18: 0.37518,  19: 0.79680,  20: 0.38670,  21:-0.30723,  22:-0.23193,  23:-0.18222,  24: 0.05974,
                 25: 0.17572,  26:-0.16952,  27: 0.20448,  28: 0.24451,  29: 0.27062,  30: 0.42853,  31:-0.02704,  32: 0.17348,
                 33: 0.10038,  34:-0.12852,  35: 0.11036,  36:-0.12595,  37: 0.14308,  38: 0.03715,  39:-0.19301,  40:-0.21637,
                 41: 0.02093,  42: 0.08079,  43: 0.27250,  44: 0.13757,  45: 0.01374,  46: 0.15065,  47:-0.20068,  48:-0.10332,
                 49:-0.68071,  50:-0.70645,  51:-0.10329,  52: 0.26517,  53: 0.23623,  54: 0.13702,  55:-0.03917,  56:-0.15036,
                 57:-0.28895,  58:-0.21850,  59:-0.58467,  60:-0.44133,  61:-0.02623,  62: 0.23404,  63: 0.24161,  64: 0.08965,
                 65:-0.26621,  66:-0.18269,  67:-0.56731,  68:-0.09006,  69:-0.49179,  70:-0.31905,  71: 0.28511,  72: 0.19055,
                 73: 0.14580,  74:-0.05761,  75:-0.21588,  76:-0.26556,  77:-0.45365,  78:-0.38524,  79:-0.26629,  80:-0.02228,
                 81: 0.12437,  82: 0.12112,  83: 0.05975,  84:-0.38047,  85:-0.31744,  86:-0.33972,  87:-0.29652,  88:-0.21625,
                 89:-0.17962,  90:-0.20499,  91: 0.21556,  92: 0.31187,  93: 0.26824,  94:-0.30448,  95:-0.22759,  96:-0.23990,
                 97:-0.49866,  98:-0.20411,  99:-0.07655, 100: 0.15422, 101: 0.24251, 102: 0.33324, 103:-0.26534, 104:-0.24717,
                105:-0.06311, 106:-0.38491, 107:-0.46882, 108:-0.08012, 109: 0.23836, 110: 0.27383, 111: 0.27177, 112: 0.40423,
                113:-0.45114, 114:-0.42156, 115:-0.33768, 116:-0.29116, 117:-0.09272, 118: 0.12974, 119: 0.24813, 120:-0.05014,
                121: 0.00075, 122: 0.16486, 123: 0.01137, 124:-0.14608, 125: 0.06339, 126: 0.11828, 127: 0.12341, 128: 0.24389,
                129: 0.28801, 130:-0.13716, 131: 0.04908, 132: 0.07630, 133: 0.00250, 134:-0.01378, 135: 0.17052, 136:-0.00713,
                137: 0.20622, 138: 0.10052, 139: 0.08859, 140:-0.02552, 141: 0.02820, 142:-0.10811, 143: 0.08957, 144: 0.16189,
                145: 0.23398, 146: 0.09905, 147:-0.27937, 148:-0.08258, 149:-0.07601, 150:-0.17346, 151:-0.00828, 152: 0.05865,
                153: 0.09825, 154: 0.03449, 155: 0.03924, 156:-0.05285, 157:-0.27635, 158:-0.15982, 159:-0.15007, 160:-0.20231
   176 |      |   1: 0.07596,   2: 0.07240,   3: 0.13251,   4:-0.07790,   5:-0.15676,   6:-0.17624,   7: 0.05802,   8: 0.10880,
                  9:-0.22933,  10:-0.12600,  11: 0.25464,  12: 0.31490,  13: 0.14569,  14: 0.05082,  15:-0.07585,  16:-0.19867,
                 17:-0.15113,  18:-0.25467,  19:-0.10403,  20:-0.23761,  21: 0.22038,  22: 0.09263,  23:-0.25082,  24: 0.04761,
                 25: 0.07111,  26:-0.12669,  27:-0.24855,  28:-0.00989,  29: 0.03084,  30:-0.32637,  31:-0.18180,  32: 0.01997,
                 33: 0.16385,  34: 0.09975,  35:-0.35531,  36:-0.24010,  37:-0.30132,  38:-0.13385,  39: 0.10048,  40: 0.10253,
                 41:-0.08794,  42:-0.11048,  43: 0.04958,  44:-0.11046,  45:-0.22384,  46: 0.09591,  47:-0.19051,  48: 0.14119,
                 49: 0.47336,  50: 0.02880,  51:-0.16929,  52:-0.09163,  53:-0.07376,  54:-0.02713,  55:-0.30233,  56: 0.03193,
                 57: 0.01940,  58: 0.12841,  59: 0.15486,  60:-0.11130,  61:-0.03375,  62:-0.12390,  63: 0.01935,  64:-0.02868,
                 65: 0.03566,  66:-0.35768,  67: 0.18704,  68: 0.30976,  69: 0.34975,  70:-0.17223,  71: 0.07556,  72:-0.34045,
                 73:-0.16052,  74:-0.24676,  75:-0.16038,  76:-0.00362,  77: 0.14685,  78: 0.22540,  79:-0.02619,  80: 0.06045,
                 81: 0.15697,  82:-0.16633,  83:-0.37012,  84:-0.16117,  85:-0.15027,  86: 0.19840,  87: 0.43249,  88: 0.02545,
                 89:-0.09941,  90:-0.24178,  91: 0.25765,  92:-0.08552,  93:-0.22921,  94:-0.18929,  95:-0.06385,  96: 0.28813,
                 97: 0.42323,  98: 0.11285,  99:-0.20723, 100:-0.48061, 101: 0.12078, 102: 0.16698, 103: 0.08684, 104: 0.19045,
                105: 0.29053, 106: 0.20432, 107: 0.22074, 108:-0.02528, 109:-0.09328, 110:-0.38344, 111:-0.03067, 112: 0.13458,
                113: 0.05425, 114: 0.46580, 115: 0.23854, 116: 0.21370, 117:-0.28825, 118:-0.22294, 119:-0.37217, 120:-0.51078,
                121:-0.08172, 122:-0.06984, 123: 0.18972, 124: 0.58144, 125: 0.23010, 126: 0.02442, 127:-0.33817, 128:-0.09660,
                129:-0.17313, 130:-0.31718, 131:-0.31488, 132:-0.06638, 133: 0.08740, 134:-0.01659, 135:-0.15040, 136:-0.35639,
                137:-0.52905, 138: 0.01047, 139:-0.08735, 140:-0.17270, 141:-0.16827, 142:-0.07034, 143:-0.36717, 144:-0.30680,
                145:-0.25221, 146:-0.10997, 147: 0.04819, 148: 0.25941, 149: 0.11467, 150: 0.06233, 151:-0.26069, 152:-0.39842,
                153:-0.50086, 154:-0.43119, 155:-0.35073, 156:-0.04480, 157: 0.19920, 158: 0.26571, 159: 0.13718, 160: 0.62010
   177 |      |   1:-0.01601,   2: 0.12227,   3: 0.13367,   4:-0.19048,   5:-0.09382,   6:-0.11983,   7:-0.05749,   8: 0.12693,
                  9: 0.00042,  10:-0.25332,  11:-0.14681,  12:-0.02681,  13:-0.49544,  14:-0.41486,  15:-0.46016,  16:-0.43742,
                 17:-0.28868,  18:-0.05805,  19:-0.00108,  20:-0.06786,  21: 0.00663,  22:-0.23683,  23:-0.10960,  24:-0.20815,
                 25:-0.22334,  26:-0.24752,  27:-0.33917,  28: 0.10631,  29: 0.13579,  30: 0.14285,  31: 0.14758,  32:-0.10832,
                 33:-0.01478,  34:-0.07663,  35:-0.02574,  36:-0.31367,  37:-0.26183,  38:-0.13579,  39: 0.12911,  40: 0.44964,
                 41:-0.05944,  42:-0.02395,  43: 0.06359,  44: 0.29233,  45:-0.01549,  46:-0.04264,  47: 0.13035,  48: 0.28808,
                 49: 0.17432,  50: 0.37941,  51: 0.20932,  52: 0.28600,  53: 0.15134,  54:-0.02015,  55: 0.12185,  56: 0.12164,
                 57:-0.22921,  58: 0.05682,  59: 0.16515,  60: 0.56506,  61: 0.28305,  62: 0.39913,  63: 0.31838,  64: 0.14553,
                 65: 0.12397,  66:-0.25418,  67: 0.00083,  68: 0.06804,  69: 0.31858,  70: 0.65814,  71: 0.31162,  72: 0.28281,
                 73: 0.29221,  74: 0.19719,  75: 0.01410,  76:-0.05668,  77:-0.08167,  78: 0.21224,  79: 0.47058,  80: 0.59731,
                 81: 0.28303,  82: 0.35697,  83: 0.28831,  84: 0.20163,  85:-0.12868,  86:-0.26440,  87: 0.04611,  88: 0.22446,
                 89: 0.56478,  90: 0.54635,  91: 0.00264,  92: 0.33630,  93: 0.05355,  94:-0.29284,  95:-0.24702,  96: 0.07923,
                 97:-0.11626,  98: 0.29094,  99: 0.35047, 100: 0.13474, 101: 0.04202, 102: 0.11480, 103:-0.30431, 104:-0.33333,
                105:-0.06999, 106: 0.02748, 107: 0.12769, 108: 0.32524, 109: 0.25816, 110: 0.07731, 111:-0.17194, 112:-0.26905,
                113:-0.40433, 114:-0.14600, 115:-0.21574, 116:-0.10676, 117: 0.49180, 118: 0.16151, 119:-0.08438, 120:-0.15246,
                121:-0.40191, 122:-0.27696, 123:-0.30228, 124:-0.09131, 125:-0.41110, 126: 0.03816, 127: 0.31621, 128: 0.09675,
                129:-0.19547, 130:-0.31960, 131:-0.29866, 132:-0.10653, 133:-0.14683, 134:-0.20240, 135:-0.05222, 136:-0.00135,
                137: 0.14394, 138:-0.07054, 139:-0.22451, 140:-0.25428, 141: 0.02642, 142:-0.02953, 143:-0.37643, 144:-0.00354,
                145:-0.26694, 146:-0.09742, 147:-0.12589, 148:-0.23177, 149:-0.10088, 150:-0.19707, 151:-0.10782, 152:-0.28299,
                153:-0.33595, 154:-0.14871, 155:-0.04763, 156:-0.24592, 157:-0.44765, 158:-0.01805, 159: 0.04610, 160: 0.05698
   178 |      |   1: 0.17594,   2:-0.20247,   3:-0.30621,   4:-0.19221,   5:-0.06637,   6:-0.23806,   7: 0.02269,   8:-0.22890,
                  9: 0.02763,  10:-0.01199,  11:-0.23897,  12:-0.38689,  13:-0.54446,  14:-0.61511,  15:-0.57406,  16:-0.80138,
                 17:-0.21697,  18:-0.20521,  19:-0.22633,  20:-0.33107,  21:-0.17453,  22:-0.31895,  23:-0.34814,  24:-0.48491,
                 25:-0.42161,  26:-0.35338,  27:-0.29841,  28:-0.43454,  29:-0.12972,  30:-0.06235,  31: 0.19173,  32: 0.43939,
                 33:-0.06723,  34:-0.38333,  35:-0.18782,  36: 0.01345,  37:-0.18547,  38:-0.16005,  39: 0.00965,  40: 0.19990,
                 41: 0.15301,  42: 0.51984,  43: 0.15821,  44:-0.02483,  45: 0.00121,  46:-0.00177,  47:-0.24084,  48:-0.03149,
                 49:-0.13121,  50: 0.31291,  51: 0.37427,  52: 0.18300,  53: 0.28232,  54: 0.27452,  55:-0.06496,  56: 0.15390,
                 57:-0.21252,  58: 0.01611,  59: 0.25669,  60: 0.58421,  61: 0.14623,  62: 0.22139,  63: 0.38510,  64: 0.03482,
                 65:-0.24204,  66: 0.11250,  67: 0.06823,  68: 0.02325,  69:-0.10060,  70: 0.38932,  71: 0.08490,  72: 0.20182,
                 73: 0.12587,  74: 0.31162,  75:-0.05785,  76: 0.25728,  77: 0.21128,  78:-0.39401,  79:-0.10261,  80: 0.11759,
                 81: 0.07055,  82: 0.17320,  83: 0.27308,  84:-0.17160,  85: 0.02653,  86: 0.03727,  87:-0.09225,  88:-0.01151,
                 89:-0.10486,  90:-0.44831,  91: 0.33989,  92: 0.65670,  93: 0.30679,  94: 0.23273,  95:-0.02536,  96:-0.02034,
                 97:-0.24363,  98:-0.23688,  99:-0.18230, 100:-0.11231, 101: 0.62401, 102: 0.80620, 103: 0.19721, 104:-0.11671,
                105:-0.26124, 106: 0.13784, 107:-0.11323, 108:-0.14207, 109: 0.17666, 110: 0.10896, 111: 0.42902, 112: 1.08109,
                113: 0.39861, 114: 0.02921, 115: 0.08887, 116: 0.14091, 117: 0.38014, 118:-0.17350, 119:-0.10208, 120: 0.14277,
                121: 0.33639, 122: 0.85962, 123: 0.07750, 124: 0.09953, 125: 0.01973, 126:-0.11774, 127: 0.30918, 128:-0.19893,
                129: 0.31186, 130: 0.21068, 131: 0.00035, 132:-0.01265, 133:-0.19328, 134: 0.04217, 135:-0.11137, 136: 0.05834,
                137: 0.34951, 138:-0.07163, 139: 0.17015, 140: 0.25134, 141:-0.19000, 142:-0.13751, 143:-0.26144, 144:-0.03119,
                145: 0.02692, 146:-0.07522, 147:-0.18108, 148: 0.05124, 149: 0.14008, 150:-0.22260, 151:-0.02540, 152:-0.00819,
                153: 0.20139, 154:-0.24301, 155:-0.24250, 156: 0.05611, 157:-0.25242, 158:-0.03206, 159:-0.13836, 160:-0.15684
   179 |      |   1: 0.05956,   2: 0.16464,   3:-0.14655,   4: 0.01723,   5: 0.00465,   6: 0.24937,   7: 0.03282,   8:-0.03308,
                  9:-0.17138,  10: 0.02765,  11: 0.32068,  12: 0.31779,  13: 0.30707,  14: 0.35544,  15: 0.36189,  16: 0.69898,
                 17: 0.35848,  18: 0.24205,  19: 0.08264,  20: 0.18890,  21: 0.04482,  22:-0.04751,  23: 0.10492,  24: 0.45258,
                 25: 0.29852,  26: 0.36151,  27: 0.21076,  28: 0.20744,  29: 0.05766,  30:-0.16110,  31:-0.42273,  32:-0.46415,
                 33:-0.05466,  34: 0.08450,  35: 0.08732,  36:-0.17425,  37: 0.12202,  38:-0.08681,  39:-0.05166,  40:-0.15493,
                 41:-0.20095,  42:-0.31183,  43:-0.33498,  44:-0.29708,  45:-0.21534,  46:-0.04326,  47:-0.13299,  48:-0.13657,
                 49:-0.05928,  50:-0.32003,  51:-0.32700,  52:-0.34230,  53:-0.18423,  54:-0.29951,  55:-0.34569,  56:-0.19083,
                 57: 0.26824,  58:-0.03196,  59:-0.16506,  60:-0.44797,  61:-0.05023,  62:-0.14562,  63:-0.15134,  64:-0.09649,
                 65: 0.03318,  66:-0.05612,  67:-0.15022,  68:-0.11922,  69: 0.07685,  70:-0.33290,  71: 0.08379,  72:-0.01930,
                 73: 0.10151,  74:-0.11781,  75: 0.07488,  76:-0.10217,  77:-0.14278,  78: 0.19910,  79: 0.02699,  80:-0.03541,
                 81:-0.08346,  82: 0.04107,  83: 0.01062,  84: 0.05832,  85: 0.18672,  86:-0.05845,  87: 0.01029,  88:-0.05532,
                 89: 0.06229,  90: 0.22941,  91:-0.13920,  92:-0.15504,  93:-0.04112,  94:-0.00772,  95: 0.07908,  96:-0.13625,
                 97: 0.11029,  98: 0.20449,  99: 0.26736, 100: 0.35000, 101:-0.31762, 102:-0.62559, 103:-0.35670, 104:-0.05932,
                105:-0.03956, 106:-0.23201, 107: 0.06658, 108: 0.06947, 109:-0.14399, 110:-0.03720, 111:-0.10337, 112:-0.59526,
                113:-0.30962, 114:-0.05861, 115:-0.01162, 116:-0.00058, 117:-0.07443, 118: 0.16260, 119: 0.02065, 120:-0.06373,
                121:-0.18064, 122:-0.34707, 123:-0.12006, 124: 0.11505, 125: 0.15990, 126: 0.17925, 127: 0.07130, 128: 0.21846,
                129:-0.11038, 130:-0.11972, 131: 0.20167, 132:-0.16163, 133: 0.04985, 134: 0.06487, 135: 0.00317, 136:-0.04443,
                137:-0.10724, 138: 0.19720, 139:-0.27171, 140:-0.25512, 141:-0.06704, 142:-0.01752, 143: 0.12596, 144:-0.07915,
                145:-0.10735, 146:-0.06521, 147:-0.11674, 148:-0.18660, 149:-0.31237, 150:-0.04989, 151:-0.08146, 152:-0.01877,
                153:-0.16227, 154:-0.03224, 155:-0.02044, 156:-0.29233, 157: 0.07783, 158:-0.22977, 159:-0.17647, 160:-0.12267
   180 |      |   1:-0.05699,   2: 0.14371,   3: 0.21918,   4: 0.04045,   5:-0.02605,   6:-0.16057,   7:-0.08508,   8:-0.02222,
                  9:-0.03493,  10:-0.01343,  11:-0.07080,  12: 0.01828,  13: 0.10155,  14:-0.00766,  15:-0.08100,  16:-0.17300,
                 17:-0.17317,  18:-0.14208,  19: 0.00066,  20:-0.07169,  21:-0.01793,  22:-0.02526,  23:-0.06753,  24:-0.11951,
                 25: 0.00090,  26:-0.11265,  27:-0.12582,  28:-0.00574,  29: 0.11094,  30: 0.05816,  31:-0.02896,  32: 0.09780,
                 33:-0.00632,  34: 0.06515,  35:-0.10767,  36: 0.01452,  37:-0.14151,  38:-0.08156,  39:-0.05442,  40: 0.13513,
                 41: 0.00415,  42:-0.00489,  43: 0.02247,  44: 0.08263,  45:-0.11566,  46:-0.10654,  47:-0.08067,  48: 0.13206,
                 49: 0.05917,  50: 0.02981,  51: 0.08185,  52: 0.08908,  53:-0.09172,  54:-0.02611,  55: 0.04865,  56: 0.00701,
                 57:-0.12184,  58:-0.00811,  59: 0.05089,  60: 0.08906,  61:-0.05329,  62: 0.08692,  63:-0.06288,  64:-0.01568,
                 65: 0.00835,  66:-0.05231,  67: 0.09384,  68: 0.04000,  69: 0.06533,  70: 0.08497,  71:-0.06318,  72:-0.09727,
                 73:-0.11198,  74:-0.01674,  75:-0.04616,  76: 0.06195,  77: 0.01394,  78:-0.02457,  79: 0.00420,  80: 0.10577,
                 81:-0.00486,  82:-0.02173,  83: 0.00074,  84:-0.07815,  85:-0.08632,  86: 0.02734,  87:-0.01041,  88: 0.00133,
                 89:-0.00937,  90: 0.06542,  91: 0.05358,  92: 0.03775,  93:-0.08648,  94: 0.00905,  95:-0.00691,  96: 0.12838,
                 97:-0.06417,  98:-0.00902,  99: 0.11188, 100:-0.08147, 101: 0.02932, 102:-0.02663, 103: 0.03082, 104:-0.09660,
                105:-0.08226, 106: 0.16105, 107: 0.10526, 108: 0.05215, 109:-0.04605, 110: 0.12457, 111:-0.03496, 112: 0.05943,
                113:-0.09844, 114: 0.06068, 115:-0.15045, 116:-0.05456, 117:-0.11079, 118: 0.04049, 119: 0.01834, 120: 0.01872,
                121:-0.00632, 122:-0.07882, 123:-0.15121, 124:-0.09732, 125:-0.04409, 126:-0.15594, 127: 0.02260, 128: 0.00316,
                129:-0.13141, 130: 0.02220, 131:-0.02146, 132:-0.03345, 133:-0.06605, 134: 0.03929, 135:-0.12701, 136: 0.04459,
                137:-0.02303, 138:-0.06429, 139:-0.05068, 140: 0.02156, 141:-0.02931, 142: 0.07800, 143:-0.12736, 144: 0.00574,
                145:-0.19739, 146:-0.11196, 147:-0.09734, 148: 0.01916, 149:-0.08189, 150: 0.04794, 151:-0.02630, 152: 0.03536,
                153:-0.02378, 154:-0.09260, 155:-0.02463, 156:-0.08907, 157:-0.08955, 158:-0.05834, 159: 0.02029, 160: 0.01266
   181 |      |   1: 0.01391,   2: 0.05781,   3:-0.13165,   4:-0.07930,   5: 0.06593,   6: 0.17602,   7: 0.08671,   8: 0.34224,
                  9: 0.22331,  10: 0.35459,  11:-0.21703,  12:-0.41370,  13:-0.22205,  14:-0.11137,  15:-0.08413,  16: 0.07012,
                 17: 0.51376,  18: 0.44864,  19: 0.03091,  20: 0.09120,  21:-0.33414,  22:-0.35399,  23: 0.05761,  24: 0.02964,
                 25:-0.19132,  26: 0.22318,  27: 0.42748,  28: 0.28644,  29: 0.01086,  30: 0.16445,  31:-0.19567,  32:-0.33985,
                 33:-0.43444,  34:-0.24500,  35: 0.14954,  36: 0.26913,  37: 0.48631,  38:-0.03420,  39: 0.23421,  40:-0.03988,
                 41:-0.26209,  42:-0.01484,  43:-0.13948,  44:-0.16020,  45:-0.06273,  46: 0.02772,  47: 0.31762,  48: 0.03804,
                 49: 0.19693,  50:-0.02125,  51:-0.04159,  52:-0.37329,  53:-0.04069,  54:-0.18759,  55:-0.18198,  56: 0.01461,
                 57: 0.23882,  58: 0.16828,  59: 0.34211,  60:-0.18088,  61:-0.12937,  62:-0.13408,  63: 0.02607,  64: 0.06565,
                 65:-0.19623,  66: 0.16918,  67: 0.27456,  68: 0.08248,  69:-0.21462,  70:-0.23107,  71:-0.08983,  72: 0.07705,
                 73: 0.42316,  74: 0.44175,  75: 0.12031,  76: 0.03831,  77: 0.17032,  78: 0.26650,  79: 0.03123,  80:-0.23548,
                 81:-0.27291,  82: 0.07060,  83: 0.51729,  84: 0.32019,  85: 0.34094,  86:-0.00268,  87:-0.08499,  88: 0.19118,
                 89: 0.33877,  90: 0.06541,  91:-0.10292,  92: 0.14386,  93: 0.34730,  94: 0.19671,  95: 0.18974,  96: 0.03015,
                 97: 0.16733,  98: 0.34332,  99: 0.35674, 100: 0.42716, 101: 0.12304, 102:-0.01650, 103:-0.07311, 104:-0.27063,
                105:-0.23311, 106: 0.12495, 107: 0.14789, 108: 0.24119, 109: 0.29212, 110: 0.53851, 111: 0.13479, 112:-0.24699,
                113:-0.10508, 114:-0.27888, 115: 0.05027, 116: 0.08232, 117: 0.13606, 118: 0.17718, 119: 0.13149, 120: 0.32631,
                121:-0.09445, 122:-0.37618, 123:-0.13709, 124:-0.31773, 125:-0.12447, 126: 0.15423, 127: 0.03253, 128: 0.05999,
                129: 0.05818, 130: 0.42330, 131:-0.02954, 132:-0.29751, 133:-0.11595, 134:-0.05497, 135:-0.05307, 136: 0.01909,
                137: 0.23044, 138:-0.22571, 139:-0.22715, 140: 0.12453, 141:-0.09733, 142:-0.05019, 143:-0.00438, 144: 0.09916,
                145: 0.04318, 146:-0.02322, 147:-0.17818, 148:-0.36827, 149:-0.30244, 150:-0.17840, 151: 0.09772, 152:-0.01551,
                153: 0.30254, 154:-0.08821, 155: 0.06671, 156:-0.31405, 157:-0.42558, 158:-0.54345, 159:-0.29162, 160:-0.59126
   182 |      |   1:-0.15120,   2:-0.05478,   3:-0.20047,   4:-0.04445,   5:-0.06413,   6: 0.09215,   7: 0.28192,   8: 0.23226,
                  9: 0.12715,  10: 0.02514,  11:-0.15724,  12: 0.01022,  13:-0.15329,  14:-0.05128,  15: 0.26287,  16:-0.12558,
                 17: 0.21832,  18: 0.36979,  19: 0.69099,  20: 0.06123,  21: 0.19184,  22: 0.02905,  23:-0.37538,  24: 0.00431,
                 25: 0.39159,  26:-0.45096,  27: 0.13027,  28: 0.23529,  29: 0.09315,  30:-0.24489,  31:-0.04021,  32: 0.17617,
                 33: 0.12374,  34: 0.26702,  35: 0.14771,  36:-0.13726,  37:-0.00918,  38:-0.03034,  39:-0.75117,  40:-0.47835,
                 41: 0.25114,  42:-0.14633,  43: 0.12626,  44: 0.10089,  45: 0.03156,  46: 0.22332,  47:-0.24333,  48:-0.57395,
                 49:-1.02301,  50:-0.72502,  51:-0.00147,  52: 0.43697,  53: 0.32934,  54:-0.01677,  55:-0.07979,  56: 0.03754,
                 57:-0.42239,  58:-0.53010,  59:-0.76759,  60:-0.52799,  61:-0.01064,  62: 0.30433,  63: 0.33436,  64: 0.07642,
                 65:-0.08560,  66:-0.39489,  67:-0.50550,  68:-0.18555,  69: 0.05542,  70:-0.28605,  71: 0.13723,  72: 0.01410,
                 73:-0.02834,  74:-0.24072,  75:-0.25834,  76:-0.25555,  77:-0.16132,  78:-0.27126,  79:-0.24416,  80: 0.00093,
                 81: 0.25779,  82:-0.03087,  83:-0.72949,  84:-0.50934,  85:-0.28313,  86:-0.12672,  87:-0.17525,  88:-0.41728,
                 89:-0.55214,  90:-0.22066,  91: 0.11305,  92: 0.07383,  93:-0.28759,  94:-0.10649,  95:-0.19881,  96:-0.42204,
                 97:-0.50160,  98:-0.33415,  99:-0.39084, 100:-0.33025, 101: 0.10350, 102:-0.00382, 103:-0.30101, 104: 0.16398,
                105: 0.10622, 106:-0.48509, 107:-0.31637, 108:-0.22784, 109:-0.10605, 110:-0.54993, 111: 0.27498, 112: 0.36693,
                113:-0.08135, 114: 0.24840, 115: 0.08887, 116: 0.06473, 117:-0.35677, 118: 0.14235, 119: 0.18269, 120:-0.41137,
                121: 0.13880, 122: 0.40539, 123: 0.53529, 124: 0.73691, 125: 0.45937, 126: 0.53022, 127: 0.20314, 128: 0.30840,
                129:-0.00235, 130:-0.78387, 131: 0.02673, 132: 0.40186, 133: 0.47604, 134: 0.17715, 135: 0.37704, 136: 0.23928,
                137: 0.15843, 138: 0.30833, 139: 0.11994, 140:-0.42929, 141: 0.02843, 142: 0.15245, 143: 0.02205, 144: 0.12062,
                145: 0.44600, 146: 0.47039, 147: 0.15417, 148: 0.21996, 149: 0.08314, 150: 0.00410, 151:-0.01113, 152: 0.08734,
                153: 0.05617, 154: 0.28260, 155: 0.55726, 156: 0.32386, 157: 0.48000, 158: 0.48090, 159: 0.22641, 160: 0.33223
   183 |      |   1:-0.03813,   2: 0.04738,   3:-0.21207,   4:-0.47279,   5:-0.08724,   6: 0.07341,   7: 0.11060,   8: 0.16541,
                  9: 0.07143,  10: 0.46402,  11:-0.15699,  12:-0.42561,  13:-0.46425,  14:-0.41216,  15:-0.16088,  16:-0.35267,
                 17: 0.21414,  18: 0.30083,  19: 0.50326,  20: 0.21635,  21:-0.31536,  22:-0.31516,  23:-0.47561,  24:-0.00680,
                 25: 0.18297,  26:-0.21609,  27: 0.30924,  28: 0.27130,  29:-0.01752,  30:-0.08147,  31:-0.33878,  32:-0.07631,
                 33: 0.07158,  34: 0.04490,  35: 0.15629,  36: 0.08831,  37: 0.17858,  38:-0.00280,  39:-0.64102,  40:-0.68282,
                 41:-0.11535,  42:-0.03970,  43: 0.12904,  44:-0.04186,  45: 0.13865,  46: 0.18683,  47:-0.13577,  48:-0.60304,
                 49:-1.04076,  50:-1.08569,  51:-0.14239,  52: 0.12211,  53: 0.33039,  54: 0.05008,  55: 0.13256,  56:-0.01157,
                 57:-0.25608,  58:-0.48722,  59:-0.69637,  60:-0.89824,  61: 0.15193,  62: 0.18250,  63: 0.33676,  64: 0.21352,
                 65: 0.16212,  66:-0.00951,  67:-0.07626,  68:-0.25940,  69:-0.05820,  70:-0.66844,  71: 0.20998,  72: 0.22298,
                 73: 0.40441,  74:-0.02519,  75: 0.21077,  76: 0.11338,  77:-0.02244,  78:-0.16529,  79:-0.27771,  80:-0.31626,
                 81: 0.09201,  82: 0.08288,  83:-0.03459,  84:-0.05571,  85: 0.20559,  86:-0.11543,  87:-0.07670,  88:-0.14764,
                 89:-0.31792,  90:-0.11484,  91: 0.08495,  92:-0.08190,  93:-0.00527,  94: 0.14318,  95: 0.18345,  96:-0.30280,
                 97:-0.10303,  98:-0.22474,  99:-0.31753, 100: 0.15859, 101: 0.03805, 102:-0.18661, 103:-0.27541, 104: 0.09983,
                105: 0.05125, 106:-0.13712, 107:-0.38975, 108:-0.17170, 109: 0.15248, 110: 0.14474, 111: 0.01071, 112:-0.15865,
                113:-0.47051, 114:-0.20476, 115: 0.14257, 116: 0.00188, 117:-0.21362, 118:-0.01756, 119: 0.38261, 120: 0.24296,
                121:-0.04045, 122:-0.29938, 123:-0.08233, 124: 0.26110, 125: 0.30720, 126: 0.35949, 127: 0.06064, 128: 0.41754,
                129: 0.26334, 130:-0.10342, 131: 0.10638, 132:-0.20823, 133: 0.11026, 134: 0.08193, 135: 0.29037, 136: 0.03251,
                137: 0.12838, 138: 0.36306, 139: 0.19654, 140:-0.34680, 141:-0.10595, 142:-0.39645, 143: 0.10318, 144: 0.14663,
                145: 0.16630, 146: 0.03254, 147: 0.06978, 148:-0.00028, 149: 0.08836, 150:-0.13704, 151:-0.13576, 152:-0.10851,
                153: 0.03945, 154:-0.19648, 155: 0.26920, 156:-0.15324, 157: 0.16315, 158: 0.27993, 159:-0.11762, 160:-0.13812
   184 |      |   1: 0.02060,   2: 0.08376,   3:-0.00296,   4:-0.01743,   5: 0.02715,   6:-0.00306,   7:-0.03420,   8: 0.01561,
                  9: 0.16583,  10: 0.31007,  11: 0.05673,  12:-0.20639,  13:-0.06230,  14:-0.17119,  15:-0.21050,  16:-0.20091,
                 17: 0.06287,  18:-0.01875,  19:-0.24299,  20:-0.02549,  21:-0.15331,  22:-0.13850,  23: 0.10320,  24:-0.18846,
                 25:-0.26978,  26: 0.11446,  27: 0.12521,  28: 0.01129,  29: 0.11037,  30: 0.20249,  31: 0.03668,  32: 0.02742,
                 33:-0.21356,  34:-0.27486,  35:-0.17623,  36: 0.04761,  37: 0.17768,  38: 0.13482,  39: 0.31379,  40: 0.24909,
                 41:-0.20180,  42: 0.13213,  43:-0.12226,  44:-0.10532,  45:-0.05281,  46:-0.16106,  47: 0.14915,  48: 0.39550,
                 49: 0.53517,  50: 0.45901,  51:-0.01377,  52:-0.28942,  53:-0.09560,  54: 0.01936,  55:-0.13515,  56:-0.07949,
                 57: 0.17332,  58: 0.44359,  59: 0.51546,  60: 0.33551,  61: 0.09814,  62:-0.03060,  63: 0.09923,  64:-0.07617,
                 65:-0.13048,  66: 0.28275,  67: 0.39538,  68: 0.20704,  69:-0.13570,  70: 0.33595,  71: 0.03104,  72: 0.31801,
                 73: 0.32445,  74: 0.39278,  75: 0.06272,  76:-0.01844,  77: 0.25000,  78: 0.26406,  79: 0.17153,  80: 0.19855,
                 81: 0.05472,  82: 0.34694,  83: 0.62629,  84: 0.24775,  85: 0.29467,  86: 0.00427,  87:-0.04898,  88: 0.36020,
                 89: 0.43587,  90: 0.22490,  91: 0.07294,  92: 0.33549,  93: 0.33861,  94: 0.18864,  95: 0.12710,  96: 0.02393,
                 97: 0.09257,  98: 0.19709,  99: 0.37547, 100: 0.54040, 101: 0.17989, 102: 0.46429, 103: 0.30469, 104:-0.19679,
                105:-0.12020, 106: 0.21357, 107: 0.28952, 108: 0.13633, 109: 0.29559, 110: 0.63032, 111: 0.16488, 112: 0.04063,
                113: 0.22529, 114:-0.05635, 115: 0.03684, 116:-0.03870, 117: 0.29382, 118: 0.06066, 119: 0.06555, 120: 0.28624,
                121:-0.11637, 122:-0.16336, 123:-0.23694, 124:-0.23815, 125:-0.20584, 126:-0.28316, 127: 0.19165, 128: 0.00508,
                129: 0.25077, 130: 0.48504, 131:-0.17983, 132:-0.34320, 133:-0.15042, 134:-0.05139, 135:-0.16625, 136:-0.23395,
                137: 0.17959, 138:-0.10727, 139:-0.15918, 140: 0.08881, 141:-0.20296, 142:-0.29272, 143:-0.08454, 144:-0.09396,
                145:-0.14760, 146:-0.07218, 147:-0.17266, 148:-0.30611, 149:-0.15008, 150:-0.12703, 151:-0.01103, 152:-0.15335,
                153:-0.11625, 154:-0.23766, 155:-0.37283, 156:-0.15891, 157:-0.45860, 158:-0.51812, 159:-0.32884, 160:-0.32111
   185 |      |   1:-0.17255,   2:-0.29681,   3: 0.26301,   4: 0.45551,   5: 0.26387,   6: 0.05769,   7:-0.31965,   8:-0.11241,
                  9:-0.17034,  10:-0.20319,  11: 0.11794,  12: 0.32725,  13: 0.47419,  14: 0.26399,  15: 0.34325,  16: 0.58625,
                 17:-0.02364,  18: 0.06001,  19:-0.15990,  20: 0.06356,  21: 0.25042,  22: 0.22865,  23: 0.10633,  24:-0.06174,
                 25:-0.00829,  26: 0.57481,  27: 0.28208,  28: 0.23615,  29: 0.00292,  30:-0.05491,  31:-0.02892,  32:-0.32984,
                 33:-0.13909,  34:-0.09671,  35:-0.04714,  36:-0.08733,  37:-0.08920,  38: 0.02300,  39: 0.24018,  40: 0.22042,
                 41:-0.04601,  42:-0.45055,  43:-0.32604,  44:-0.50431,  45:-0.41573,  46:-0.22666,  47:-0.00357,  48: 0.12158,
                 49: 0.48817,  50: 0.13131,  51:-0.18701,  52:-0.35260,  53:-0.58859,  54:-0.59167,  55:-0.31095,  56:-0.39553,
                 57:-0.03506,  58: 0.11545,  59: 0.01823,  60:-0.08424,  61:-0.08318,  62:-0.36438,  63:-0.66699,  64:-0.28877,
                 65:-0.07887,  66:-0.21566,  67:-0.02187,  68:-0.12936,  69:-0.12294,  70:-0.15164,  71: 0.12698,  72:-0.23576,
                 73:-0.05173,  74:-0.31995,  75:-0.02657,  76:-0.17914,  77:-0.07207,  78: 0.37185,  79:-0.03828,  80: 0.12669,
                 81: 0.01135,  82:-0.14200,  83:-0.06655,  84: 0.40389,  85: 0.03868,  86: 0.30619,  87: 0.11866,  88: 0.07584,
                 89: 0.15899,  90: 0.45890,  91:-0.10075,  92:-0.16856,  93:-0.16320,  94:-0.02743,  95: 0.07618,  96: 0.14356,
                 97: 0.19229,  98: 0.24659,  99: 0.22089, 100: 0.21179, 101:-0.39968, 102:-0.29451, 103: 0.01260, 104: 0.00370,
                105: 0.08495, 106:-0.02050, 107: 0.34430, 108: 0.35427, 109:-0.13510, 110:-0.01534, 111:-0.25240, 112:-0.63507,
                113:-0.16509, 114:-0.25731, 115:-0.30965, 116:-0.24404, 117:-0.08395, 118:-0.04836, 119:-0.12615, 120: 0.02417,
                121:-0.33104, 122:-0.27675, 123:-0.02508, 124:-0.21105, 125:-0.47129, 126:-0.50799, 127:-0.17749, 128:-0.11741,
                129:-0.32720, 130:-0.01000, 131:-0.28339, 132: 0.20461, 133: 0.03169, 134:-0.11135, 135: 0.02047, 136:-0.12750,
                137:-0.30900, 138: 0.01031, 139:-0.10035, 140: 0.00840, 141: 0.20399, 142: 0.58824, 143: 0.01236, 144:-0.17557,
                145:-0.28471, 146: 0.06559, 147: 0.05809, 148:-0.04044, 149:-0.01596, 150: 0.11258, 151: 0.26140, 152: 0.23961,
                153:-0.24715, 154: 0.33595, 155:-0.15730, 156:-0.03844, 157: 0.11583, 158:-0.24599, 159: 0.01611, 160: 0.10733
   186 |      |   1:-0.01017,   2:-0.15476,   3: 0.18504,   4: 0.20198,   5: 0.09282,   6:-0.01562,   7:-0.11950,   8:-0.27177,
                  9:-0.14058,  10:-0.05403,  11: 0.17819,  12: 0.24076,  13: 0.31635,  14: 0.26070,  15:-0.11072,  16: 0.20752,
                 17:-0.18464,  18:-0.33151,  19:-0.59477,  20:-0.07940,  21: 0.10641,  22: 0.15081,  23: 0.38968,  24:-0.08772,
                 25:-0.32359,  26: 0.32608,  27:-0.27445,  28:-0.24514,  29:-0.20972,  30: 0.19430,  31: 0.16041,  32:-0.06098,
                 33:-0.09462,  34:-0.07266,  35:-0.28295,  36: 0.07200,  37:-0.13889,  38:-0.03054,  39: 0.65968,  40: 0.58247,
                 41:-0.17783,  42: 0.08194,  43:-0.03094,  44:-0.04879,  45:-0.28799,  46:-0.10958,  47: 0.14203,  48: 0.54189,
                 49: 0.92551,  50: 0.66541,  51: 0.08247,  52:-0.40792,  53:-0.38831,  54: 0.13052,  55:-0.18928,  56: 0.00378,
                 57: 0.44423,  58: 0.54662,  59: 0.87704,  60: 0.45339,  61:-0.02227,  62:-0.39262,  63:-0.58404,  64:-0.08519,
                 65:-0.01430,  66: 0.27479,  67: 0.42199,  68: 0.36770,  69:-0.02070,  70: 0.23200,  71:-0.20845,  72:-0.19966,
                 73:-0.26405,  74: 0.09651,  75: 0.10581,  76: 0.37256,  77: 0.34482,  78: 0.28202,  79: 0.00969,  80:-0.00769,
                 81:-0.23162,  82:-0.22489,  83: 0.35737,  84: 0.31431,  85: 0.42997,  86: 0.35366,  87: 0.18876,  88: 0.15312,
                 89: 0.22885,  90: 0.19248,  91:-0.15287,  92:-0.24164,  93: 0.09594,  94: 0.31353,  95: 0.24302,  96: 0.51107,
                 97: 0.35894,  98: 0.20612,  99: 0.25496, 100: 0.10902, 101:-0.19495, 102:-0.01667, 103: 0.27618, 104:-0.01207,
                105: 0.05599, 106: 0.28137, 107: 0.24782, 108: 0.23295, 109:-0.11412, 110: 0.22668, 111:-0.17854, 112:-0.21194,
                113: 0.20126, 114: 0.05941, 115:-0.09085, 116:-0.13851, 117: 0.16779, 118:-0.21770, 119:-0.19838, 120: 0.25450,
                121:-0.05998, 122:-0.15063, 123:-0.31458, 124:-0.58669, 125:-0.51596, 126:-0.55265, 127:-0.13645, 128:-0.49676,
                129:-0.08971, 130: 0.62027, 131:-0.04495, 132:-0.20475, 133:-0.49225, 134:-0.21378, 135:-0.20982, 136:-0.31166,
                137:-0.09152, 138:-0.25136, 139: 0.02809, 140: 0.37615, 141: 0.12161, 142:-0.13324, 143:-0.03562, 144:-0.04971,
                145:-0.24301, 146:-0.19471, 147:-0.11858, 148:-0.21318, 149:-0.06430, 150: 0.08272, 151: 0.13621, 152: 0.07884,
                153:-0.06848, 154:-0.04338, 155:-0.46352, 156:-0.10745, 157:-0.13658, 158:-0.21829, 159:-0.15101, 160:-0.07192
   187 |      |   1: 0.03264,   2: 0.23086,   3: 0.38927,   4: 0.00553,   5:-0.14772,   6:-0.27987,   7:-0.25121,   8: 0.09196,
                  9: 0.21207,  10:-0.34032,  11:-0.10998,  12:-0.07496,  13:-0.09374,  14:-0.27731,  15:-0.13752,  16:-0.35966,
                 17:-0.56601,  18:-0.11147,  19: 0.01337,  20: 0.01129,  21:-0.02109,  22: 0.05331,  23:-0.04972,  24:-0.18743,
                 25:-0.04141,  26:-0.33643,  27:-0.09877,  28: 0.14809,  29: 0.13289,  30: 0.08403,  31: 0.05069,  32: 0.26538,
                 33: 0.30988,  34: 0.19081,  35: 0.03725,  36:-0.29189,  37:-0.16346,  38: 0.10252,  39: 0.07586,  40: 0.24297,
                 41:-0.05260,  42: 0.08796,  43: 0.24964,  44: 0.24630,  45: 0.27898,  46: 0.02733,  47:-0.07543,  48: 0.19707,
                 49: 0.02386,  50: 0.20253,  51:-0.01272,  52: 0.25584,  53: 0.15077,  54: 0.23009,  55: 0.26582,  56:-0.00006,
                 57:-0.43982,  58:-0.01532,  59: 0.05891,  60: 0.31430,  61: 0.14218,  62: 0.26014,  63: 0.28439,  64: 0.14132,
                 65: 0.15686,  66:-0.39190,  67: 0.07815,  68: 0.20127,  69: 0.30048,  70: 0.44815,  71: 0.22302,  72: 0.13599,
                 73: 0.17131,  74: 0.00081,  75:-0.42028,  76:-0.31646,  77:-0.19858,  78: 0.11730,  79: 0.12926,  80: 0.39335,
                 81: 0.27101,  82: 0.15671,  83: 0.19382,  84: 0.21772,  85:-0.57655,  86:-0.04780,  87: 0.10023,  88:-0.13493,
                 89: 0.16882,  90: 0.18970,  91:-0.23026,  92: 0.12154,  93: 0.04156,  94:-0.33021,  95:-0.40119,  96: 0.24920,
                 97:-0.07083,  98: 0.11287,  99: 0.15814, 100:-0.01908, 101:-0.17068, 102:-0.05950, 103:-0.26625, 104:-0.20220,
                105:-0.01339, 106: 0.04899, 107: 0.25794, 108: 0.30530, 109: 0.05741, 110: 0.11603, 111:-0.38585, 112:-0.26807,
                113:-0.26244, 114:-0.09053, 115:-0.08056, 116:-0.23624, 117:-0.17095, 118:-0.08510, 119:-0.11368, 120:-0.34238,
                121:-0.23386, 122:-0.20803, 123:-0.25139, 124:-0.18713, 125:-0.29725, 126:-0.05243, 127:-0.16514, 128:-0.13438,
                129:-0.17534, 130:-0.44570, 131:-0.26319, 132: 0.01640, 133:-0.04500, 134:-0.24968, 135: 0.22236, 136: 0.20603,
                137:-0.07664, 138:-0.14976, 139:-0.23271, 140:-0.29136, 141: 0.30183, 142: 0.12293, 143:-0.06641, 144:-0.03578,
                145:-0.07179, 146:-0.02867, 147:-0.07360, 148:-0.16311, 149: 0.10218, 150: 0.06991, 151: 0.02946, 152: 0.12519,
                153:-0.21908, 154: 0.09164, 155:-0.00862, 156:-0.17267, 157:-0.25814, 158: 0.20935, 159: 0.14489, 160: 0.10756
   188 |      |   1:-0.21657,   2:-0.06595,   3:-0.02720,   4: 0.15706,   5: 0.32456,   6: 0.05129,   7: 0.05204,   8: 0.16968,
                  9: 0.27144,  10: 0.00898,  11:-0.24818,  12:-0.30682,  13:-0.10707,  14:-0.14397,  15: 0.00846,  16:-0.00232,
                 17: 0.23116,  18: 0.28627,  19: 0.18509,  20: 0.14100,  21:-0.05855,  22:-0.20762,  23:-0.07837,  24:-0.02088,
                 25:-0.04554,  26:-0.01290,  27: 0.27461,  28: 0.03288,  29: 0.00985,  30: 0.16244,  31: 0.13795,  32: 0.05678,
                 33:-0.02537,  34: 0.10085,  35: 0.26426,  36: 0.03024,  37: 0.06738,  38: 0.01053,  39:-0.23090,  40:-0.01699,
                 41: 0.06530,  42: 0.09658,  43: 0.15052,  44: 0.17184,  45: 0.23913,  46:-0.00200,  47:-0.12634,  48:-0.21487,
                 49:-0.28371,  50: 0.11943,  51:-0.02450,  52: 0.21042,  53: 0.03941,  54: 0.04814,  55: 0.21441,  56:-0.19298,
                 57:-0.30057,  58:-0.00410,  59:-0.06878,  60:-0.07531,  61:-0.02702,  62: 0.09178,  63: 0.00777,  64:-0.09349,
                 65:-0.15299,  66:-0.04171,  67:-0.02061,  68: 0.05951,  69:-0.09488,  70:-0.02349,  71:-0.01791,  72: 0.11316,
                 73:-0.19649,  74:-0.06890,  75:-0.18197,  76: 0.04935,  77:-0.14282,  78:-0.21116,  79:-0.15703,  80:-0.07618,
                 81: 0.01077,  82:-0.00068,  83:-0.12074,  84:-0.11844,  85:-0.35569,  86: 0.07682,  87:-0.23806,  88:-0.40230,
                 89:-0.13026,  90:-0.14275,  91:-0.06493,  92:-0.05884,  93:-0.11452,  94:-0.19602,  95:-0.10870,  96: 0.02248,
                 97:-0.24367,  98:-0.19810,  99: 0.07622, 100: 0.05674, 101:-0.07292, 102: 0.08554, 103:-0.34902, 104:-0.07041,
                105:-0.26679, 106:-0.09738, 107:-0.11908, 108:-0.00233, 109:-0.11398, 110: 0.17744, 111:-0.05354, 112: 0.01667,
                113:-0.13520, 114:-0.32772, 115:-0.27782, 116:-0.40371, 117:-0.11949, 118: 0.01135, 119: 0.12317, 120: 0.17588,
                121: 0.30793, 122: 0.27281, 123: 0.01983, 124:-0.27642, 125:-0.20576, 126:-0.17981, 127:-0.07832, 128:-0.04415,
                129: 0.23448, 130: 0.21196, 131: 0.44169, 132: 0.20395, 133: 0.06834, 134: 0.01621, 135: 0.18637, 136: 0.15472,
                137: 0.14794, 138: 0.13027, 139: 0.25273, 140: 0.14254, 141: 0.37336, 142: 0.37542, 143: 0.46795, 144: 0.22407,
                145: 0.25915, 146: 0.22909, 147: 0.11206, 148: 0.23351, 149: 0.23958, 150: 0.16410, 151: 0.39478, 152: 0.50557,
                153: 0.55020, 154: 0.60905, 155: 0.24239, 156: 0.16429, 157: 0.11838, 158: 0.20619, 159: 0.12739, 160:-0.14087
   189 |      |   1: 0.23543,   2:-0.00836,   3:-0.15460,   4:-0.19700,   5:-0.28654,   6:-0.07539,   7:-0.11566,   8:-0.29618,
                  9:-0.33475,  10:-0.03011,  11: 0.45303,  12: 0.34033,  13: 0.23588,  14: 0.19092,  15:-0.09139,  16: 0.18541,
                 17:-0.21600,  18:-0.31480,  19:-0.25491,  20:-0.19189,  21: 0.01879,  22: 0.02020,  23: 0.01577,  24: 0.00253,
                 25: 0.11578,  26: 0.26401,  27:-0.30633,  28:-0.06571,  29: 0.03746,  30:-0.20174,  31:-0.14480,  32:-0.14290,
                 33:-0.03218,  34:-0.17080,  35:-0.19298,  36:-0.14365,  37:-0.12208,  38:-0.02140,  39: 0.21797,  40: 0.04469,
                 41:-0.13782,  42:-0.35463,  43:-0.31972,  44:-0.15262,  45:-0.25808,  46:-0.22556,  47: 0.25019,  48: 0.24981,
                 49: 0.38298,  50:-0.09628,  51:-0.08088,  52:-0.23453,  53:-0.13818,  54:-0.25188,  55:-0.25037,  56: 0.13156,
                 57: 0.28787,  58:-0.15866,  59: 0.07621,  60: 0.14954,  61: 0.00576,  62:-0.03251,  63: 0.04726,  64: 0.11992,
                 65: 0.27811,  66:-0.18759,  67: 0.09711,  68:-0.09055,  69: 0.05545,  70: 0.13648,  71: 0.02279,  72: 0.01106,
                 73: 0.21538,  74: 0.10847,  75: 0.34138,  76:-0.05618,  77: 0.12057,  78: 0.20844,  79: 0.39709,  80: 0.22260,
                 81:-0.03499,  82:-0.04076,  83: 0.25666,  84: 0.02849,  85: 0.23041,  86:-0.13484,  87: 0.06935,  88: 0.68201,
                 89: 0.42751,  90: 0.26578,  91: 0.21287,  92: 0.08935,  93: 0.20638,  94: 0.18473,  95: 0.25471,  96: 0.09652,
                 97: 0.26027,  98: 0.42458,  99: 0.21026, 100:-0.07385, 101:-0.06069, 102:-0.19435, 103: 0.40596, 104:-0.00418,
                105: 0.19082, 106: 0.11610, 107: 0.25331, 108: 0.22077, 109:-0.04564, 110:-0.36123, 111:-0.18633, 112:-0.45538,
                113: 0.02971, 114: 0.41962, 115: 0.39395, 116: 0.55934, 117: 0.05169, 118: 0.10332, 119:-0.20590, 120:-0.24567,
                121:-0.59426, 122:-0.49976, 123:-0.10922, 124: 0.37231, 125: 0.22670, 126: 0.11985, 127:-0.08042, 128:-0.00196,
                129:-0.32467, 130:-0.24381, 131:-0.48978, 132:-0.14981, 133: 0.15980, 134: 0.07647, 135:-0.29119, 136:-0.24001,
                137:-0.36213, 138:-0.00461, 139:-0.49231, 140:-0.34070, 141:-0.42063, 142: 0.05610, 143:-0.46175, 144:-0.25971,
                145:-0.30220, 146:-0.26570, 147:-0.21583, 148:-0.30118, 149:-0.32207, 150:-0.22096, 151:-0.15944, 152:-0.56630,
                153:-0.67867, 154:-0.54804, 155:-0.29280, 156:-0.32187, 157:-0.10354, 158:-0.18600, 159:-0.19999, 160: 0.14218
   190 |      |   1:-0.06175,   2:-0.11721,   3: 0.06336,   4: 0.11519,   5:-0.08510,   6: 0.08237,   7: 0.16826,   8: 0.08120,
                  9:-0.26545,  10:-0.06680,  11: 0.28241,  12: 0.31160,  13: 0.21952,  14: 0.40751,  15: 0.25209,  16: 0.32323,
                 17: 0.40523,  18: 0.17198,  19: 0.08173,  20:-0.08699,  21: 0.10675,  22:-0.04687,  23:-0.15488,  24: 0.19719,
                 25: 0.41317,  26: 0.12126,  27:-0.03214,  28: 0.16655,  29: 0.06554,  30:-0.25860,  31:-0.22705,  32:-0.37716,
                 33:-0.00736,  34: 0.12294,  35:-0.09831,  36:-0.30396,  37:-0.21942,  38:-0.18011,  39: 0.10004,  40: 0.12229,
                 41:-0.11815,  42:-0.32024,  43:-0.35251,  44:-0.16969,  45:-0.44228,  46:-0.07481,  47:-0.10357,  48:-0.07755,
                 49: 0.35345,  50: 0.03606,  51:-0.29690,  52:-0.34458,  53:-0.26990,  54:-0.38441,  55:-0.22183,  56:-0.16391,
                 57:-0.01770,  58:-0.08646,  59: 0.07575,  60:-0.19169,  61:-0.07996,  62:-0.45571,  63:-0.40895,  64:-0.09258,
                 65: 0.03821,  66:-0.32476,  67:-0.12941,  68:-0.02537,  69: 0.23049,  70:-0.39325,  71: 0.00803,  72:-0.41392,
                 73:-0.37723,  74:-0.09043,  75: 0.18980,  76:-0.05245,  77: 0.09619,  78: 0.02283,  79:-0.12544,  80:-0.13964,
                 81: 0.04392,  82:-0.13366,  83:-0.38800,  84:-0.28513,  85: 0.04525,  86: 0.08030,  87: 0.27202,  88: 0.10101,
                 89:-0.12445,  90:-0.06208,  91:-0.02529,  92:-0.27508,  93:-0.31413,  94:-0.01034,  95:-0.03474,  96: 0.02194,
                 97: 0.26905,  98: 0.38268,  99: 0.05709, 100:-0.18350, 101:-0.05672, 102:-0.26608, 103: 0.01798, 104: 0.14489,
                105: 0.08464, 106:-0.08783, 107: 0.10972, 108: 0.17627, 109:-0.07610, 110:-0.31697, 111:-0.07647, 112:-0.02941,
                113:-0.05675, 114: 0.37884, 115: 0.02686, 116: 0.04348, 117:-0.36446, 118:-0.23724, 119:-0.49869, 120:-0.43824,
                121:-0.14115, 122:-0.03127, 123: 0.25345, 124: 0.53230, 125: 0.18678, 126: 0.04371, 127:-0.21252, 128:-0.13216,
                129:-0.40955, 130:-0.58621, 131:-0.05869, 132: 0.17227, 133: 0.24653, 134: 0.20714, 135:-0.28661, 136:-0.27791,
                137:-0.44905, 138:-0.00390, 139:-0.28380, 140:-0.39841, 141:-0.08547, 142: 0.04923, 143:-0.14792, 144:-0.20099,
                145:-0.20769, 146:-0.22262, 147: 0.00873, 148: 0.06344, 149:-0.14972, 150:-0.06212, 151:-0.13927, 152:-0.25125,
                153:-0.39880, 154:-0.19409, 155:-0.22824, 156:-0.02868, 157: 0.34187, 158: 0.15404, 159: 0.07888, 160: 0.19545
   191 |      | 161:-0.06679, 162: 0.93048, 163:-0.11169, 164: 0.72787, 165: 0.44013, 166:-1.27533, 167:-1.39307, 168:-0.14970,
                169:-0.30658, 170:-0.52390, 171: 0.69187, 172: 0.34292, 173:-0.22760, 174: 0.21108, 175:-1.22739, 176:-0.21081,
                177:-0.32209, 178:-0.25335, 179:-0.44520, 180:-0.02774, 181: 0.04966, 182:-0.91640, 183:-1.62112, 184: 0.16724,
                185: 0.91821, 186: 1.35177, 187:-0.12237, 188: 0.58006, 189:-0.53805, 190: 0.13230
   192 |      | 161:-1.16405, 162:-0.51621, 163:-0.47805, 164:-0.28529, 165: 1.37652, 166:-0.03026, 167:-1.62783, 168: 1.13396,
                169:-0.83446, 170:-0.13235, 171: 0.64921, 172:-0.07198, 173: 0.54484, 174:-0.16940, 175:-0.53712, 176: 0.60621,
                177: 1.23373, 178:-0.18403, 179:-0.15777, 180: 0.23147, 181:-0.75013, 182:-0.24325, 183:-0.93757, 184:-0.21055,
                185: 0.83087, 186: 0.14618, 187: 0.73734, 188:-0.62427, 189: 1.23714, 190: 0.28330
   193 |      | 161:-0.28730, 162:-1.44074, 163: 0.47417, 164:-0.30980, 165:-0.22638, 166: 1.60280, 167: 0.96990, 168: 0.19599,
                169:-0.26888, 170: 1.24441, 171:-0.84745, 172:-0.55283, 173:-0.28176, 174: 0.05856, 175: 0.39767, 176: 0.64120,
                177: 0.34768, 178: 0.67760, 179:-0.10745, 180: 0.00152, 181:-0.27332, 182: 0.44217, 183: 1.00420, 184:-0.17292,
                185:-0.63550, 186:-0.73232, 187: 0.05121, 188:-0.88415, 189: 0.77770, 190: 0.18130
   194 |      | 161: 0.39631, 162:-0.84780, 163: 0.27632, 164: 0.78259, 165:-0.09392, 166:-0.32795, 167:-0.09471, 168:-0.20171,
                169:-0.33106, 170: 0.53504, 171:-0.45556, 172: 0.39937, 173:-0.53189, 174:-0.11348, 175:-0.76994, 176: 0.25246,
                177:-0.37548, 178:-0.09825, 179: 0.31135, 180: 0.08083, 181: 0.16912, 182:-0.47337, 183:-0.15732, 184: 0.14123,
                185: 0.34214, 186: 0.41791, 187:-0.37762, 188:-0.58463, 189: 1.01065, 190: 0.56495
   195 |      | 161:-1.93041, 162:-0.28073, 163:-0.80408, 164:-0.67048, 165: 0.68270, 166: 0.86799, 167:-1.13352, 168: 0.97760,
                169: 0.00860, 170:-0.35936, 171: 0.18461, 172:-0.49137, 173: 0.58401, 174:-0.51969, 175:-0.05162, 176: 0.13970,
                177: 1.85875, 178:-0.16437, 179:-0.46334, 180: 0.13285, 181:-0.61892, 182:-0.21089, 183:-0.69841, 184:-0.10001,
                185: 0.40309, 186:-0.07664, 187: 1.28503, 188:-0.28646, 189: 0.52642, 190:-0.43152
   196 |      | 161: 0.80130, 162:-0.63899, 163: 0.47438, 164:-0.41190, 165:-0.56563, 166: 0.75092, 167: 1.06468, 168: 0.12041,
                169: 0.02315, 170: 0.54908, 171:-0.40729, 172:-0.38972, 173:-0.41739, 174: 0.27657, 175: 0.87309, 176:-0.26814,
                177:-0.34475, 178: 0.81196, 179: 0.37655, 180:-0.08158, 181: 0.70381, 182: 0.16766, 183: 1.05026, 184: 0.54422,
                185:-0.97057, 186:-0.35372, 187:-0.41384, 188:-0.15179, 189: 0.18278, 190:-0.09069
   197 |      | 161:-1.26248, 162: 0.12760, 163: 0.03420, 164:-0.06899, 165: 0.39984, 166: 1.28078, 167:-0.43907, 168: 0.31575,
