SNNS network definition file V1.4-3D
generated at Wed Jan 10 14:16:17 2018

network name : default
source files :
no. of units : 220
no. of connections : 5600
no. of unit types : 0
no. of site types : 0


learning function : Rprop
update function   : Topological_Order


unit default section :

act      | bias     | st | subnet | layer | act func     | out func
---------|----------|----|--------|-------|--------------|-------------
 0.00000 |  0.00000 | h  |      0 |     1 | Act_Logistic | Out_Identity 
---------|----------|----|--------|-------|--------------|-------------


unit definition section :

no. | typeName | unitName | act      | bias     | st | position | act func     | out func | sites
----|----------|----------|----------|----------|----|----------|--------------|----------|-------
  1 |          | noName   |  0.00000 |  0.09531 | i  |  1, 1, 1 | Act_Identity |          | 
  2 |          | noName   |  0.00000 |  0.04184 | i  |  2, 1, 1 | Act_Identity |          | 
  3 |          | noName   |  0.00000 |  0.01280 | i  |  3, 1, 1 | Act_Identity |          | 
  4 |          | noName   |  0.00000 | -0.05804 | i  |  4, 1, 1 | Act_Identity |          | 
  5 |          | noName   |  0.00000 | -0.09288 | i  |  5, 1, 1 | Act_Identity |          | 
  6 |          | noName   |  1.00000 |  0.01726 | i  |  6, 1, 1 | Act_Identity |          | 
  7 |          | noName   |  1.00000 | -0.02072 | i  |  7, 1, 1 | Act_Identity |          | 
  8 |          | noName   |  1.00000 | -0.01187 | i  |  8, 1, 1 | Act_Identity |          | 
  9 |          | noName   |  0.00000 |  0.06034 | i  |  9, 1, 1 | Act_Identity |          | 
 10 |          | noName   |  0.00000 |  0.09697 | i  | 10, 1, 1 | Act_Identity |          | 
 11 |          | noName   |  0.00000 |  0.07881 | i  |  1, 2, 1 | Act_Identity |          | 
 12 |          | noName   |  0.00000 |  0.00368 | i  |  2, 2, 1 | Act_Identity |          | 
 13 |          | noName   |  0.00000 |  0.08105 | i  |  3, 2, 1 | Act_Identity |          | 
 14 |          | noName   |  0.00000 |  0.00348 | i  |  4, 2, 1 | Act_Identity |          | 
 15 |          | noName   |  1.00000 | -0.05884 | i  |  5, 2, 1 | Act_Identity |          | 
 16 |          | noName   |  1.00000 |  0.00719 | i  |  6, 2, 1 | Act_Identity |          | 
 17 |          | noName   |  1.00000 |  0.08976 | i  |  7, 2, 1 | Act_Identity |          | 
 18 |          | noName   |  1.00000 | -0.05348 | i  |  8, 2, 1 | Act_Identity |          | 
 19 |          | noName   |  0.00000 | -0.07633 | i  |  9, 2, 1 | Act_Identity |          | 
 20 |          | noName   |  0.00000 |  0.06744 | i  | 10, 2, 1 | Act_Identity |          | 
 21 |          | noName   |  0.00000 | -0.04198 | i  |  1, 3, 1 | Act_Identity |          | 
 22 |          | noName   |  0.00000 | -0.02206 | i  |  2, 3, 1 | Act_Identity |          | 
 23 |          | noName   |  0.00000 | -0.02883 | i  |  3, 3, 1 | Act_Identity |          | 
 24 |          | noName   |  1.00000 | -0.05160 | i  |  4, 3, 1 | Act_Identity |          | 
 25 |          | noName   |  1.00000 |  0.09828 | i  |  5, 3, 1 | Act_Identity |          | 
 26 |          | noName   |  1.00000 |  0.04723 | i  |  6, 3, 1 | Act_Identity |          | 
 27 |          | noName   |  0.00000 | -0.02514 | i  |  7, 3, 1 | Act_Identity |          | 
 28 |          | noName   |  0.00000 |  0.05783 | i  |  8, 3, 1 | Act_Identity |          | 
 29 |          | noName   |  0.00000 | -0.05679 | i  |  9, 3, 1 | Act_Identity |          | 
 30 |          | noName   |  0.00000 | -0.01159 | i  | 10, 3, 1 | Act_Identity |          | 
 31 |          | noName   |  0.00000 | -0.06382 | i  |  1, 4, 1 | Act_Identity |          | 
 32 |          | noName   |  0.00000 | -0.01942 | i  |  2, 4, 1 | Act_Identity |          | 
 33 |          | noName   |  1.00000 |  0.07079 | i  |  3, 4, 1 | Act_Identity |          | 
 34 |          | noName   |  1.00000 | -0.02991 | i  |  4, 4, 1 | Act_Identity |          | 
 35 |          | noName   |  1.00000 | -0.05798 | i  |  5, 4, 1 | Act_Identity |          | 
 36 |          | noName   |  0.00000 | -0.02204 | i  |  6, 4, 1 | Act_Identity |          | 
 37 |          | noName   |  0.00000 |  0.03119 | i  |  7, 4, 1 | Act_Identity |          | 
 38 |          | noName   |  0.00000 |  0.03947 | i  |  8, 4, 1 | Act_Identity |          | 
 39 |          | noName   |  0.00000 |  0.05754 | i  |  9, 4, 1 | Act_Identity |          | 
 40 |          | noName   |  0.00000 | -0.06568 | i  | 10, 4, 1 | Act_Identity |          | 
 41 |          | noName   |  0.00000 |  0.03202 | i  |  1, 5, 1 | Act_Identity |          | 
 42 |          | noName   |  1.00000 |  0.09181 | i  |  2, 5, 1 | Act_Identity |          | 
 43 |          | noName   |  1.00000 | -0.05726 | i  |  3, 5, 1 | Act_Identity |          | 
 44 |          | noName   |  1.00000 | -0.06785 | i  |  4, 5, 1 | Act_Identity |          | 
 45 |          | noName   |  1.00000 | -0.06208 | i  |  5, 5, 1 | Act_Identity |          | 
 46 |          | noName   |  0.00000 |  0.09652 | i  |  6, 5, 1 | Act_Identity |          | 
 47 |          | noName   |  0.00000 |  0.09925 | i  |  7, 5, 1 | Act_Identity |          | 
 48 |          | noName   |  0.00000 | -0.06294 | i  |  8, 5, 1 | Act_Identity |          | 
 49 |          | noName   |  0.00000 | -0.05906 | i  |  9, 5, 1 | Act_Identity |          | 
 50 |          | noName   |  0.00000 | -0.08884 | i  | 10, 5, 1 | Act_Identity |          | 
 51 |          | noName   |  0.00000 | -0.04672 | i  |  1, 6, 1 | Act_Identity |          | 
 52 |          | noName   |  1.00000 | -0.02643 | i  |  2, 6, 1 | Act_Identity |          | 
 53 |          | noName   |  1.00000 | -0.04219 | i  |  3, 6, 1 | Act_Identity |          | 
 54 |          | noName   |  1.00000 | -0.08541 | i  |  4, 6, 1 | Act_Identity |          | 
 55 |          | noName   |  0.00000 |  0.08131 | i  |  5, 6, 1 | Act_Identity |          | 
 56 |          | noName   |  0.00000 |  0.07336 | i  |  6, 6, 1 | Act_Identity |          | 
 57 |          | noName   |  0.00000 | -0.08960 | i  |  7, 6, 1 | Act_Identity |          | 
 58 |          | noName   |  0.00000 | -0.00954 | i  |  8, 6, 1 | Act_Identity |          | 
 59 |          | noName   |  0.00000 | -0.01556 | i  |  9, 6, 1 | Act_Identity |          | 
 60 |          | noName   |  0.00000 | -0.02311 | i  | 10, 6, 1 | Act_Identity |          | 
 61 |          | noName   |  0.00000 | -0.05426 | i  |  1, 7, 1 | Act_Identity |          | 
 62 |          | noName   |  1.00000 |  0.09235 | i  |  2, 7, 1 | Act_Identity |          | 
 63 |          | noName   |  1.00000 | -0.08201 | i  |  3, 7, 1 | Act_Identity |          | 
 64 |          | noName   |  0.00000 |  0.06993 | i  |  4, 7, 1 | Act_Identity |          | 
 65 |          | noName   |  0.00000 | -0.04841 | i  |  5, 7, 1 | Act_Identity |          | 
 66 |          | noName   |  0.00000 | -0.07813 | i  |  6, 7, 1 | Act_Identity |          | 
 67 |          | noName   |  0.00000 | -0.01771 | i  |  7, 7, 1 | Act_Identity |          | 
 68 |          | noName   |  0.00000 | -0.06406 | i  |  8, 7, 1 | Act_Identity |          | 
 69 |          | noName   |  0.00000 |  0.02410 | i  |  9, 7, 1 | Act_Identity |          | 
 70 |          | noName   |  0.00000 | -0.04913 | i  | 10, 7, 1 | Act_Identity |          | 
 71 |          | noName   |  0.00000 | -0.01889 | i  |  1, 8, 1 | Act_Identity |          | 
 72 |          | noName   |  1.00000 |  0.00588 | i  |  2, 8, 1 | Act_Identity |          | 
 73 |          | noName   |  1.00000 |  0.04359 | i  |  3, 8, 1 | Act_Identity |          | 
 74 |          | noName   |  0.00000 | -0.08107 | i  |  4, 8, 1 | Act_Identity |          | 
 75 |          | noName   |  0.00000 |  0.05395 | i  |  5, 8, 1 | Act_Identity |          | 
 76 |          | noName   |  0.00000 |  0.08639 | i  |  6, 8, 1 | Act_Identity |          | 
 77 |          | noName   |  0.00000 |  0.01482 | i  |  7, 8, 1 | Act_Identity |          | 
 78 |          | noName   |  0.00000 |  0.03769 | i  |  8, 8, 1 | Act_Identity |          | 
 79 |          | noName   |  0.00000 | -0.01170 | i  |  9, 8, 1 | Act_Identity |          | 
 80 |          | noName   |  0.00000 |  0.04785 | i  | 10, 8, 1 | Act_Identity |          | 
 81 |          | noName   |  1.00000 | -0.07208 | i  |  1, 9, 1 | Act_Identity |          | 
 82 |          | noName   |  1.00000 |  0.03287 | i  |  2, 9, 1 | Act_Identity |          | 
 83 |          | noName   |  1.00000 |  0.01837 | i  |  3, 9, 1 | Act_Identity |          | 
 84 |          | noName   |  0.00000 |  0.05338 | i  |  4, 9, 1 | Act_Identity |          | 
 85 |          | noName   |  0.00000 | -0.00362 | i  |  5, 9, 1 | Act_Identity |          | 
 86 |          | noName   |  0.00000 |  0.05560 | i  |  6, 9, 1 | Act_Identity |          | 
 87 |          | noName   |  1.00000 |  0.01628 | i  |  7, 9, 1 | Act_Identity |          | 
 88 |          | noName   |  1.00000 |  0.01014 | i  |  8, 9, 1 | Act_Identity |          | 
 89 |          | noName   |  1.00000 |  0.02807 | i  |  9, 9, 1 | Act_Identity |          | 
 90 |          | noName   |  0.00000 | -0.00597 | i  | 10, 9, 1 | Act_Identity |          | 
 91 |          | noName   |  1.00000 |  0.08215 | i  |  1,10, 1 | Act_Identity |          | 
 92 |          | noName   |  1.00000 |  0.02417 | i  |  2,10, 1 | Act_Identity |          | 
 93 |          | noName   |  1.00000 | -0.01411 | i  |  3,10, 1 | Act_Identity |          | 
 94 |          | noName   |  0.00000 |  0.01661 | i  |  4,10, 1 | Act_Identity |          | 
 95 |          | noName   |  1.00000 |  0.03920 | i  |  5,10, 1 | Act_Identity |          | 
 96 |          | noName   |  1.00000 | -0.06009 | i  |  6,10, 1 | Act_Identity |          | 
 97 |          | noName   |  1.00000 |  0.09399 | i  |  7,10, 1 | Act_Identity |          | 
 98 |          | noName   |  1.00000 |  0.07830 | i  |  8,10, 1 | Act_Identity |          | 
 99 |          | noName   |  1.00000 |  0.04028 | i  |  9,10, 1 | Act_Identity |          | 
100 |          | noName   |  1.00000 | -0.05417 | i  | 10,10, 1 | Act_Identity |          | 
101 |          | noName   |  1.00000 | -0.05395 | i  |  1,11, 1 | Act_Identity |          | 
102 |          | noName   |  1.00000 |  0.02085 | i  |  2,11, 1 | Act_Identity |          | 
103 |          | noName   |  0.00000 | -0.00815 | i  |  3,11, 1 | Act_Identity |          | 
104 |          | noName   |  1.00000 | -0.07272 | i  |  4,11, 1 | Act_Identity |          | 
105 |          | noName   |  1.00000 | -0.02834 | i  |  5,11, 1 | Act_Identity |          | 
106 |          | noName   |  1.00000 | -0.00148 | i  |  6,11, 1 | Act_Identity |          | 
107 |          | noName   |  1.00000 |  0.00193 | i  |  7,11, 1 | Act_Identity |          | 
108 |          | noName   |  1.00000 | -0.05213 | i  |  8,11, 1 | Act_Identity |          | 
109 |          | noName   |  1.00000 | -0.08276 | i  |  9,11, 1 | Act_Identity |          | 
110 |          | noName   |  1.00000 |  0.06045 | i  | 10,11, 1 | Act_Identity |          | 
111 |          | noName   |  1.00000 | -0.04203 | i  |  1,12, 1 | Act_Identity |          | 
112 |          | noName   |  1.00000 | -0.05944 | i  |  2,12, 1 | Act_Identity |          | 
113 |          | noName   |  1.00000 |  0.09763 | i  |  3,12, 1 | Act_Identity |          | 
114 |          | noName   |  1.00000 |  0.02085 | i  |  4,12, 1 | Act_Identity |          | 
115 |          | noName   |  1.00000 |  0.04124 | i  |  5,12, 1 | Act_Identity |          | 
116 |          | noName   |  1.00000 | -0.01011 | i  |  6,12, 1 | Act_Identity |          | 
117 |          | noName   |  0.00000 |  0.07457 | i  |  7,12, 1 | Act_Identity |          | 
118 |          | noName   |  0.00000 |  0.04846 | i  |  8,12, 1 | Act_Identity |          | 
119 |          | noName   |  1.00000 |  0.08356 | i  |  9,12, 1 | Act_Identity |          | 
120 |          | noName   |  1.00000 |  0.08634 | i  | 10,12, 1 | Act_Identity |          | 
121 |          | noName   |  1.00000 | -0.08149 | i  |  1,13, 1 | Act_Identity |          | 
122 |          | noName   |  1.00000 | -0.09377 | i  |  2,13, 1 | Act_Identity |          | 
123 |          | noName   |  1.00000 | -0.02690 | i  |  3,13, 1 | Act_Identity |          | 
124 |          | noName   |  1.00000 | -0.06573 | i  |  4,13, 1 | Act_Identity |          | 
125 |          | noName   |  1.00000 | -0.09021 | i  |  5,13, 1 | Act_Identity |          | 
126 |          | noName   |  0.00000 |  0.07278 | i  |  6,13, 1 | Act_Identity |          | 
127 |          | noName   |  0.00000 |  0.01509 | i  |  7,13, 1 | Act_Identity |          | 
128 |          | noName   |  0.00000 |  0.09467 | i  |  8,13, 1 | Act_Identity |          | 
129 |          | noName   |  1.00000 |  0.03554 | i  |  9,13, 1 | Act_Identity |          | 
130 |          | noName   |  1.00000 |  0.07672 | i  | 10,13, 1 | Act_Identity |          | 
131 |          | noName   |  0.00000 |  0.05392 | i  |  1,14, 1 | Act_Identity |          | 
132 |          | noName   |  1.00000 |  0.04380 | i  |  2,14, 1 | Act_Identity |          | 
133 |          | noName   |  1.00000 | -0.06151 | i  |  3,14, 1 | Act_Identity |          | 
134 |          | noName   |  1.00000 |  0.07504 | i  |  4,14, 1 | Act_Identity |          | 
135 |          | noName   |  1.00000 |  0.06285 | i  |  5,14, 1 | Act_Identity |          | 
136 |          | noName   |  1.00000 |  0.02923 | i  |  6,14, 1 | Act_Identity |          | 
137 |          | noName   |  1.00000 |  0.07410 | i  |  7,14, 1 | Act_Identity |          | 
138 |          | noName   |  1.00000 |  0.00697 | i  |  8,14, 1 | Act_Identity |          | 
139 |          | noName   |  1.00000 |  0.00744 | i  |  9,14, 1 | Act_Identity |          | 
140 |          | noName   |  1.00000 | -0.09568 | i  | 10,14, 1 | Act_Identity |          | 
141 |          | noName   |  0.00000 | -0.06802 | i  |  1,15, 1 | Act_Identity |          | 
142 |          | noName   |  1.00000 | -0.04552 | i  |  2,15, 1 | Act_Identity |          | 
143 |          | noName   |  1.00000 |  0.08920 | i  |  3,15, 1 | Act_Identity |          | 
144 |          | noName   |  1.00000 |  0.02248 | i  |  4,15, 1 | Act_Identity |          | 
145 |          | noName   |  1.00000 |  0.07823 | i  |  5,15, 1 | Act_Identity |          | 
146 |          | noName   |  1.00000 |  0.04060 | i  |  6,15, 1 | Act_Identity |          | 
147 |          | noName   |  1.00000 | -0.02454 | i  |  7,15, 1 | Act_Identity |          | 
148 |          | noName   |  1.00000 | -0.02757 | i  |  8,15, 1 | Act_Identity |          | 
149 |          | noName   |  1.00000 |  0.07445 | i  |  9,15, 1 | Act_Identity |          | 
150 |          | noName   |  0.00000 |  0.09695 | i  | 10,15, 1 | Act_Identity |          | 
151 |          | noName   |  0.00000 | -0.07814 | i  |  1,16, 1 | Act_Identity |          | 
152 |          | noName   |  0.00000 |  0.03579 | i  |  2,16, 1 | Act_Identity |          | 
153 |          | noName   |  1.00000 |  0.03021 | i  |  3,16, 1 | Act_Identity |          | 
154 |          | noName   |  1.00000 |  0.03160 | i  |  4,16, 1 | Act_Identity |          | 
155 |          | noName   |  1.00000 | -0.00633 | i  |  5,16, 1 | Act_Identity |          | 
156 |          | noName   |  1.00000 | -0.05192 | i  |  6,16, 1 | Act_Identity |          | 
157 |          | noName   |  1.00000 |  0.04487 | i  |  7,16, 1 | Act_Identity |          | 
158 |          | noName   |  1.00000 | -0.07132 | i  |  8,16, 1 | Act_Identity |          | 
159 |          | noName   |  0.00000 |  0.09219 | i  |  9,16, 1 | Act_Identity |          | 
160 |          | noName   |  0.00000 |  0.04463 | i  | 10,16, 1 | Act_Identity |          | 
161 |          | noName   |  0.02613 | -0.24313 | h  | 14, 2, 1 |||
162 |          | noName   |  0.80344 |  0.12287 | h  | 15, 2, 1 |||
163 |          | noName   |  0.98537 |  0.23642 | h  | 14, 3, 1 |||
164 |          | noName   |  0.03796 |  0.43867 | h  | 15, 3, 1 |||
165 |          | noName   |  0.01609 | -0.09030 | h  | 14, 4, 1 |||
166 |          | noName   |  0.01085 | -0.92611 | h  | 15, 4, 1 |||
167 |          | noName   |  0.94135 | -0.30249 | h  | 14, 5, 1 |||
168 |          | noName   |  0.97260 | -0.18215 | h  | 15, 5, 1 |||
169 |          | noName   |  0.06253 |  0.09198 | h  | 14, 6, 1 |||
170 |          | noName   |  0.09846 | -0.07276 | h  | 15, 6, 1 |||
171 |          | noName   |  0.00008 | -0.02396 | h  | 14, 7, 1 |||
172 |          | noName   |  0.00457 | -0.08765 | h  | 15, 7, 1 |||
173 |          | noName   |  0.45462 |  0.05381 | h  | 14, 8, 1 |||
174 |          | noName   |  0.47630 |  0.11936 | h  | 15, 8, 1 |||
175 |          | noName   |  0.97466 | -0.07636 | h  | 14, 9, 1 |||
176 |          | noName   |  0.03464 | -0.10742 | h  | 15, 9, 1 |||
177 |          | noName   |  0.08302 |  0.31862 | h  | 14,10, 1 |||
178 |          | noName   |  0.22045 |  0.16970 | h  | 15,10, 1 |||
179 |          | noName   |  0.02790 | -0.01336 | h  | 14,11, 1 |||
180 |          | noName   |  0.01127 | -0.46791 | h  | 15,11, 1 |||
181 |          | noName   |  0.00011 |  0.13212 | h  | 14,12, 1 |||
182 |          | noName   |  0.00922 |  0.07789 | h  | 15,12, 1 |||
183 |          | noName   |  0.93882 |  0.09911 | h  | 14,13, 1 |||
184 |          | noName   |  0.09298 |  0.19380 | h  | 15,13, 1 |||
185 |          | noName   |  0.80107 |  0.05618 | h  | 14,14, 1 |||
186 |          | noName   |  0.03891 | -0.05133 | h  | 15,14, 1 |||
187 |          | noName   |  0.00109 | -0.78636 | h  | 14,15, 1 |||
188 |          | noName   |  0.94474 |  0.13583 | h  | 15,15, 1 |||
189 |          | noName   |  0.93614 |  0.04933 | h  | 14,16, 1 |||
190 |          | noName   |  0.09323 | -0.00580 | h  | 15,16, 1 |||
191 |          | noName   |  0.97947 |  0.48524 | h  | 19, 7, 1 |||
192 |          | noName   |  0.94277 |  0.18552 | h  | 20, 7, 1 |||
193 |          | noName   |  0.95312 | -0.29963 | h  | 21, 7, 1 |||
194 |          | noName   |  0.92718 | -0.58950 | h  | 22, 7, 1 |||
195 |          | noName   |  0.97359 |  0.11592 | h  | 19, 8, 1 |||
196 |          | noName   |  0.06643 | -0.28138 | h  | 20, 8, 1 |||
197 |          | noName   |  0.03100 | -0.40957 | h  | 21, 8, 1 |||
198 |          | noName   |  0.45201 | -0.09221 | h  | 22, 8, 1 |||
199 |          | noName   |  0.91653 |  0.86065 | h  | 19, 9, 1 |||
200 |          | noName   |  0.96976 |  0.14405 | h  | 20, 9, 1 |||
201 |          | noName   |  0.93127 |  0.26788 | h  | 21, 9, 1 |||
202 |          | noName   |  0.89225 |  0.79802 | h  | 22, 9, 1 |||
203 |          | noName   |  0.05510 |  0.12171 | h  | 19,10, 1 |||
204 |          | noName   |  0.02427 |  0.77659 | h  | 20,10, 1 |||
205 |          | noName   |  0.98447 |  0.62532 | h  | 21,10, 1 |||
206 |          | noName   |  0.04074 |  0.42857 | h  | 22,10, 1 |||
207 |          | noName   |  0.15597 |  0.73609 | h  | 19,11, 1 |||
208 |          | noName   |  0.03679 |  0.26460 | h  | 20,11, 1 |||
209 |          | noName   |  0.95845 |  0.09853 | h  | 21,11, 1 |||
210 |          | noName   |  0.08769 |  0.42201 | h  | 22,11, 1 |||
211 |          | noName   |  0.00064 | -0.94059 | o  | 25, 4, 1 |||
212 |          | noName   |  0.00085 | -0.80068 | o  | 25, 5, 1 |||
213 |          | noName   |  0.00022 | -0.51806 | o  | 25, 6, 1 |||
214 |          | noName   |  0.00000 | -1.02814 | o  | 25, 7, 1 |||
215 |          | noName   |  0.00058 | -0.53623 | o  | 25, 8, 1 |||
216 |          | noName   |  0.00020 | -0.56583 | o  | 25, 9, 1 |||
217 |          | noName   |  0.99915 | -0.47762 | o  | 25,10, 1 |||
218 |          | noName   |  0.00011 | -0.76538 | o  | 25,11, 1 |||
219 |          | noName   |  0.00057 | -0.23667 | o  | 25,12, 1 |||
220 |          | noName   |  0.00005 | -0.23200 | o  | 25,13, 1 |||
----|----------|----------|----------|----------|----|----------|--------------|----------|-------


connection definition section :

target | site | source:weight
-------|------|----------------------------------------------------------------------------------------------------------------
   161 |      | 160: 0.17758, 159: 0.41637, 158: 0.51648, 157: 1.04685, 156: 0.29469, 155: 0.27352, 154: 0.02150, 153:-0.15084,
                152: 0.44811, 151: 0.40178, 150: 0.27952, 149: 0.31986, 148: 0.27838, 147: 0.35084, 146: 0.27329, 145:-0.00052,
                144: 0.15253, 143: 0.06804, 142: 0.63790, 141: 0.30030, 140:-0.34827, 139: 0.41757, 138:-0.02008, 137:-0.43489,
                136: 0.25968, 135:-0.04070, 134: 0.40001, 133: 0.22948, 132: 0.66355, 131:-0.28982, 130:-0.43955, 129:-0.15579,
                128:-0.41617, 127: 0.18547, 126:-0.26773, 125: 0.24599, 124: 0.40548, 123: 0.47935, 122: 0.35076, 121:-0.04131,
                120:-0.53089, 119:-0.24849, 118:-0.23314, 117:-0.30238, 116: 0.16657, 115:-0.20874, 114: 0.05132, 113: 0.19101,
                112: 0.18715, 111:-0.21731, 110:-1.01580, 109:-0.65875, 108:-0.02951, 107: 0.11016, 106:-0.18647, 105:-0.16504,
                104: 0.10255, 103: 0.02893, 102:-0.34306, 101:-0.30537, 100:-0.86323,  99:-0.65190,  98:-0.06519,  97: 0.06483,
                 96: 0.01916,  95:-0.25806,  94:-0.28310,  93:-0.31713,  92:-0.49107,  91:-0.36316,  90: 0.03223,  89:-0.14628,
                 88:-0.02750,  87: 0.03870,  86: 0.03229,  85:-0.48816,  84:-0.36901,  83:-0.66418,  82:-0.59792,  81:-0.15225,
                 80: 0.14330,  79:-0.01014,  78:-0.28924,  77:-0.05939,  76:-0.28137,  75:-0.20942,  74:-0.47874,  73:-0.75824,
                 72:-0.53021,  71:-0.10956,  70:-0.05282,  69: 0.03121,  68:-0.17153,  67:-0.70548,  66:-0.30026,  65:-0.06555,
                 64:-0.19971,  63:-0.12843,  62:-0.26184,  61:-0.21048,  60: 0.14436,  59:-0.09345,  58:-0.31319,  57:-0.30578,
                 56:-0.09074,  55:-0.14265,  54:-0.01256,  53:-0.05139,  52: 0.38814,  51: 0.27904,  50: 0.03150,  49:-0.24398,
                 48: 0.29378,  47:-0.18630,  46: 0.02969,  45:-0.07352,  44: 0.23704,  43: 0.13949,  42:-0.06112,  41: 0.06951,
                 40: 0.14347,  39:-0.13852,  38: 0.04942,  37:-0.60211,  36:-0.11585,  35:-0.02950,  34: 0.32021,  33: 0.25202,
                 32: 0.07533,  31: 0.10786,  30:-0.04180,  29:-0.12663,  28:-0.26313,  27:-0.41150,  26:-0.07380,  25: 0.33055,
                 24:-0.29997,  23: 0.01993,  22: 0.33673,  21: 0.22722,  20:-0.12705,  19:-0.02473,  18:-0.07766,  17:-0.54718,
                 16:-0.08223,  15: 0.07404,  14: 0.17504,  13: 0.26427,  12: 0.16721,  11:-0.11104,  10:-0.75887,   9:-0.09767,
                  8:-0.31611,   7:-0.11700,   6:-0.17369,   5:-0.01504,   4: 0.15505,   3: 0.13411,   2:-0.45479,   1:-0.40050
   162 |      | 160: 0.15271, 159: 0.18764, 158: 0.17514, 157: 0.39153, 156: 0.03584, 155: 0.37600, 154:-0.05147, 153: 0.01488,
                152:-0.38821, 151:-0.46561, 150: 0.11376, 149: 0.22169, 148: 0.28703, 147: 0.04633, 146:-0.05690, 145:-0.08500,
                144: 0.15974, 143: 0.05329, 142:-0.02161, 141:-0.07656, 140:-0.10796, 139: 0.06758, 138: 0.57040, 137: 0.03869,
                136: 0.10988, 135: 0.21279, 134:-0.06264, 133: 0.24607, 132:-0.03814, 131: 0.15622, 130:-0.21936, 129: 0.05684,
                128: 0.31521, 127:-0.15433, 126: 0.55412, 125: 0.27505, 124: 0.33032, 123: 0.05732, 122:-0.12313, 121: 0.03652,
                120:-0.18178, 119:-0.03637, 118: 0.14655, 117:-0.40242, 116:-0.16989, 115: 0.17160, 114: 0.12849, 113:-0.23426,
                112:-0.12007, 111: 0.06096, 110:-0.09144, 109:-0.15497, 108:-0.11661, 107:-0.54899, 106:-0.24721, 105: 0.06075,
                104: 0.18657, 103:-0.36067, 102:-0.44199, 101:-0.16549, 100:-0.09825,  99:-0.29199,  98:-0.14893,  97:-0.17124,
                 96:-0.21832,  95: 0.07841,  94: 0.07405,  93:-0.01983,  92:-0.28303,  91:-0.12120,  90:-0.19070,  89:-0.33390,
                 88:-0.41296,  87: 0.02895,  86:-0.23733,  85: 0.13274,  84:-0.29761,  83:-0.12524,  82:-0.11360,  81:-0.10020,
                 80:-0.31912,  79:-0.19700,  78:-0.23047,  77:-0.16563,  76: 0.02784,  75: 0.12859,  74:-0.16027,  73:-0.00082,
                 72: 0.02354,  71: 0.12831,  70:-0.37184,  69: 0.25240,  68:-0.15488,  67: 0.06374,  66:-0.17539,  65: 0.20018,
                 64: 0.24882,  63: 0.19676,  62: 0.05919,  61: 0.24098,  60:-0.50843,  59:-0.27540,  58:-0.02946,  57:-0.14240,
                 56:-0.03866,  55: 0.02412,  54: 0.14878,  53: 0.35198,  52: 0.21135,  51:-0.12084,  50:-0.88528,  49:-0.68312,
                 48:-0.66304,  47:-0.04865,  46: 0.23687,  45:-0.10504,  44: 0.05991,  43: 0.06077,  42:-0.05549,  41: 0.09032,
                 40:-0.43500,  39:-0.37191,  38:-0.16025,  37: 0.14520,  36: 0.07575,  35: 0.06665,  34: 0.29391,  33: 0.21568,
                 32:-0.08022,  31:-0.22587,  30:-0.23901,  29:-0.04388,  28: 0.17419,  27: 0.04472,  26:-0.08722,  25: 0.11568,
                 24: 0.22701,  23:-0.17271,  22:-0.17716,  21:-0.08211,  20:-0.00809,  19: 0.49888,  18: 0.03872,  17:-0.04429,
                 16: 0.00251,  15:-0.00453,  14:-0.04939,  13:-0.29066,  12:-0.20705,  11: 0.08444,  10: 0.23210,   9:-0.01583,
                  8: 0.31537,   7: 0.23864,   6: 0.19134,   5: 0.00364,   4:-0.23267,   3:-0.16908,   2: 0.20683,   1: 0.33734
   163 |      | 160: 0.18331, 159: 0.19646, 158: 0.18763, 157: 0.36442, 156: 0.03837, 155:-0.06718, 154:-0.17612, 153: 0.18674,
                152: 0.13769, 151: 0.27227, 150: 0.23255, 149: 0.25125, 148: 0.11438, 147: 0.12459, 146: 0.08075, 145:-0.04640,
                144: 0.02932, 143: 0.16688, 142: 0.25321, 141: 0.14875, 140: 0.13200, 139: 0.10552, 138: 0.08144, 137:-0.00319,
                136:-0.09041, 135:-0.05917, 134:-0.13563, 133: 0.15768, 132:-0.18162, 131:-0.00049, 130: 0.23037, 129: 0.06618,
                128:-0.10124, 127:-0.20016, 126: 0.19296, 125: 0.19772, 124: 0.17836, 123: 0.09593, 122:-0.33838, 121:-0.01761,
                120: 0.22925, 119: 0.02907, 118:-0.07454, 117:-0.03811, 116: 0.44083, 115: 0.37046, 114: 0.19759, 113:-0.02833,
                112:-0.42028, 111:-0.05792, 110: 0.03191, 109: 0.11130, 108: 0.00082, 107: 0.32415, 106: 0.44677, 105: 0.37733,
                104: 0.22367, 103:-0.06933, 102:-0.29453, 101:-0.05215, 100:-0.12022,  99:-0.01825,  98: 0.09293,  97: 0.34346,
                 96: 0.43218,  95: 0.43044,  94: 0.27246,  93:-0.01285,  92:-0.13004,  91:-0.04682,  90:-0.16846,  89:-0.09374,
                 88: 0.29602,  87: 0.31065,  86: 0.39509,  85: 0.34646,  84: 0.14966,  83:-0.09747,  82:-0.05755,  81:-0.13005,
                 80:-0.18537,  79:-0.13094,  78: 0.19127,  77: 0.41550,  76: 0.51012,  75: 0.35101,  74: 0.21073,  73:-0.04782,
                 72:-0.16234,  71:-0.21400,  70:-0.30841,  69: 0.06524,  68: 0.17000,  67: 0.37631,  66: 0.37614,  65: 0.29686,
                 64:-0.06365,  63:-0.05941,  62:-0.20373,  61:-0.05412,  60:-0.34989,  59:-0.08067,  58: 0.03559,  57: 0.18433,
                 56: 0.19067,  55: 0.16369,  54:-0.09483,  53:-0.05986,  52:-0.11615,  51: 0.08647,  50:-0.31852,  49:-0.14770,
                 48:-0.10821,  47: 0.08896,  46:-0.09560,  45: 0.21813,  44:-0.10699,  43:-0.05041,  42:-0.04157,  41: 0.09368,
                 40:-0.27913,  39:-0.05847,  38:-0.05971,  37: 0.10701,  36: 0.03262,  35:-0.07077,  34: 0.11679,  33: 0.05085,
                 32:-0.02681,  31:-0.05539,  30:-0.08044,  29: 0.00900,  28: 0.00000,  27:-0.00519,  26:-0.08968,  25: 0.01119,
                 24:-0.04819,  23:-0.01318,  22: 0.01861,  21: 0.14675,  20: 0.18319,  19: 0.02810,  18:-0.16229,  17:-0.05318,
                 16:-0.03679,  15: 0.07130,  14: 0.07957,  13: 0.09279,  12: 0.15115,  11: 0.09718,  10: 0.26651,   9: 0.10319,
                  8:-0.13927,   7: 0.00241,   6:-0.00948,   5: 0.11628,   4: 0.19113,   3: 0.19817,   2: 0.10771,   1: 0.07790
   164 |      | 160: 0.10719, 159:-0.13220, 158: 0.00396, 157: 0.70002, 156: 0.03801, 155: 0.08634, 154: 0.04134, 153:-0.19218,
                152: 0.04022, 151: 0.10958, 150: 0.10423, 149: 0.05502, 148: 0.14611, 147: 0.20212, 146: 0.03653, 145:-0.13398,
                144:-0.18493, 143: 0.04673, 142: 0.23218, 141: 0.04315, 140:-0.31132, 139: 0.07841, 138: 0.22162, 137:-0.54539,
                136:-0.35538, 135:-0.04475, 134: 0.38129, 133: 0.25247, 132:-0.08725, 131: 0.09799, 130:-0.30250, 129:-0.20693,
                128:-0.07024, 127:-0.05881, 126: 0.05791, 125: 0.34349, 124: 0.41215, 123: 0.38579, 122:-0.10240, 121:-0.23823,
                120:-0.34351, 119:-0.27706, 118:-0.20244, 117:-0.41544, 116: 0.13803, 115: 0.02189, 114: 0.11606, 113:-0.16095,
                112:-0.34999, 111: 0.04106, 110:-0.02022, 109: 0.04155, 108:-0.10225, 107: 0.02773, 106:-0.27685, 105: 0.29675,
                104:-0.14653, 103:-0.30128, 102:-0.42147, 101:-0.16714, 100: 0.04861,  99: 0.23260,  98: 0.08235,  97: 0.11337,
                 96: 0.01739,  95: 0.14184,  94:-0.16711,  93:-0.31094,  92:-0.26888,  91:-0.07571,  90: 0.18545,  89:-0.25389,
                 88: 0.01114,  87: 0.09465,  86: 0.13115,  85: 0.15828,  84:-0.39095,  83:-0.32655,  82:-0.45992,  81: 0.04090,
                 80:-0.09612,  79:-0.14729,  78: 0.17037,  77: 0.07241,  76: 0.06418,  75: 0.26588,  74:-0.26333,  73:-0.24707,
                 72:-0.35936,  71:-0.04196,  70:-0.51109,  69: 0.04808,  68:-0.03253,  67:-0.12228,  66:-0.31683,  65: 0.06299,
                 64:-0.28237,  63:-0.32334,  62:-0.57837,  61:-0.36480,  60:-0.40737,  59:-0.08537,  58: 0.05478,  57: 0.29177,
                 56:-0.55297,  55:-0.60888,  54:-0.60424,  53:-0.47547,  52:-0.43909,  51:-0.49189,  50:-0.20252,  49: 0.27736,
                 48:-0.01341,  47: 0.15357,  46: 0.04300,  45:-0.51287,  44:-0.35388,  43:-0.24956,  42:-0.53314,  41:-0.20503,
                 40:-0.16422,  39: 0.02683,  38:-0.08208,  37:-0.01242,  36:-0.23593,  35: 0.15329,  34: 0.15432,  33: 0.08379,
                 32:-0.36780,  31:-0.41095,  30:-0.15814,  29: 0.08999,  28: 0.06549,  27: 0.27382,  26: 0.29333,  25: 0.08618,
                 24: 0.55340,  23:-0.01716,  22:-0.09588,  21: 0.12202,  20:-0.07840,  19: 0.01997,  18: 0.11886,  17: 0.44419,
                 16: 0.79996,  15:-0.01923,  14: 0.39644,  13: 0.30469,  12: 0.49500,  11: 0.30039,  10: 0.07546,   9:-0.16128,
                  8:-0.32128,   7: 0.08988,   6: 0.10618,   5: 0.07516,   4: 0.39167,   3:-0.00630,   2:-0.27185,   1:-0.11343
   165 |      | 160:-0.31068, 159:-0.03401, 158:-0.18361, 157:-0.15919, 156:-0.12201, 155: 0.03904, 154: 0.08649, 153:-0.29318,
                152:-0.05946, 151:-0.26529, 150:-0.08848, 149:-0.37034, 148: 0.03893, 147:-0.17659, 146:-0.08804, 145: 0.04467,
                144:-0.06081, 143: 0.09193, 142: 0.14934, 141: 0.06776, 140:-0.10723, 139:-0.04364, 138:-0.14605, 137: 0.04350,
                136: 0.07707, 135: 0.29225, 134:-0.00255, 133:-0.00645, 132: 0.11766, 131: 0.46860, 130:-0.29380, 129: 0.04039,
                128: 0.00418, 127: 0.29971, 126: 0.22850, 125: 0.03454, 124:-0.30662, 123: 0.01272, 122: 0.29035, 121:-0.06206,
                120:-0.45460, 119: 0.06970, 118: 0.11993, 117: 0.05369, 116:-0.32543, 115:-0.57214, 114:-0.29867, 113:-0.06434,
                112: 0.22559, 111:-0.05304, 110: 0.01524, 109:-0.15242, 108: 0.19337, 107:-0.16099, 106:-0.57084, 105:-0.20584,
                104:-0.19250, 103:-0.04707, 102:-0.18228, 101:-0.21495, 100: 0.02297,  99: 0.03831,  98:-0.09597,  97:-0.37656,
                 96:-0.31694,  95:-0.56052,  94:-0.28232,  93: 0.14576,  92:-0.20320,  91:-0.35864,  90: 0.02065,  89:-0.05199,
                 88:-0.44211,  87:-0.49914,  86:-0.46419,  85:-0.31543,  84:-0.02974,  83:-0.22039,  82:-0.07289,  81:-0.12248,
                 80: 0.09205,  79:-0.03067,  78:-0.23382,  77:-0.79158,  76:-0.31403,  75:-0.43459,  74:-0.27078,  73:-0.13424,
                 72:-0.02935,  71: 0.09924,  70: 0.16720,  69:-0.11743,  68:-0.48935,  67:-0.47650,  66:-0.06599,  65:-0.11555,
                 64: 0.11711,  63:-0.17817,  62: 0.01793,  61:-0.10606,  60:-0.14350,  59:-0.40278,  58:-0.16923,  57: 0.17963,
                 56:-0.03438,  55: 0.16322,  54:-0.08419,  53: 0.04088,  52: 0.19806,  51:-0.03770,  50:-0.17993,  49:-0.23046,
                 48:-0.13072,  47: 0.07986,  46: 0.32420,  45:-0.26418,  44:-0.05584,  43:-0.11413,  42:-0.01225,  41:-0.03730,
                 40:-0.03601,  39: 0.00245,  38: 0.23860,  37: 0.18024,  36: 0.02252,  35: 0.33294,  34: 0.09483,  33:-0.05421,
                 32: 0.15803,  31: 0.08413,  30:-0.02100,  29: 0.25681,  28: 0.25611,  27: 0.26106,  26: 0.44632,  25: 0.16929,
                 24: 0.43530,  23: 0.40505,  22: 0.28408,  21: 0.04013,  20:-0.00696,  19: 0.26348,  18: 0.44834,  17: 0.29889,
                 16: 0.61422,  15: 0.77014,  14: 0.07247,  13: 0.39020,  12: 0.44336,  11: 0.37223,  10:-0.06443,   9: 0.06849,
                  8: 0.08204,   7: 0.08121,   6:-0.00550,   5: 0.08328,   4: 0.23431,   3: 0.02886,   2: 0.44881,   1: 0.18256
   166 |      | 160:-0.26238, 159: 0.05546, 158: 0.13115, 157:-0.14851, 156:-0.02676, 155: 0.16345, 154: 0.61423, 153: 0.59146,
                152: 0.10240, 151: 0.22216, 150: 0.12485, 149:-0.08770, 148: 0.04966, 147: 0.03147, 146: 0.10886, 145: 0.09521,
                144: 0.37773, 143: 0.28646, 142: 0.23662, 141: 0.38878, 140: 0.12881, 139: 0.07079, 138: 0.02332, 137: 0.24625,
                136:-0.01932, 135: 0.33444, 134:-0.25762, 133: 0.01338, 132:-0.08909, 131:-0.03805, 130: 0.35777, 129:-0.05720,
                128:-0.09482, 127:-0.10439, 126:-0.14811, 125:-0.93101, 124:-0.54690, 123:-0.47637, 122:-0.54478, 121:-0.20767,
                120: 0.21932, 119: 0.19373, 118:-0.06440, 117: 0.16978, 116:-0.28016, 115: 0.09453, 114:-0.17796, 113:-0.64530,
                112:-1.54870, 111:-0.59118, 110: 0.04449, 109:-0.03685, 108:-0.01144, 107:-0.07367, 106: 0.11039, 105: 0.12796,
                104: 0.09259, 103:-0.29299, 102:-0.52698, 101:-0.61878, 100: 0.37921,  99:-0.01382,  98:-0.03579,  97: 0.13023,
                 96:-0.21129,  95: 0.12830,  94:-0.08729,  93:-0.11089,  92:-0.13542,  91:-0.42267,  90: 0.05313,  89: 0.03022,
                 88: 0.06202,  87: 0.00255,  86:-0.09566,  85: 0.10782,  84: 0.42950,  83: 0.19864,  82:-0.05597,  81:-0.17352,
                 80: 0.00582,  79:-0.02975,  78: 0.14291,  77:-0.26346,  76:-0.22164,  75:-0.02376,  74: 0.21306,  73: 0.17207,
                 72: 0.11770,  71: 0.42657,  70: 0.10330,  69:-0.11944,  68:-0.02784,  67: 0.13349,  66: 0.05892,  65: 0.27411,
                 64: 0.02422,  63:-0.22288,  62:-0.07993,  61: 0.47193,  60: 0.12785,  59: 0.05045,  58: 0.11444,  57:-0.23607,
                 56:-0.31048,  55:-0.25760,  54:-0.11271,  53:-0.04299,  52:-0.19889,  51: 0.15171,  50:-0.00060,  49: 0.00034,
                 48:-0.09991,  47: 0.16991,  46:-0.17244,  45:-0.44292,  44:-0.18493,  43:-0.12790,  42:-0.00308,  41:-0.02408,
                 40: 0.02957,  39:-0.04166,  38:-0.10625,  37: 0.22240,  36:-0.06344,  35: 0.20469,  34: 0.15585,  33: 0.05546,
                 32:-0.09293,  31:-0.14168,  30:-0.11988,  29:-0.59519,  28: 0.06482,  27: 0.31650,  26: 0.31049,  25:-0.43719,
                 24: 0.00484,  23: 0.22293,  22: 0.07076,  21:-0.24674,  20:-0.29746,  19:-0.08889,  18: 0.12293,  17: 0.00884,
                 16:-0.01581,  15: 0.00980,  14: 0.05397,  13:-0.23856,  12:-0.31001,  11:-0.19133,  10:-0.50096,   9:-0.10491,
                  8: 0.36088,   7:-0.00555,   6: 0.15267,   5: 0.08163,   4: 0.27021,   3: 0.01831,   2:-0.39863,   1:-0.20020
   167 |      | 160:-0.19512, 159: 0.12075, 158:-0.06792, 157: 0.09235, 156: 0.50763, 155: 0.01894, 154: 0.55640, 153: 0.41247,
                152: 0.66281, 151: 0.49904, 150: 0.10362, 149: 0.20652, 148:-0.08039, 147: 0.08074, 146: 0.18293, 145: 0.01604,
                144: 0.03551, 143: 0.32079, 142: 0.67523, 141: 0.28307, 140: 0.09435, 139: 0.14462, 138: 0.11573, 137: 0.50662,
                136: 0.06603, 135: 0.17177, 134: 0.24367, 133: 0.08810, 132: 0.54214, 131: 0.39464, 130: 0.16293, 129: 0.26766,
                128:-0.00244, 127:-0.11660, 126:-0.12322, 125: 0.08559, 124:-0.27603, 123: 0.22221, 122: 0.35753, 121: 0.19670,
                120: 0.03989, 119:-0.16363, 118:-0.18553, 117:-0.24520, 116:-0.11117, 115:-0.25689, 114:-0.56168, 113: 0.18776,
                112: 0.06913, 111:-0.04215, 110: 0.02437, 109: 0.13813, 108:-0.02014, 107: 0.09518, 106:-0.32275, 105:-0.45431,
                104:-0.14770, 103:-0.01885, 102:-0.07489, 101:-0.07825, 100: 0.20989,  99: 0.00074,  98:-0.00438,  97:-0.18386,
                 96:-0.32231,  95:-0.07431,  94:-0.07428,  93:-0.01913,  92:-0.19306,  91: 0.00388,  90: 0.19462,  89: 0.05030,
                 88: 0.04154,  87:-0.05187,  86: 0.04004,  85:-0.11613,  84:-0.15652,  83:-0.22742,  82:-0.50960,  81:-0.18294,
                 80:-0.14094,  79:-0.21290,  78:-0.02236,  77:-0.02037,  76:-0.02690,  75:-0.25979,  74:-0.34246,  73:-0.57465,
                 72:-0.27856,  71:-0.13855,  70:-0.29354,  69:-0.08723,  68: 0.12212,  67:-0.01703,  66:-0.19494,  65:-0.42364,
                 64:-0.31338,  63:-0.40014,  62:-0.07702,  61:-0.10425,  60: 0.19737,  59:-0.00979,  58: 0.17500,  57:-0.18928,
                 56:-0.28143,  55:-0.40312,  54:-0.26345,  53:-0.31193,  52: 0.03764,  51: 0.07247,  50: 0.13690,  49: 0.14232,
                 48:-0.11425,  47:-0.07491,  46:-0.16292,  45:-0.37058,  44: 0.05743,  43: 0.04036,  42:-0.15376,  41: 0.13605,
                 40: 0.00281,  39:-0.08414,  38: 0.14542,  37:-0.10678,  36: 0.12390,  35: 0.02092,  34: 0.01878,  33:-0.22712,
                 32:-0.22193,  31: 0.00764,  30: 0.51979,  29: 0.01685,  28: 0.06633,  27: 0.17575,  26: 0.39581,  25: 0.33716,
                 24: 0.22294,  23: 0.00756,  22:-0.07365,  21:-0.25225,  20: 0.41544,  19: 0.66114,  18: 0.42412,  17: 0.40839,
                 16: 0.50314,  15: 0.33333,  14: 0.05570,  13: 0.14242,  12:-0.14216,  11:-0.19065,  10: 0.07808,   9: 0.33697,
                  8: 0.08384,   7:-0.06158,   6: 0.10790,   5: 0.19329,   4: 0.10432,   3:-0.08839,   2:-0.04844,   1:-0.03714
   168 |      | 160:-0.10709, 159:-0.08685, 158:-0.03016, 157:-0.08262, 156: 0.09982, 155: 0.41036, 154: 0.04337, 153: 0.28430,
                152:-0.06249, 151:-0.16016, 150:-0.15767, 149: 0.06044, 148: 0.11718, 147: 0.10593, 146: 0.07680, 145: 0.33533,
                144: 0.09503, 143:-0.02417, 142:-0.20751, 141: 0.10687, 140: 0.19741, 139: 0.11813, 138: 0.08782, 137: 0.41383,
                136: 0.21152, 135: 0.21885, 134: 0.18405, 133: 0.25687, 132: 0.09102, 131: 0.30380, 130: 0.14521, 129: 0.48216,
                128: 0.06076, 127: 0.00976, 126:-0.03804, 125:-0.03765, 124:-0.00334, 123: 0.15670, 122: 0.42307, 121: 0.50437,
                120: 0.32812, 119: 0.25394, 118:-0.08870, 117: 0.04006, 116:-0.43254, 115:-0.16463, 114:-0.20467, 113:-0.11952,
                112: 0.31217, 111: 0.20306, 110: 0.41812, 109: 0.02210, 108:-0.15833, 107:-0.34441, 106:-0.07258, 105:-0.16896,
                104:-0.22187, 103:-0.55337, 102:-0.19304, 101: 0.03923, 100:-0.01157,  99:-0.15307,  98:-0.18194,  97:-0.07296,
                 96:-0.07862,  95:-0.18814,  94: 0.00369,  93:-0.30546,  92:-0.15513,  91:-0.05003,  90:-0.20717,  89: 0.25703,
                 88:-0.22846,  87: 0.04054,  86: 0.06864,  85:-0.04677,  84:-0.00791,  83:-0.14476,  82:-0.11008,  81:-0.14239,
                 80:-0.06673,  79:-0.04966,  78:-0.08985,  77: 0.20117,  76: 0.27142,  75: 0.02508,  74: 0.07914,  73:-0.02224,
                 72: 0.11535,  71:-0.10903,  70: 0.21160,  69:-0.11917,  68: 0.27409,  67: 0.61210,  66: 0.37961,  65: 0.06164,
                 64: 0.02423,  63: 0.03901,  62: 0.43139,  61: 0.05900,  60:-0.00364,  59:-0.05788,  58: 0.02804,  57: 0.10998,
                 56: 0.13822,  55: 0.03481,  54: 0.32125,  53: 0.42464,  52: 0.19507,  51: 0.00297,  50: 0.12888,  49:-0.03659,
                 48:-0.10840,  47: 0.03139,  46: 0.20813,  45: 0.11041,  44: 0.15503,  43: 0.27419,  42: 0.45825,  41: 0.11197,
                 40:-0.17286,  39: 0.01996,  38: 0.10333,  37: 0.14447,  36: 0.12155,  35: 0.07015,  34:-0.13229,  33: 0.06911,
                 32: 0.32481,  31: 0.03838,  30:-0.05043,  29:-0.08714,  28:-0.13228,  27:-0.08962,  26:-0.13173,  25:-0.06871,
                 24:-0.16004,  23:-0.03563,  22:-0.03569,  21:-0.11344,  20:-0.25074,  19:-0.13603,  18:-0.13480,  17:-0.02536,
                 16:-0.28596,  15:-0.32616,  14:-0.21034,  13:-0.28103,  12:-0.13835,  11:-0.20431,  10:-0.02719,   9: 0.25396,
                  8: 0.00799,   7: 0.08848,   6:-0.42682,   5:-0.05485,   4:-0.13370,   3:-0.06335,   2: 0.20714,   1:-0.02610
   169 |      | 160: 0.24082, 159: 0.35014, 158: 0.63179, 157: 0.77561, 156: 0.40139, 155: 0.49041, 154: 0.23924, 153:-0.01492,
                152:-0.06115, 151: 0.04998, 150: 0.11016, 149: 0.02304, 148: 0.33686, 147: 0.32649, 146:-0.02533, 145: 0.11503,
                144: 0.24942, 143: 0.23267, 142: 0.18432, 141: 0.02479, 140:-0.42038, 139: 0.24503, 138:-0.00266, 137:-0.52878,
                136: 0.16314, 135: 0.10301, 134: 0.29945, 133: 0.13755, 132: 0.36789, 131:-0.24099, 130:-0.34995, 129:-0.37538,
                128:-0.36242, 127: 0.12425, 126:-0.06995, 125: 0.34643, 124: 0.82785, 123: 0.22314, 122: 0.35506, 121:-0.20418,
                120:-0.39123, 119:-0.31554, 118:-0.26660, 117:-0.15878, 116: 0.10529, 115:-0.12147, 114: 0.24611, 113:-0.06878,
                112: 0.04618, 111:-0.11290, 110:-0.85682, 109:-0.74659, 108:-0.14716, 107:-0.14859, 106:-0.24399, 105: 0.12839,
                104: 0.29449, 103:-0.10989, 102:-0.57702, 101:-0.33761, 100:-0.71785,  99:-0.52755,  98:-0.05403,  97: 0.11343,
                 96:-0.11780,  95:-0.10244,  94: 0.25759,  93:-0.42857,  92:-0.53252,  91:-0.42268,  90: 0.05688,  89:-0.10929,
                 88:-0.30337,  87:-0.15457,  86:-0.10382,  85:-0.13216,  84:-0.04846,  83:-0.41224,  82:-0.44265,  81:-0.23416,
                 80: 0.14986,  79:-0.07797,  78:-0.18974,  77:-0.10542,  76:-0.05679,  75: 0.13406,  74:-0.33846,  73:-0.41848,
                 72:-0.47201,  71:-0.08673,  70:-0.08637,  69: 0.10490,  68:-0.26536,  67:-0.35399,  66:-0.14340,  65: 0.06205,
                 64: 0.05814,  63:-0.10772,  62:-0.22398,  61:-0.05557,  60: 0.05245,  59:-0.05915,  58:-0.32198,  57:-0.04424,
                 56: 0.18140,  55: 0.01007,  54:-0.05544,  53:-0.00921,  52: 0.19241,  51: 0.00685,  50: 0.14696,  49:-0.12386,
                 48: 0.08998,  47: 0.02731,  46: 0.17179,  45:-0.28411,  44: 0.26551,  43: 0.10182,  42:-0.10033,  41: 0.08659,
                 40:-0.01457,  39:-0.17180,  38: 0.06614,  37:-0.20028,  36:-0.05264,  35: 0.25392,  34: 0.30138,  33: 0.11283,
                 32:-0.01016,  31: 0.02711,  30:-0.40313,  29:-0.53346,  28:-0.20669,  27:-0.22661,  26:-0.02613,  25: 0.19430,
                 24:-0.08171,  23:-0.19750,  22: 0.10885,  21: 0.20691,  20:-0.81669,  19:-0.18946,  18:-0.18645,  17:-0.03322,
                 16: 0.13141,  15: 0.02487,  14: 0.13132,  13: 0.01189,  12:-0.02584,  11:-0.09207,  10:-0.90153,   9:-0.47776,
                  8: 0.05690,   7: 0.20811,   6:-0.10390,   5: 0.03028,   4: 0.03799,   3:-0.14966,   2:-0.47968,   1:-0.47116
   170 |      | 160: 0.10381, 159: 0.49133, 158: 0.76295, 157: 0.69264, 156: 0.41278, 155:-0.07063, 154:-0.03336, 153: 0.38731,
                152: 0.13404, 151: 0.32203, 150:-0.03554, 149: 0.41644, 148: 0.10191, 147: 0.36696, 146: 0.10471, 145:-0.06111,
                144:-0.08212, 143: 0.50770, 142: 0.17006, 141: 0.24180, 140: 0.21667, 139:-0.00913, 138:-0.19139, 137:-0.13491,
                136:-0.11559, 135: 0.36069, 134: 0.10691, 133: 0.00290, 132: 0.24816, 131:-0.02742, 130:-0.00241, 129: 0.03063,
                128:-0.38973, 127:-0.24408, 126:-0.33247, 125:-0.01087, 124:-0.59049, 123:-0.03739, 122: 0.52405, 121: 0.55004,
                120: 0.06145, 119:-0.27172, 118:-0.51530, 117:-0.42999, 116:-0.17808, 115:-0.41239, 114:-0.09785, 113: 0.46768,
                112: 0.37804, 111:-0.02540, 110: 0.06061, 109:-0.14543, 108:-0.31712, 107:-0.05457, 106: 0.20325, 105:-0.34836,
                104:-0.35981, 103: 0.10017, 102:-0.20167, 101:-0.06416, 100:-0.76641,  99: 0.01582,  98:-0.16151,  97:-0.01656,
                 96: 0.06594,  95:-0.31511,  94:-0.14663,  93: 0.05163,  92:-0.35178,  91:-0.24397,  90:-0.55568,  89:-0.50621,
                 88:-0.35826,  87:-0.01846,  86: 0.25975,  85:-0.03583,  84:-0.04930,  83:-0.09495,  82:-0.53034,  81:-0.40341,
                 80:-0.29006,  79:-0.04379,  78:-0.14984,  77: 0.12137,  76: 0.33474,  75: 0.01791,  74:-0.08365,  73:-0.60386,
                 72:-0.58278,  71:-0.73316,  70: 0.08753,  69: 0.00577,  68:-0.07176,  67:-0.00884,  66: 0.05486,  65:-0.19658,
                 64:-0.34412,  63:-0.37917,  62:-0.43154,  61:-0.38172,  60:-0.04564,  59: 0.40149,  58: 0.16294,  57: 0.30798,
                 56:-0.02440,  55: 0.04075,  54: 0.02372,  53: 0.00195,  52: 0.06901,  51: 0.28051,  50: 0.82872,  49: 0.39881,
                 48:-0.01514,  47:-0.27723,  46:-0.03031,  45:-0.11004,  44:-0.23555,  43: 0.15189,  42: 0.34410,  41: 0.13784,
                 40: 0.07260,  39:-0.06274,  38:-0.02543,  37:-0.00147,  36: 0.10583,  35: 0.04019,  34: 0.31530,  33: 0.47596,
                 32: 0.19276,  31: 0.20018,  30:-0.04522,  29: 0.06585,  28:-0.23176,  27: 0.07875,  26:-0.09424,  25: 0.09181,
                 24:-0.04802,  23: 0.06786,  22:-0.08227,  21:-0.03668,  20:-0.16299,  19:-0.17335,  18:-0.12020,  17: 0.01189,
                 16:-0.13700,  15:-0.27694,  14:-0.25157,  13: 0.14601,  12:-0.44473,  11:-0.37621,  10:-0.07733,   9:-0.00529,
                  8: 0.17500,   7:-0.16942,   6:-0.33875,   5:-0.17542,   4: 0.10267,   3:-0.13932,   2: 0.19123,   1:-0.30417
   171 |      | 160:-0.17637, 159: 0.15641, 158:-0.03221, 157: 0.24660, 156: 0.21398, 155: 0.07862, 154: 0.36421, 153: 0.26912,
                152: 0.23139, 151: 0.07699, 150:-0.02545, 149:-0.18002, 148: 0.19776, 147: 0.17746, 146: 0.03370, 145:-0.02071,
                144: 0.10651, 143: 0.50476, 142: 0.10720, 141:-0.09426, 140: 0.18131, 139: 0.02355, 138: 0.14302, 137:-0.38881,
                136: 0.20590, 135:-0.07544, 134:-0.02462, 133:-0.02668, 132:-0.17195, 131: 0.12317, 130: 0.24432, 129: 0.19389,
                128: 0.05842, 127:-0.00806, 126:-0.14669, 125:-0.28729, 124:-0.52761, 123:-0.17885, 122:-0.03133, 121: 0.34159,
                120: 0.21467, 119: 0.17748, 118: 0.19314, 117:-0.27211, 116:-0.23355, 115:-0.63483, 114:-0.76219, 113:-0.68681,
                112:-0.56758, 111:-0.04792, 110: 0.47920, 109:-0.00726, 108:-0.18531, 107:-0.16117, 106:-0.49122, 105:-0.45330,
                104:-0.71090, 103:-0.65412, 102:-0.89914, 101:-0.34755, 100: 0.38581,  99: 0.24693,  98:-0.05377,  97:-0.00114,
                 96:-0.16165,  95:-0.17031,  94:-0.36245,  93:-0.40643,  92:-0.35472,  91:-0.43756,  90:-0.20744,  89:-0.18789,
                 88:-0.21628,  87:-0.27585,  86: 0.45930,  85: 0.05233,  84: 0.05407,  83:-0.07741,  82:-0.06158,  81:-0.22090,
                 80:-0.37941,  79:-0.23000,  78: 0.17851,  77: 0.05823,  76: 0.32543,  75: 0.13208,  74: 0.03796,  73: 0.30618,
                 72:-0.10315,  71:-0.32790,  70:-0.77096,  69:-0.61741,  68:-0.36968,  67: 0.31414,  66: 0.17572,  65: 0.20465,
                 64:-0.56091,  63:-0.55222,  62:-0.60337,  61:-0.47514,  60:-0.34357,  59:-0.20006,  58:-0.03408,  57: 0.14705,
                 56:-0.52752,  55:-0.22633,  54:-0.35628,  53:-0.54174,  52:-0.70466,  51:-0.64346,  50:-0.04751,  49: 0.07683,
                 48:-0.05496,  47:-0.19490,  46:-0.11608,  45:-0.32827,  44:-0.43512,  43:-0.28032,  42:-0.10585,  41:-0.21219,
                 40: 0.33771,  39: 0.24365,  38:-0.15171,  37: 0.17213,  36: 0.00040,  35: 0.08871,  34: 0.08823,  33: 0.14990,
                 32:-0.06881,  31:-0.02620,  30:-0.22481,  29:-0.06701,  28:-0.11144,  27:-0.02008,  26: 0.34704,  25:-0.28124,
                 24: 0.16524,  23: 0.20171,  22: 0.17754,  21:-0.02017,  20:-0.27426,  19:-0.23767,  18: 0.10280,  17: 0.02650,
                 16: 0.06938,  15:-0.04556,  14: 0.17626,  13: 0.03910,  12: 0.11505,  11: 0.16368,  10:-0.19788,   9:-0.00580,
                  8:-0.43201,   7:-0.03887,   6:-0.33175,   5: 0.08555,   4: 0.45254,   3:-0.05607,   2:-0.47528,   1:-0.14587
   172 |      | 160:-0.20947, 159:-0.20463, 158:-0.13597, 157: 0.01202, 156:-0.06438, 155: 0.15514, 154:-0.13132, 153: 0.22985,
                152: 0.00550, 151:-0.01019, 150:-0.31070, 149:-0.25895, 148:-0.02379, 147:-0.01952, 146: 0.02142, 145: 0.03589,
                144: 0.09165, 143: 0.22881, 142:-0.29020, 141:-0.00480, 140:-0.22078, 139:-0.24119, 138:-0.09504, 137: 0.22844,
                136:-0.03256, 135: 0.18402, 134: 0.02202, 133:-0.28100, 132:-0.20607, 131: 0.10564, 130:-0.24833, 129:-0.14116,
                128: 0.08180, 127: 0.29339, 126: 0.18627, 125: 0.04026, 124:-0.05757, 123:-0.15744, 122:-0.20444, 121:-0.19333,
                120:-0.15478, 119:-0.17141, 118: 0.06297, 117: 0.21749, 116: 0.09822, 115: 0.15390, 114: 0.30196, 113:-0.00470,
                112:-0.32064, 111:-0.40130, 110:-0.14627, 109:-0.40095, 108:-0.35858, 107:-0.21183, 106:-0.01472, 105: 0.12061,
                104: 0.15078, 103:-0.16101, 102:-0.36447, 101:-0.34935, 100:-0.13146,  99:-0.36495,  98:-0.73268,  97:-0.10900,
                 96:-0.00449,  95: 0.13824,  94: 0.35226,  93: 0.21083,  92:-0.49019,  91:-0.20466,  90:-0.27521,  89:-0.45696,
                 88:-0.57520,  87:-0.19479,  86:-0.17277,  85: 0.09643,  84: 0.01879,  83: 0.18738,  82: 0.01466,  81:-0.09057,
                 80:-0.12249,  79:-0.23721,  78:-0.40815,  77:-0.28627,  76: 0.16651,  75: 0.17996,  74: 0.02119,  73:-0.06162,
                 72:-0.23565,  71: 0.03314,  70: 0.13825,  69:-0.23720,  68:-0.21211,  67: 0.14253,  66: 0.21297,  65: 0.12893,
                 64:-0.15218,  63:-0.02514,  62:-0.05851,  61: 0.08808,  60:-0.18155,  59:-0.02546,  58: 0.06177,  57: 0.26314,
                 56:-0.01482,  55: 0.12071,  54: 0.04223,  53: 0.05821,  52: 0.06038,  51: 0.05097,  50:-0.08415,  49:-0.25026,
                 48:-0.29432,  47: 0.21926,  46: 0.17377,  45:-0.01510,  44: 0.06431,  43:-0.14551,  42: 0.15528,  41:-0.11177,
                 40: 0.02689,  39:-0.04069,  38:-0.25825,  37: 0.38014,  36: 0.12759,  35: 0.49345,  34: 0.32258,  33: 0.08558,
                 32:-0.18980,  31:-0.12397,  30: 0.23206,  29:-0.01615,  28: 0.01493,  27: 0.00166,  26:-0.05626,  25:-0.05517,
                 24: 0.25622,  23:-0.14764,  22:-0.47794,  21:-0.22785,  20: 0.02394,  19:-0.11308,  18: 0.09136,  17: 0.22131,
                 16:-0.06056,  15:-0.05371,  14:-0.24750,  13:-0.48187,  12:-0.38062,  11:-0.12673,  10: 0.28742,   9:-0.02733,
                  8:-0.00358,   7: 0.07674,   6: 0.17794,   5:-0.06435,   4:-0.37086,   3:-0.41542,   2:-0.06876,   1:-0.06193
   173 |      | 160: 0.26594, 159: 0.03644, 158:-0.02555, 157:-0.05477, 156:-0.08212, 155:-0.06485, 154:-0.16827, 153: 0.12199,
                152:-0.15724, 151: 0.10664, 150:-0.05212, 149: 0.06549, 148: 0.01283, 147:-0.10676, 146:-0.15690, 145:-0.01941,
                144: 0.03700, 143:-0.02221, 142:-0.57233, 141:-0.25709, 140: 0.09604, 139: 0.15904, 138: 0.39324, 137: 0.45109,
                136:-0.05657, 135: 0.06992, 134: 0.14951, 133:-0.05633, 132:-0.29306, 131: 0.08839, 130: 0.15513, 129: 0.41186,
                128: 0.52039, 127: 0.02862, 126:-0.09015, 125: 0.09687, 124: 0.22413, 123: 0.06920, 122: 0.06867, 121: 0.24197,
                120: 0.34287, 119: 0.23045, 118:-0.02459, 117: 0.11146, 116: 0.00208, 115: 0.22871, 114: 0.20666, 113: 0.02353,
                112: 0.00255, 111: 0.04711, 110: 0.14598, 109:-0.20975, 108: 0.03478, 107: 0.23706, 106: 0.14544, 105: 0.06037,
                104: 0.12569, 103:-0.11690, 102:-0.01932, 101:-0.12786, 100: 0.15609,  99:-0.59273,  98:-0.35038,  97:-0.04828,
                 96:-0.10733,  95: 0.28946,  94: 0.47768,  93:-0.08841,  92: 0.00131,  91: 0.01697,  90: 0.10731,  89:-0.24370,
                 88:-0.36477,  87: 0.05774,  86:-0.01830,  85: 0.09870,  84:-0.14023,  83:-0.01304,  82: 0.06543,  81:-0.00865,
                 80:-0.28271,  79:-0.45145,  78:-0.21554,  77: 0.06602,  76: 0.10014,  75: 0.20831,  74: 0.06355,  73: 0.11430,
                 72: 0.00554,  71: 0.10751,  70:-0.33377,  69:-0.16003,  68:-0.07728,  67: 0.29023,  66: 0.17767,  65: 0.20472,
                 64: 0.21176,  63:-0.08790,  62:-0.00275,  61: 0.10240,  60:-0.09423,  59:-0.11436,  58:-0.09688,  57:-0.05030,
                 56: 0.04591,  55: 0.06773,  54: 0.22450,  53: 0.14465,  52:-0.28343,  51:-0.09848,  50:-0.15808,  49:-0.24245,
                 48:-0.32318,  47:-0.01082,  46: 0.01608,  45: 0.02167,  44: 0.13952,  43: 0.01094,  42: 0.01365,  41:-0.23938,
                 40:-0.55036,  39:-0.19319,  38: 0.02724,  37: 0.26929,  36: 0.34459,  35: 0.11643,  34: 0.04936,  33:-0.20046,
                 32:-0.27839,  31:-0.32927,  30:-0.01153,  29:-0.47038,  28:-0.20543,  27: 0.18786,  26:-0.00883,  25: 0.12204,
                 24:-0.21579,  23:-0.53939,  22:-0.47312,  21:-0.24298,  20:-0.04289,  19:-0.04865,  18:-0.36187,  17:-0.08917,
                 16:-0.44088,  15:-0.43938,  14:-0.50672,  13:-0.47999,  12:-0.39111,  11:-0.08182,  10: 0.40426,   9:-0.05138,
                  8:-0.06565,   7:-0.16677,   6:-0.22650,   5:-0.28257,   4:-0.32825,   3:-0.27214,   2: 0.23431,   1: 0.10288
   174 |      | 160: 0.17639, 159: 0.05548, 158: 0.30020, 157:-0.13713, 156:-0.10673, 155:-0.04217, 154:-0.17768, 153:-0.15862,
                152: 0.05402, 151: 0.11377, 150:-0.00188, 149: 0.03020, 148:-0.00297, 147:-0.11075, 146:-0.24470, 145:-0.09984,
                144:-0.17180, 143:-0.29637, 142: 0.45925, 141: 0.11122, 140:-0.37985, 139:-0.21166, 138:-0.35508, 137:-0.28302,
                136:-0.02562, 135:-0.06718, 134:-0.23776, 133: 0.19154, 132: 0.20149, 131:-0.04597, 130:-0.61730, 129:-0.33347,
                128:-0.11981, 127: 0.04080, 126:-0.13234, 125:-0.04356, 124: 0.23259, 123: 0.20060, 122:-0.07695, 121: 0.09735,
                120:-0.44923, 119:-0.17753, 118:-0.19844, 117: 0.03226, 116:-0.00885, 115:-0.11301, 114: 0.04326, 113:-0.22792,
                112: 0.29433, 111: 0.04010, 110: 0.19055, 109:-0.14769, 108: 0.51209, 107: 0.40866, 106: 0.27393, 105:-0.02394,
                104:-0.19507, 103: 0.05918, 102: 0.30764, 101: 0.28148, 100:-0.16660,  99:-0.07275,  98: 0.10740,  97: 0.21273,
                 96: 0.02556,  95:-0.38829,  94:-0.56203,  93:-0.00149,  92: 0.52422,  91: 0.20582,  90: 0.17835,  89: 0.17915,
                 88:-0.03742,  87:-0.06880,  86:-0.15039,  85:-0.71716,  84: 0.07750,  83:-0.07625,  82: 0.09183,  81: 0.49793,
                 80: 0.48761,  79: 0.17882,  78: 0.10524,  77: 0.09214,  76:-0.17223,  75:-0.57884,  74: 0.00914,  73: 0.21654,
                 72: 0.20362,  71: 0.20789,  70: 0.43232,  69: 0.51766,  68: 0.10903,  67: 0.12555,  66:-0.23686,  65: 0.04358,
                 64: 0.29940,  63: 0.21747,  62: 0.34462,  61: 0.09354,  60: 0.25812,  59: 0.07769,  58: 0.05715,  57:-0.33911,
                 56:-0.00552,  55: 0.16494,  54: 0.52817,  53: 0.05593,  52: 0.14550,  51:-0.05778,  50: 0.19588,  49: 0.06944,
                 48: 0.24454,  47:-0.19753,  46:-0.34182,  45: 0.47034,  44: 0.09653,  43: 0.24990,  42: 0.05992,  41:-0.03803,
                 40: 0.10558,  39:-0.07144,  38:-0.28660,  37:-0.27598,  36:-0.24950,  35:-0.17658,  34:-0.07238,  33: 0.30083,
                 32: 0.20310,  31: 0.23868,  30: 0.02962,  29: 0.05108,  28:-0.13741,  27:-0.30914,  26:-0.23380,  25:-0.15614,
                 24:-0.18126,  23:-0.18086,  22: 0.07674,  21: 0.10017,  20: 0.02189,  19:-0.07752,  18:-0.17114,  17:-0.41445,
                 16:-0.36810,  15:-0.25181,  14:-0.27487,  13:-0.41495,  12:-0.15018,  11: 0.18487,  10:-0.25766,   9: 0.24768,
                  8: 0.06144,   7:-0.22614,   6:-0.48811,   5:-0.12174,   4:-0.14033,   3: 0.14373,   2: 0.19025,   1: 0.08846
   175 |      | 160: 0.03870, 159: 0.19289, 158: 0.24765, 157: 0.41594, 156: 0.31611, 155: 0.27200, 154: 0.29510, 153: 0.34310,
                152: 0.23090, 151: 0.17336, 150: 0.18447, 149: 0.28512, 148: 0.34891, 147: 0.34171, 146: 0.37144, 145: 0.22395,
                144: 0.28151, 143: 0.24850, 142:-0.06521, 141: 0.11048, 140: 0.28563, 139: 0.30159, 138: 0.30913, 137: 0.00043,
                136: 0.05647, 135: 0.08607, 134: 0.25620, 133: 0.13195, 132: 0.11285, 131: 0.36929, 130: 0.32523, 129: 0.41604,
                128: 0.11849, 127:-0.09045, 126: 0.22660, 125: 0.15951, 124: 0.29070, 123: 0.08620, 122: 0.08511, 121: 0.38042,
                120: 0.31823, 119: 0.03882, 118:-0.10257, 117:-0.31716, 116:-0.06183, 115:-0.06252, 114: 0.12707, 113: 0.19626,
                112: 0.11908, 111: 0.03610, 110:-0.04247, 109:-0.25334, 108:-0.40242, 107:-0.29774, 106:-0.18217, 105: 0.04194,
                104: 0.01300, 103:-0.22753, 102:-0.14815, 101:-0.09014, 100:-0.28714,  99:-0.30691,  98:-0.11687,  97:-0.02268,
                 96:-0.10438,  95: 0.06287,  94: 0.23422,  93:-0.06782,  92:-0.23756,  91:-0.10638,  90:-0.50042,  89:-0.54448,
                 88:-0.34972,  87:-0.33417,  86: 0.15291,  85: 0.08662,  84: 0.06431,  83:-0.24524,  82:-0.14829,  81:-0.01546,
                 80:-0.67637,  79:-0.19710,  78:-0.09933,  77:-0.03833,  76: 0.30623,  75:-0.05782,  74: 0.09590,  73:-0.18789,
                 72:-0.24160,  71:-0.33871,  70:-0.52545,  69:-0.23886,  68:-0.23463,  67:-0.06212,  66: 0.36018,  65: 0.04945,
                 64:-0.01016,  63:-0.18376,  62:-0.25771,  61:-0.08824,  60:-0.56100,  59:-0.04510,  58:-0.09736,  57: 0.03188,
                 56: 0.13004,  55: 0.22427,  54: 0.10281,  53: 0.06630,  52: 0.05096,  51:-0.11648,  50:-0.23210,  49:-0.30818,
                 48:-0.38581,  47:-0.31169,  46: 0.18367,  45: 0.12455,  44:-0.09218,  43: 0.17271,  42: 0.17875,  41: 0.20306,
                 40:-0.41818,  39:-0.22762,  38:-0.32196,  37:-0.09795,  36: 0.13903,  35: 0.06365,  34: 0.10844,  33: 0.35963,
                 32: 0.11439,  31:-0.18337,  30:-0.15387,  29:-0.05657,  28:-0.04689,  27: 0.09283,  26:-0.16715,  25:-0.07108,
                 24: 0.02700,  23:-0.08350,  22:-0.01380,  21: 0.15776,  20:-0.11364,  19:-0.01611,  18: 0.05885,  17:-0.06648,
                 16:-0.06762,  15:-0.09490,  14:-0.01739,  13:-0.03830,  12:-0.19932,  11:-0.12307,  10:-0.07805,   9: 0.07010,
                  8: 0.00506,   7: 0.05702,   6: 0.04604,   5: 0.20474,   4: 0.08077,   3:-0.41410,   2:-0.17801,   1:-0.11750
   176 |      | 160: 0.19759, 159: 0.39705, 158: 0.17072, 157: 0.39477, 156: 0.04880, 155:-0.15002, 154:-0.05495, 153:-0.03966,
                152: 0.24254, 151: 0.33055, 150: 0.23211, 149: 0.16654, 148: 0.12416, 147:-0.01030, 146:-0.02503, 145:-0.23375,
                144:-0.22263, 143: 0.02964, 142: 0.40306, 141: 0.36282, 140: 0.33193, 139:-0.02046, 138: 0.02593, 137:-0.05754,
                136: 0.03701, 135:-0.01999, 134:-0.11342, 133:-0.01939, 132: 0.15927, 131: 0.16022, 130: 0.24767, 129:-0.12850,
                128:-0.10559, 127:-0.16101, 126: 0.17083, 125:-0.09539, 124:-0.46265, 123:-0.17358, 122:-0.18267, 121:-0.14083,
                120:-0.04490, 119:-0.16238, 118:-0.07567, 117:-0.16680, 116: 0.11900, 115: 0.18539, 114:-0.03016, 113: 0.07679,
                112:-0.61870, 111:-0.25047, 110:-0.09045, 109:-0.12527, 108: 0.00028, 107: 0.26140, 106: 0.13656, 105:-0.06035,
                104:-0.11432, 103:-0.00091, 102:-0.63941, 101:-0.20853, 100:-0.25916,  99: 0.05748,  98: 0.10185,  97: 0.43360,
                 96: 0.26692,  95:-0.27610,  94: 0.00792,  93:-0.06608,  92:-0.40297,  91:-0.26535,  90: 0.04315,  89:-0.21702,
                 88: 0.18367,  87: 0.23595,  86: 0.22456,  85:-0.23218,  84: 0.15145,  83:-0.09730,  82:-0.20785,  81:-0.17110,
                 80:-0.16056,  79:-0.02604,  78: 0.31620,  77: 0.02002,  76: 0.18843,  75:-0.03295,  74:-0.02095,  73:-0.28391,
                 72:-0.31585,  71:-0.38998,  70: 0.06142,  69: 0.19795,  68: 0.10748,  67: 0.16753,  66: 0.22438,  65:-0.02680,
                 64:-0.11631,  63:-0.11267,  62:-0.34507,  61:-0.04211,  60: 0.23351,  59: 0.58951,  58: 0.46495,  57: 0.24668,
                 56:-0.00599,  55: 0.12336,  54:-0.03954,  53:-0.18324,  52:-0.04333,  51:-0.04106,  50: 0.24371,  49: 0.46869,
                 48: 0.12046,  47:-0.03224,  46:-0.24825,  45:-0.05538,  44:-0.11265,  43:-0.12405,  42:-0.07354,  41: 0.00538,
                 40: 0.12207,  39: 0.06844,  38:-0.09677,  37:-0.12802,  36:-0.07171,  35:-0.08758,  34: 0.17542,  33: 0.21710,
                 32:-0.23035,  31: 0.12775,  30: 0.08294,  29: 0.11911,  28:-0.07120,  27:-0.08627,  26: 0.28397,  25:-0.01591,
                 24: 0.09007,  23: 0.55024,  22: 0.20974,  21: 0.18671,  20: 0.35905,  19:-0.07524,  18:-0.07295,  17:-0.00806,
                 16: 0.17735,  15: 0.33023,  14: 0.33358,  13: 0.66707,  12: 0.40254,  11: 0.13257,  10: 0.24570,   9: 0.13118,
                  8:-0.02780,   7:-0.20911,   6:-0.12329,   5:-0.20171,   4: 0.33082,   3: 0.41099,   2: 0.26084,   1: 0.31576
   177 |      | 160: 0.19495, 159:-0.11957, 158: 0.07906, 157:-0.19448, 156:-0.63869, 155:-0.20411, 154:-0.48491, 153:-0.39340,
                152:-0.58792, 151:-0.26435, 150:-0.02791, 149:-0.14396, 148:-0.00768, 147:-0.01397, 146:-0.20140, 145:-0.16319,
                144:-0.03649, 143:-0.41545, 142:-0.56311, 141:-0.52264, 140:-0.13190, 139:-0.16781, 138:-0.02761, 137:-0.29583,
                136:-0.04777, 135: 0.00521, 134:-0.09130, 133:-0.04132, 132:-0.51338, 131:-0.45826, 130:-0.16095, 129:-0.21669,
                128: 0.15544, 127: 0.04659, 126: 0.16486, 125: 0.18053, 124: 0.42361, 123:-0.16147, 122:-0.23953, 121:-0.26757,
                120:-0.01847, 119: 0.15759, 118: 0.19460, 117: 0.28678, 116: 0.37044, 115: 0.41619, 114: 0.41187, 113:-0.04243,
                112:-0.01145, 111: 0.01703, 110:-0.14638, 109:-0.07047, 108:-0.09890, 107:-0.03602, 106: 0.31112, 105: 0.34994,
                104: 0.29234, 103: 0.07384, 102: 0.12757, 101: 0.14114, 100:-0.20168,  99:-0.15182,  98:-0.05822,  97: 0.09881,
                 96: 0.16648,  95: 0.15155,  94: 0.23985,  93: 0.19792,  92: 0.39105,  91: 0.04395,  90:-0.27033,  89:-0.00447,
                 88:-0.01374,  87:-0.00847,  86:-0.01140,  85: 0.25670,  84: 0.24015,  83: 0.20526,  82: 0.30110,  81: 0.15942,
                 80: 0.20046,  79: 0.24735,  78:-0.04103,  77: 0.00998,  76: 0.13918,  75: 0.32355,  74: 0.45195,  73: 0.44093,
                 72: 0.02693,  71: 0.12099,  70: 0.29448,  69: 0.20787,  68:-0.07239,  67: 0.07809,  66: 0.17815,  65: 0.41642,
                 64: 0.29190,  63: 0.25733,  62: 0.07952,  61: 0.18522,  60:-0.02639,  59: 0.08823,  58:-0.17919,  57: 0.06129,
                 56: 0.44161,  55: 0.26414,  54: 0.12366,  53: 0.24986,  52:-0.03637,  51:-0.03932,  50:-0.23697,  49:-0.13743,
                 48: 0.20255,  47:-0.01141,  46: 0.16031,  45: 0.07348,  44:-0.06406,  43: 0.12607,  42: 0.02062,  41:-0.06433,
                 40:-0.16559,  39:-0.02365,  38:-0.05120,  37:-0.08347,  36:-0.06444,  35:-0.14873,  34:-0.01321,  33: 0.46014,
                 32: 0.03759,  31:-0.06505,  30:-0.56969,  29:-0.07232,  28:-0.14898,  27:-0.52791,  26:-0.31881,  25:-0.26849,
                 24:-0.06622,  23: 0.04907,  22:-0.01151,  21: 0.12207,  20:-0.43586,  19:-0.55376,  18:-0.57973,  17:-0.51395,
                 16:-0.32748,  15:-0.41789,  14:-0.23394,  13:-0.17781,  12: 0.06840,  11: 0.25288,  10:-0.02724,   9:-0.37608,
                  8:-0.18956,   7: 0.10966,   6:-0.05701,   5:-0.14217,   4:-0.31527,   3:-0.09438,   2: 0.08756,   1: 0.18129
   178 |      | 160: 0.12593, 159:-0.15888, 158: 0.09623, 157: 0.16110, 156: 0.03366, 155:-0.11852, 154:-0.18055, 153: 0.03502,
                152:-0.01990, 151:-0.02307, 150:-0.06140, 149: 0.09282, 148: 0.16872, 147: 0.07631, 146: 0.08022, 145:-0.18223,
                144:-0.17194, 143:-0.33712, 142: 0.02633, 141:-0.12381, 140: 0.19446, 139: 0.18210, 138: 0.32573, 137:-0.17402,
                136: 0.09909, 135:-0.28023, 134:-0.42501, 133:-0.29047, 132:-0.14131, 131:-0.11822, 130: 0.20714, 129: 0.19919,
                128: 0.08885, 127: 0.22921, 126: 0.11274, 125:-0.00058, 124: 0.00505, 123:-0.11497, 122: 0.10715, 121:-0.11800,
                120: 0.38093, 119: 0.13392, 118:-0.03842, 117:-0.08334, 116: 0.18429, 115: 0.30260, 114: 0.03376, 113: 0.02187,
                112:-0.10926, 111:-0.11263, 110: 0.12903, 109:-0.04446, 108:-0.14903, 107: 0.04196, 106:-0.00201, 105: 0.00024,
                104:-0.31215, 103: 0.07779, 102: 0.22555, 101: 0.26253, 100: 0.14191,  99: 0.04517,  98:-0.17813,  97: 0.12168,
                 96:-0.03577,  95:-0.18858,  94:-0.23310,  93: 0.04615,  92: 0.58006,  91: 0.27095,  90:-0.19366,  89: 0.07801,
                 88: 0.04593,  87:-0.00845,  86: 0.03383,  85: 0.10622,  84: 0.15204,  83:-0.03172,  82: 0.17206,  81: 0.40648,
                 80: 0.11114,  79: 0.50976,  78: 0.55931,  77: 0.15807,  76:-0.01613,  75:-0.26723,  74: 0.25064,  73: 0.44916,
                 72:-0.00752,  71: 0.07962,  70: 0.08893,  69: 0.20802,  68: 0.04968,  67: 0.08983,  66: 0.12617,  65: 0.16737,
                 64:-0.24470,  63:-0.05577,  62:-0.10554,  61:-0.29583,  60:-0.19746,  59:-0.14152,  58: 0.21637,  57: 0.17497,
                 56:-0.09724,  55:-0.11441,  54:-0.05804,  53:-0.28880,  52:-0.30645,  51:-0.31883,  50:-0.05738,  49: 0.16682,
                 48: 0.20133,  47: 0.00484,  46:-0.10847,  45: 0.11505,  44:-0.15666,  43:-0.27976,  42:-0.00557,  41: 0.20784,
                 40: 0.01437,  39: 0.05497,  38:-0.08234,  37:-0.00182,  36:-0.22832,  35: 0.00360,  34:-0.08092,  33: 0.06535,
                 32: 0.22515,  31: 0.15335,  30:-0.16380,  29:-0.04413,  28:-0.38146,  27:-0.09376,  26:-0.30291,  25:-0.31556,
                 24: 0.01381,  23: 0.04733,  22: 0.13230,  21: 0.04984,  20:-0.22367,  19:-0.34111,  18:-0.29861,  17:-0.31957,
                 16:-0.28495,  15:-0.24766,  14:-0.04682,  13:-0.18462,  12: 0.14169,  11: 0.20056,  10: 0.09460,   9: 0.11426,
                  8:-0.68880,   7: 0.02501,   6:-0.30994,   5: 0.07321,   4:-0.20547,   3:-0.22106,   2:-0.17313,   1: 0.08480
   179 |      | 160: 0.12940, 159:-0.08869, 158:-0.04657, 157:-0.15645, 156:-0.01056, 155:-0.02162, 154:-0.18171, 153:-0.17904,
                152:-0.16950, 151: 0.02235, 150:-0.10857, 149:-0.12168, 148:-0.17247, 147:-0.06952, 146:-0.08284, 145:-0.08098,
                144:-0.11607, 143:-0.07288, 142: 0.03487, 141:-0.02533, 140:-0.23508, 139:-0.27906, 138:-0.33036, 137:-0.08674,
                136:-0.06569, 135:-0.05359, 134:-0.03966, 133: 0.04790, 132: 0.03691, 131:-0.27304, 130:-0.27631, 129:-0.56265,
                128:-0.29304, 127: 0.05644, 126:-0.11651, 125:-0.08044, 124: 0.18182, 123:-0.02820, 122:-0.19292, 121:-0.26176,
                120:-0.25230, 119:-0.15407, 118: 0.13672, 117: 0.20615, 116: 0.15109, 115: 0.43073, 114: 0.42015, 113: 0.14231,
                112:-0.20805, 111:-0.32729, 110:-0.27687, 109:-0.10666, 108: 0.11112, 107:-0.01079, 106: 0.31854, 105: 0.37702,
                104: 0.41090, 103: 0.21313, 102:-0.21949, 101:-0.23367, 100:-0.10874,  99: 0.10758,  98:-0.05361,  97: 0.09074,
                 96: 0.35837,  95: 0.32693,  94: 0.11857,  93:-0.21567,  92:-0.36444,  91:-0.24417,  90: 0.13585,  89:-0.04178,
                 88: 0.14411,  87: 0.10498,  86: 0.03464,  85: 0.03292,  84: 0.15484,  83:-0.09370,  82:-0.13628,  81:-0.10087,
                 80: 0.42762,  79: 0.35880,  78: 0.15085,  77: 0.11605,  76: 0.11584,  75: 0.17239,  74:-0.24080,  73:-0.02000,
                 72:-0.13990,  71: 0.02967,  70: 0.37571,  69: 0.27415,  68: 0.17100,  67:-0.06497,  66:-0.00273,  65: 0.09212,
                 64:-0.03936,  63: 0.05536,  62:-0.01479,  61: 0.14806,  60: 0.11771,  59: 0.32700,  58:-0.13022,  57:-0.03092,
                 56: 0.17264,  55: 0.16370,  54:-0.05250,  53:-0.04044,  52: 0.10532,  51: 0.26498,  50: 0.21773,  49: 0.19716,
                 48: 0.01712,  47: 0.02009,  46:-0.00801,  45: 0.07969,  44:-0.03674,  43:-0.04900,  42: 0.01486,  41: 0.08127,
                 40: 0.27954,  39: 0.10468,  38: 0.06753,  37: 0.03908,  36: 0.14380,  35:-0.10412,  34: 0.03602,  33: 0.04062,
                 32: 0.03052,  31: 0.05895,  30:-0.01628,  29: 0.03571,  28: 0.12783,  27:-0.03152,  26: 0.03792,  25:-0.05536,
                 24: 0.07887,  23: 0.22924,  22: 0.14432,  21: 0.11601,  20:-0.01002,  19:-0.31398,  18:-0.16054,  17:-0.29227,
                 16:-0.00286,  15: 0.15654,  14: 0.14370,  13: 0.05464,  12: 0.26122,  11: 0.08113,  10:-0.12408,   9:-0.14274,
                  8:-0.00139,   7:-0.11819,   6: 0.10270,   5:-0.02916,   4: 0.01587,   3: 0.31886,   2:-0.12271,   1:-0.08187
   180 |      | 160:-0.30169, 159:-0.00967, 158: 0.06290, 157:-0.05733, 156: 0.09085, 155: 0.07135, 154: 0.16122, 153:-0.19022,
                152:-0.26186, 151:-0.15315, 150:-0.07914, 149: 0.37955, 148: 0.04375, 147: 0.18765, 146: 0.11118, 145:-0.06771,
                144: 0.11450, 143:-0.00962, 142: 0.18424, 141:-0.13710, 140: 0.60951, 139: 0.12459, 138: 0.07767, 137:-0.14282,
                136: 0.09564, 135:-0.25523, 134:-0.05193, 133:-0.02561, 132:-0.05145, 131: 0.41443, 130: 0.14041, 129: 0.27419,
                128:-0.16668, 127:-0.16478, 126:-0.45357, 125:-0.40695, 124:-0.14236, 123:-0.08652, 122: 0.14052, 121: 0.66287,
                120: 0.32176, 119: 0.13483, 118:-0.01781, 117:-0.60562, 116:-0.55270, 115:-0.57703, 114:-0.42097, 113: 0.02187,
                112: 0.12069, 111: 0.30145, 110: 0.24875, 109: 0.26253, 108: 0.07163, 107:-0.30283, 106:-0.12715, 105:-0.33577,
                104:-0.40627, 103:-0.11644, 102:-0.19881, 101: 0.02248, 100:-0.24062,  99: 0.40397,  98: 0.04835,  97:-0.15766,
                 96: 0.02900,  95:-0.12124,  94:-0.15013,  93:-0.26153,  92:-0.16273,  91:-0.49238,  90:-0.49893,  89:-0.43835,
                 88:-0.35410,  87:-0.01936,  86: 0.16872,  85:-0.16812,  84:-0.02499,  83:-0.26165,  82:-0.33000,  81:-0.37552,
                 80:-0.62424,  79:-0.13309,  78:-0.17770,  77:-0.10389,  76: 0.32963,  75: 0.10502,  74:-0.13163,  73:-0.29236,
                 72:-0.29603,  71:-0.66832,  70:-0.32581,  69:-0.10094,  68: 0.08689,  67: 0.06772,  66: 0.21709,  65:-0.08301,
                 64:-0.19770,  63:-0.24939,  62:-0.37442,  61:-0.28397,  60:-0.47684,  59: 0.50941,  58: 0.18934,  57:-0.02722,
                 56: 0.45779,  55: 0.00745,  54:-0.29024,  53:-0.19340,  52:-0.09505,  51:-0.01134,  50: 0.15607,  49: 0.23916,
                 48: 0.26489,  47:-0.17766,  46:-0.04789,  45:-0.07254,  44:-0.44819,  43:-0.07262,  42: 0.02692,  41: 0.05514,
                 40: 0.11616,  39: 0.29015,  38: 0.14128,  37:-0.01498,  36: 0.08731,  35:-0.09395,  34: 0.20140,  33: 0.19861,
                 32: 0.02097,  31: 0.14351,  30:-0.11829,  29: 0.05639,  28:-0.07654,  27: 0.47483,  26: 0.01650,  25:-0.01277,
                 24:-0.06592,  23:-0.02695,  22: 0.11321,  21:-0.01087,  20:-0.30394,  19:-0.01930,  18:-0.00570,  17: 0.15995,
                 16: 0.15713,  15:-0.02183,  14: 0.06290,  13: 0.12856,  12: 0.00889,  11:-0.16332,  10:-0.46082,   9:-0.08640,
                  8: 0.05572,   7:-0.15890,   6: 0.02521,   5:-0.05778,   4: 0.15215,   3: 0.42617,   2: 0.39852,   1:-0.39989
   181 |      | 160: 0.22209, 159:-0.12859, 158:-0.18049, 157: 0.05030, 156: 0.03579, 155:-0.09431, 154: 0.21472, 153:-0.23000,
                152: 0.01213, 151:-0.05135, 150: 0.04852, 149:-0.33333, 148:-0.22605, 147: 0.10499, 146:-0.17991, 145: 0.02662,
                144:-0.11885, 143: 0.04521, 142: 0.07259, 141: 0.01454, 140:-0.13115, 139:-0.05084, 138: 0.01060, 137:-0.30749,
                136: 0.02042, 135:-0.14246, 134:-0.06881, 133:-0.17805, 132:-0.09756, 131:-0.05577, 130:-0.17866, 129:-0.30214,
                128:-0.06884, 127:-0.18056, 126:-0.16251, 125:-0.23992, 124:-0.19685, 123:-0.04007, 122:-0.17883, 121:-0.36382,
                120:-0.21600, 119: 0.06026, 118: 0.08465, 117:-0.30083, 116:-0.30342, 115:-0.30733, 114:-0.35496, 113:-0.21314,
                112:-0.74982, 111:-0.21570, 110:-0.26387, 109:-0.15959, 108:-0.05030, 107:-0.02998, 106:-0.52879, 105: 0.16479,
                104:-0.02509, 103:-0.19926, 102:-0.58397, 101:-0.30170, 100: 0.35549,  99: 0.02904,  98:-0.04113,  97:-0.10356,
                 96: 0.10136,  95: 0.48970,  94:-0.04340,  93:-0.23271,  92:-0.38463,  91:-0.24418,  90: 0.21001,  89: 0.05778,
                 88: 0.05359,  87: 0.09701,  86: 0.19090,  85: 0.70847,  84: 0.13462,  83:-0.31492,  82:-0.35855,  81:-0.10904,
                 80: 0.29335,  79: 0.19207,  78: 0.37539,  77: 0.06432,  76: 0.24664,  75: 0.44881,  74:-0.04494,  73: 0.05291,
                 72:-0.12142,  71: 0.07310,  70:-0.16515,  69: 0.00911,  68: 0.09636,  67: 0.15137,  66:-0.01442,  65: 0.12990,
                 64:-0.09904,  63:-0.36635,  62:-0.22147,  61:-0.23372,  60: 0.09783,  59: 0.11829,  58: 0.19587,  57: 0.10277,
                 56:-0.16392,  55:-0.56642,  54:-0.53571,  53:-0.30788,  52:-0.41776,  51:-0.27725,  50: 0.01814,  49: 0.30891,
                 48: 0.26487,  47: 0.12826,  46: 0.04179,  45:-0.39796,  44:-0.28184,  43:-0.11751,  42:-0.37252,  41:-0.05940,
                 40: 0.14288,  39: 0.04191,  38: 0.07730,  37: 0.22661,  36:-0.08951,  35:-0.22646,  34: 0.02843,  33:-0.03849,
                 32:-0.26375,  31:-0.13298,  30:-0.04510,  29:-0.28412,  28:-0.13875,  27: 0.07959,  26: 0.83451,  25: 0.14980,
                 24: 0.19530,  23: 0.18895,  22: 0.19303,  21: 0.22784,  20:-0.23581,  19:-0.27909,  18: 0.00552,  17: 0.08249,
                 16: 0.42307,  15: 0.21184,  14: 0.20442,  13: 0.22644,  12: 0.50472,  11: 0.29173,  10:-0.29665,   9:-0.22895,
                  8:-0.15008,   7: 0.12622,   6: 0.12948,   5: 0.26317,   4: 0.04456,   3: 0.11578,   2:-0.60656,   1: 0.03615
   182 |      | 160: 0.02142, 159:-0.36636, 158:-0.27060, 157: 0.37852, 156: 0.08513, 155:-0.06784, 154:-0.08949, 153:-0.01525,
                152:-0.07415, 151:-0.20331, 150:-0.39163, 149:-0.19689, 148: 0.09596, 147: 0.13379, 146:-0.14129, 145:-0.14477,
                144:-0.14018, 143:-0.08207, 142:-0.18633, 141:-0.26642, 140: 0.56955, 139: 0.17757, 138:-0.41669, 137:-0.56319,
                136:-0.41693, 135:-0.62892, 134: 0.04626, 133:-0.26363, 132:-0.10827, 131: 0.40464, 130:-0.18526, 129:-0.29436,
                128:-0.56948, 127:-0.16818, 126:-0.40264, 125:-0.04164, 124: 0.26518, 123: 0.47792, 122: 0.68609, 121: 0.75215,
                120:-0.04242, 119:-0.34705, 118:-0.06553, 117:-0.23249, 116:-0.03911, 115: 0.10280, 114: 0.57772, 113: 0.67110,
                112: 0.23072, 111: 0.07733, 110:-0.39860, 109:-0.35572, 108:-0.19387, 107:-0.36436, 106:-0.42682, 105:-0.02730,
                104: 0.16632, 103: 0.48343, 102: 0.19657, 101: 0.10330, 100:-0.23777,  99:-0.18361,  98:-0.30752,  97: 0.16899,
                 96: 0.24000,  95: 0.14660,  94: 0.10025,  93:-0.21633,  92: 0.01846,  91:-0.49567,  90:-0.19678,  89:-0.26026,
                 88: 0.54540,  87: 0.38263,  86: 0.27817,  85: 0.54420,  84: 0.01091,  83: 0.00813,  82:-0.25280,  81:-0.60487,
                 80:-0.24972,  79:-0.05407,  78: 0.24693,  77: 0.27240,  76: 0.41209,  75: 0.44278,  74: 0.00602,  73:-0.57314,
                 72:-0.48764,  71:-0.56107,  70:-0.24550,  69:-0.23423,  68: 0.26534,  67:-0.09276,  66: 0.19771,  65: 0.24521,
                 64:-0.06468,  63:-0.69507,  62:-0.73809,  61:-0.30476,  60:-0.30462,  59: 0.64793,  58: 0.37167,  57: 0.83642,
                 56: 0.16747,  55:-0.52943,  54:-0.08764,  53:-0.11312,  52:-0.67718,  51: 0.05018,  50: 0.59519,  49: 1.10814,
                 48: 0.59589,  47:-0.08562,  46: 0.20685,  45:-0.24691,  44:-0.60326,  43:-0.15595,  42: 0.06281,  41:-0.09506,
                 40: 0.54845,  39: 0.22837,  38: 0.23511,  37: 0.13482,  36: 0.07869,  35: 0.06144,  34: 0.06329,  33: 0.00892,
                 32: 0.05277,  31:-0.05603,  30:-0.33987,  29:-0.43858,  28:-0.76225,  27: 0.01435,  26: 0.29159,  25:-0.01606,
                 24: 0.19159,  23: 0.22305,  22: 0.32899,  21: 0.29316,  20:-0.23903,  19:-0.75143,  18:-0.24467,  17: 0.19352,
                 16: 0.83780,  15: 0.05696,  14: 0.51051,  13: 0.53715,  12: 0.38351,  11: 0.24439,  10:-0.37665,   9:-0.52482,
                  8:-0.27249,   7: 0.06157,   6: 0.03068,   5: 0.06403,   4: 0.33872,   3:-0.29277,   2:-0.63661,   1:-0.34019
   183 |      | 160: 0.11580, 159: 0.01871, 158: 0.04421, 157:-0.01256, 156: 0.04512, 155:-0.24969, 154:-0.53805, 153:-0.20721,
                152:-0.29643, 151:-0.26412, 150: 0.08230, 149: 0.04629, 148: 0.04046, 147: 0.04629, 146:-0.14346, 145: 0.01894,
                144:-0.31298, 143:-0.22855, 142:-0.30366, 141:-0.22262, 140: 0.23728, 139: 0.00054, 138: 0.18122, 137: 0.40606,
                136:-0.15148, 135:-0.35371, 134:-0.14591, 133: 0.01615, 132:-0.06600, 131: 0.11807, 130: 0.15916, 129: 0.27331,
                128: 0.13993, 127:-0.03514, 126: 0.01783, 125: 0.17113, 124: 0.33375, 123: 0.01652, 122: 0.00176, 121: 0.18349,
                120: 0.30866, 119: 0.15052, 118: 0.02112, 117:-0.01261, 116: 0.15009, 115: 0.31715, 114: 0.23895, 113: 0.21821,
                112: 0.42781, 111: 0.30916, 110:-0.13526, 109: 0.19833, 108:-0.09613, 107:-0.00171, 106: 0.07251, 105: 0.17481,
                104: 0.15035, 103: 0.07406, 102: 0.20743, 101: 0.43644, 100: 0.02753,  99:-0.17866,  98:-0.04859,  97: 0.04087,
                 96: 0.01111,  95: 0.39321,  94: 0.23286,  93: 0.12618,  92: 0.16749,  91: 0.20773,  90:-0.16208,  89: 0.03799,
                 88: 0.34129,  87: 0.23912,  86: 0.17110,  85: 0.28931,  84: 0.04947,  83: 0.00930,  82:-0.10495,  81:-0.01362,
                 80:-0.33325,  79:-0.11982,  78: 0.01833,  77: 0.55152,  76: 0.16570,  75: 0.16156,  74: 0.06500,  73: 0.20550,
                 72:-0.03491,  71:-0.14975,  70:-0.29071,  69:-0.07211,  68: 0.18004,  67: 0.09404,  66: 0.22680,  65: 0.00448,
                 64: 0.29655,  63: 0.32485,  62: 0.01550,  61:-0.01706,  60:-0.17658,  59:-0.08479,  58:-0.08433,  57: 0.33779,
                 56: 0.11985,  55: 0.14415,  54: 0.23592,  53: 0.24209,  52:-0.04140,  51: 0.03213,  50:-0.25922,  49:-0.39705,
                 48:-0.03420,  47: 0.14530,  46: 0.03431,  45:-0.00440,  44:-0.08990,  43: 0.02648,  42:-0.08500,  41: 0.03443,
                 40:-0.47531,  39:-0.19292,  38: 0.05303,  37:-0.05121,  36: 0.04856,  35:-0.21421,  34:-0.22150,  33:-0.11793,
                 32: 0.03847,  31: 0.08292,  30:-0.11293,  29:-0.13264,  28: 0.06860,  27: 0.02093,  26:-0.28790,  25:-0.13892,
                 24:-0.11283,  23:-0.03764,  22: 0.03961,  21: 0.21393,  20: 0.12206,  19:-0.16528,  18:-0.29309,  17:-0.02073,
                 16:-0.14084,  15:-0.14725,  14: 0.00433,  13: 0.21051,  12: 0.21177,  11: 0.15466,  10: 0.14084,   9:-0.15461,
                  8:-0.25456,   7: 0.00400,   6:-0.10908,   5:-0.10344,   4:-0.03653,   3:-0.16692,   2: 0.06697,   1: 0.22005
   184 |      | 160:-0.27382, 159: 0.09208, 158: 0.15549, 157: 0.21079, 156:-0.19248, 155: 0.40805, 154: 0.15817, 153: 0.24085,
                152:-0.22827, 151:-0.31892, 150:-0.02897, 149:-0.05818, 148:-0.03218, 147:-0.33158, 146: 0.02736, 145: 0.01716,
                144: 0.10359, 143: 0.08356, 142:-0.03305, 141:-0.21772, 140:-0.21870, 139:-0.04341, 138: 0.32859, 137:-0.13308,
                136: 0.23268, 135: 0.29940, 134: 0.11994, 133: 0.11170, 132:-0.16711, 131: 0.08717, 130:-0.28514, 129:-0.24259,
                128: 0.23145, 127: 0.02617, 126: 0.56463, 125: 0.26277, 124: 0.23083, 123:-0.18559, 122:-0.56329, 121:-0.07495,
                120:-0.06753, 119: 0.00712, 118:-0.00786, 117:-0.30985, 116:-0.11809, 115:-0.09573, 114:-0.13038, 113:-0.44231,
                112:-0.65092, 111:-0.34352, 110:-0.06530, 109:-0.02298, 108:-0.16249, 107:-0.41167, 106:-0.30352, 105:-0.08984,
                104:-0.09025, 103:-0.66839, 102:-0.79824, 101:-0.40741, 100:-0.08542,  99:-0.00283,  98: 0.00038,  97:-0.03006,
                 96:-0.27329,  95:-0.10555,  94: 0.06416,  93:-0.11361,  92:-0.57902,  91:-0.45575,  90:-0.13271,  89:-0.26302,
                 88:-0.48226,  87: 0.09884,  86:-0.27840,  85:-0.10611,  84:-0.07126,  83: 0.23027,  82: 0.08243,  81:-0.30983,
                 80:-0.25617,  79: 0.10145,  78:-0.36476,  77:-0.46133,  76: 0.02208,  75: 0.11289,  74:-0.02676,  73:-0.00397,
                 72:-0.05609,  71:-0.06604,  70:-0.33731,  69:-0.18217,  68:-0.06773,  67:-0.09822,  66: 0.05823,  65: 0.20093,
                 64: 0.06474,  63: 0.21571,  62: 0.09079,  61: 0.07394,  60:-0.68554,  59:-0.31763,  58:-0.10546,  57: 0.03446,
                 56: 0.19611,  55: 0.25744,  54: 0.11160,  53: 0.36695,  52: 0.12190,  51:-0.20916,  50:-0.77764,  49:-0.68670,
                 48:-0.36370,  47: 0.11216,  46: 0.23390,  45:-0.03411,  44: 0.03298,  43: 0.24441,  42: 0.03506,  41:-0.11377,
                 40:-0.44452,  39:-0.23244,  38:-0.05533,  37: 0.35947,  36: 0.13984,  35: 0.36805,  34: 0.43387,  33: 0.22169,
                 32:-0.19850,  31:-0.28263,  30:-0.16077,  29:-0.07132,  28: 0.11910,  27: 0.04700,  26: 0.21461,  25: 0.16922,
                 24: 0.32430,  23: 0.07405,  22:-0.20204,  21:-0.23990,  20: 0.02257,  19:-0.02658,  18: 0.04962,  17: 0.22457,
                 16:-0.03736,  15: 0.17368,  14:-0.04168,  13:-0.10375,  12: 0.01258,  11: 0.06862,  10: 0.16975,   9:-0.19071,
                  8: 0.04221,   7: 0.07243,   6: 0.19857,   5: 0.06326,   4:-0.31960,   3:-0.15509,   2: 0.38048,   1: 0.11470
   185 |      | 160: 0.18084, 159: 0.12678, 158:-0.12295, 157: 0.42615, 156:-0.15554, 155:-0.31932, 154: 0.05532, 153:-0.05184,
                152: 0.45857, 151: 0.34537, 150: 0.32174, 149: 0.30944, 148: 0.13331, 147:-0.11354, 146: 0.13003, 145:-0.01728,
                144: 0.12746, 143: 0.13290, 142: 0.21183, 141: 0.27275, 140:-0.00625, 139: 0.47461, 138: 0.24588, 137: 0.30012,
                136: 0.05404, 135: 0.00965, 134:-0.28037, 133: 0.20821, 132:-0.00510, 131: 0.21106, 130: 0.34767, 129: 0.55269,
                128: 0.20577, 127:-0.10182, 126: 0.07201, 125: 0.09394, 124: 0.12099, 123: 0.04538, 122: 0.16994, 121: 0.08842,
                120: 0.43076, 119: 0.42407, 118:-0.00834, 117:-0.32454, 116: 0.03190, 115:-0.07459, 114:-0.27000, 113: 0.13790,
                112:-0.10642, 111:-0.03088, 110: 0.05636, 109:-0.08745, 108:-0.18958, 107: 0.04903, 106:-0.13251, 105:-0.05996,
                104:-0.20758, 103:-0.07862, 102:-0.01008, 101:-0.06063, 100: 0.18448,  99:-0.26145,  98:-0.05039,  97:-0.15709,
                 96:-0.15101,  95: 0.19479,  94: 0.03805,  93:-0.03911,  92: 0.15739,  91: 0.24218,  90:-0.08146,  89:-0.08015,
                 88:-0.09940,  87:-0.06958,  86: 0.32850,  85: 0.17098,  84:-0.02580,  83:-0.20107,  82:-0.04560,  81: 0.17318,
                 80:-0.42557,  79:-0.41139,  78: 0.24585,  77:-0.06079,  76:-0.19272,  75:-0.32319,  74: 0.01316,  73: 0.19686,
                 72:-0.02604,  71: 0.23133,  70:-0.64716,  69:-0.04738,  68: 0.01496,  67: 0.02684,  66: 0.06155,  65:-0.04875,
                 64:-0.19071,  63:-0.12413,  62:-0.16295,  61:-0.19935,  60:-0.81355,  59:-0.48929,  58: 0.04111,  57:-0.16496,
                 56:-0.36147,  55:-0.34776,  54:-0.25295,  53:-0.10867,  52:-0.22343,  51:-0.22476,  50:-0.89874,  49:-0.80221,
                 48:-0.26074,  47:-0.42475,  46: 0.15401,  45:-0.15903,  44:-0.12925,  43:-0.19279,  42:-0.27400,  41:-0.04391,
                 40:-0.72503,  39:-0.26188,  38: 0.05692,  37:-0.22254,  36: 0.20032,  35: 0.04567,  34:-0.01689,  33: 0.00940,
                 32:-0.01534,  31:-0.15235,  30:-0.02220,  29: 0.04275,  28: 0.03959,  27:-0.03987,  26: 0.04305,  25:-0.03903,
                 24: 0.06814,  23:-0.04872,  22:-0.04682,  21: 0.08844,  20: 0.32487,  19: 0.66528,  18:-0.04579,  17:-0.09116,
                 16:-0.01883,  15: 0.29455,  14: 0.24030,  13:-0.05030,  12: 0.06978,  11: 0.08205,  10: 0.61224,   9: 0.21835,
                  8: 0.04914,   7:-0.21608,   6:-0.15228,   5: 0.10914,   4:-0.00450,   3:-0.33155,   2: 0.07058,   1: 0.25546
   186 |      | 160: 0.01844, 159: 0.11999, 158: 0.24088, 157: 0.42477, 156: 0.03468, 155: 0.19067, 154: 0.01092, 153:-0.14715,
                152: 0.15422, 151: 0.02030, 150: 0.14387, 149:-0.01879, 148: 0.07300, 147: 0.22203, 146: 0.22210, 145: 0.03970,
                144: 0.15096, 143: 0.08404, 142: 0.23819, 141: 0.25588, 140:-0.27053, 139: 0.05055, 138: 0.27933, 137:-0.09325,
                136: 0.07289, 135: 0.07300, 134:-0.11313, 133: 0.30020, 132: 0.24056, 131: 0.19425, 130:-0.40264, 129:-0.15130,
                128:-0.04418, 127:-0.02662, 126:-0.03819, 125: 0.00515, 124: 0.05419, 123: 0.01250, 122:-0.05681, 121:-0.00813,
                120:-0.50452, 119:-0.14299, 118:-0.38948, 117:-0.68593, 116:-0.50168, 115:-0.16017, 114:-0.16744, 113:-0.33880,
                112: 0.02708, 111:-0.22100, 110:-0.10278, 109:-0.11848, 108:-0.08718, 107:-0.09516, 106: 0.03234, 105:-0.25113,
                104: 0.04472, 103:-0.19979, 102:-0.45161, 101:-0.41884, 100:-0.63378,  99:-0.19181,  98:-0.09854,  97: 0.27269,
                 96: 0.20804,  95:-0.38485,  94:-0.48839,  93:-0.21887,  92:-0.36781,  91:-0.32413,  90:-0.15812,  89:-0.46787,
                 88:-0.44782,  87: 0.11606,  86: 0.01542,  85:-0.51358,  84:-0.32587,  83:-0.48332,  82:-0.32129,  81:-0.10951,
                 80:-0.34220,  79:-0.31640,  78: 0.01591,  77:-0.12666,  76:-0.03531,  75:-0.20287,  74:-0.51134,  73:-0.23502,
                 72:-0.16471,  71:-0.23546,  70:-0.35142,  69: 0.40829,  68: 0.07984,  67:-0.18280,  66:-0.11549,  65:-0.04869,
                 64: 0.03025,  63: 0.02085,  62:-0.02212,  61:-0.11508,  60:-0.69750,  59:-0.34023,  58:-0.21690,  57:-0.34840,
                 56:-0.02805,  55: 0.15229,  54: 0.06099,  53:-0.03845,  52: 0.60588,  51:-0.04979,  50:-0.54316,  49:-0.46321,
                 48:-0.41680,  47:-0.23775,  46: 0.23505,  45:-0.01972,  44: 0.13948,  43: 0.05589,  42:-0.08503,  41: 0.21603,
                 40:-0.04629,  39:-0.48749,  38:-0.16636,  37:-0.15566,  36:-0.09221,  35: 0.07575,  34: 0.53426,  33: 0.33923,
                 32: 0.22593,  31:-0.08465,  30:-0.07430,  29: 0.49997,  28: 0.71840,  27:-0.00648,  26:-0.15681,  25: 0.34289,
                 24: 0.03548,  23: 0.10667,  22: 0.30853,  21: 0.15704,  20: 0.39384,  19: 0.54532,  18: 0.00419,  17: 0.11252,
                 16: 0.00434,  15: 0.46110,  14: 0.08082,  13: 0.20826,  12: 0.29032,  11:-0.07481,  10: 0.15122,   9: 0.08476,
                  8: 0.03123,   7:-0.16574,   6: 0.05991,   5:-0.12200,   4:-0.06552,   3: 0.58288,   2: 0.51043,   1:-0.09463
   187 |      | 160:-0.21893, 159: 0.05846, 158: 0.09177, 157:-0.09102, 156:-0.11733, 155: 0.25729, 154: 0.32193, 153: 0.29972,
                152: 0.17230, 151: 0.26784, 150: 0.24004, 149: 0.04737, 148:-0.02092, 147: 0.06381, 146: 0.39843, 145:-0.03598,
                144: 0.52681, 143: 0.47383, 142:-0.01603, 141: 0.47814, 140: 0.02097, 139:-0.14716, 138: 0.21424, 137: 0.11312,
                136: 0.03418, 135: 0.18120, 134:-0.21831, 133: 0.04626, 132:-0.28258, 131: 0.62194, 130: 0.12618, 129:-0.07276,
                128: 0.28448, 127:-0.03000, 126: 0.31177, 125:-0.35803, 124:-0.62073, 123:-0.34994, 122:-0.65211, 121: 0.19183,
                120: 0.36679, 119: 0.26051, 118: 0.22035, 117:-0.27151, 116:-0.68941, 115:-0.67557, 114:-0.93195, 113:-0.78991,
                112:-1.01212, 111:-0.32622, 110: 0.15982, 109:-0.09569, 108:-0.34085, 107:-0.23641, 106:-0.16678, 105:-0.00231,
                104:-0.16188, 103:-0.71824, 102:-1.17203, 101:-0.56425, 100: 0.22244,  99:-0.08834,  98:-0.32786,  97:-0.02678,
                 96:-0.06349,  95: 0.18435,  94:-0.52409,  93:-0.31917,  92:-0.72720,  91:-0.58279,  90:-0.21770,  89: 0.10880,
                 88: 0.00852,  87: 0.07111,  86: 0.06732,  85:-0.15126,  84: 0.35436,  83:-0.10744,  82: 0.07802,  81:-0.29913,
                 80:-0.38423,  79: 0.17567,  78: 0.30461,  77:-0.32111,  76: 0.07704,  75:-0.46825,  74: 0.18655,  73: 0.26846,
                 72: 0.13578,  71: 0.07833,  70:-0.12801,  69:-0.04417,  68: 0.04526,  67:-0.03027,  66:-0.02492,  65: 0.18852,
                 64:-0.07007,  63: 0.00804,  62: 0.13961,  61: 0.07796,  60:-0.29318,  59:-0.08817,  58: 0.20942,  57:-0.11556,
                 56:-0.17453,  55: 0.07801,  54:-0.06250,  53: 0.23196,  52:-0.05541,  51:-0.20523,  50:-0.35217,  49:-0.37294,
                 48:-0.14579,  47: 0.26288,  46:-0.02464,  45: 0.07998,  44:-0.12851,  43:-0.02142,  42:-0.01721,  41: 0.25909,
                 40:-0.13160,  39:-0.16799,  38: 0.00068,  37: 0.35088,  36: 0.05398,  35: 0.05673,  34: 0.19678,  33: 0.15257,
                 32: 0.05569,  31:-0.10491,  30: 0.18641,  29:-0.03337,  28: 0.13763,  27: 0.08483,  26: 0.18867,  25:-0.09437,
                 24: 0.26508,  23: 0.30027,  22:-0.02226,  21:-0.08904,  20: 0.07458,  19: 0.22479,  18:-0.01540,  17:-0.09403,
                 16: 0.09090,  15: 0.17922,  14:-0.08638,  13:-0.18293,  12: 0.05745,  11:-0.02640,  10:-0.09874,   9: 0.03821,
                  8: 0.27753,   7: 0.05033,   6:-0.04731,   5: 0.59845,   4: 0.04559,   3: 0.04831,   2: 0.12494,   1:-0.00136
   188 |      | 160: 0.09790, 159: 0.00182, 158: 0.16684, 157: 0.48917, 156:-0.10202, 155: 0.15000, 154:-0.06347, 153: 0.08634,
                152: 0.04116, 151: 0.25803, 150: 0.05816, 149: 0.25725, 148:-0.04106, 147: 0.12818, 146:-0.06510, 145:-0.14795,
                144: 0.00514, 143:-0.08646, 142: 0.26359, 141: 0.27806, 140:-0.20134, 139: 0.15602, 138: 0.35510, 137:-0.00063,
                136:-0.21735, 135:-0.15823, 134:-0.19895, 133: 0.22391, 132: 0.11658, 131: 0.01198, 130: 0.11119, 129: 0.26188,
                128:-0.05973, 127:-0.13207, 126:-0.01430, 125:-0.01563, 124: 0.25174, 123: 0.13863, 122:-0.08430, 121: 0.01075,
                120: 0.27878, 119: 0.08939, 118:-0.18076, 117:-0.10525, 116: 0.40096, 115: 0.39311, 114: 0.18272, 113: 0.17929,
                112:-0.24214, 111:-0.05840, 110:-0.09503, 109:-0.00010, 108:-0.14043, 107: 0.01511, 106: 0.27212, 105: 0.31605,
                104: 0.35752, 103: 0.08229, 102:-0.25390, 101: 0.08998, 100:-0.29875,  99:-0.12385,  98: 0.10730,  97: 0.42236,
                 96: 0.09329,  95: 0.42752,  94: 0.33599,  93: 0.04776,  92:-0.13501,  91: 0.10373,  90:-0.23449,  89:-0.11486,
                 88: 0.18839,  87: 0.40180,  86: 0.28745,  85: 0.28693,  84: 0.11945,  83:-0.09640,  82:-0.16666,  81:-0.06464,
                 80:-0.05862,  79:-0.00190,  78: 0.11719,  77: 0.53408,  76: 0.48416,  75: 0.44931,  74: 0.07010,  73:-0.17356,
                 72:-0.19056,  71: 0.00663,  70:-0.14708,  69: 0.24495,  68: 0.36605,  67: 0.37512,  66: 0.13266,  65: 0.26064,
                 64:-0.04388,  63:-0.08911,  62:-0.01437,  61: 0.10036,  60:-0.09665,  59: 0.16261,  58: 0.18127,  57:-0.00844,
                 56:-0.07138,  55: 0.04635,  54:-0.07586,  53: 0.07052,  52: 0.11289,  51: 0.21919,  50:-0.18746,  49:-0.01615,
                 48:-0.07783,  47:-0.13636,  46:-0.29559,  45: 0.17848,  44:-0.07848,  43:-0.13674,  42: 0.04037,  41: 0.04384,
                 40:-0.03486,  39:-0.04760,  38:-0.31533,  37:-0.13723,  36:-0.02647,  35:-0.05330,  34: 0.14090,  33: 0.00324,
                 32:-0.24476,  31:-0.18789,  30: 0.02437,  29: 0.14505,  28:-0.11109,  27: 0.00001,  26:-0.28752,  25: 0.01928,
                 24:-0.26039,  23:-0.51825,  22:-0.19175,  21: 0.00114,  20: 0.15619,  19: 0.08368,  18:-0.15499,  17:-0.04575,
                 16:-0.46812,  15:-0.20051,  14:-0.25156,  13:-0.27674,  12:-0.15967,  11:-0.03722,  10: 0.34088,   9: 0.02604,
                  8:-0.05858,   7:-0.00289,   6: 0.06127,   5: 0.01810,   4: 0.07569,   3: 0.03522,   2:-0.02155,   1: 0.04799
   189 |      | 160: 0.20128, 159: 0.04314, 158: 0.12295, 157:-0.14705, 156: 0.10144, 155:-0.09670, 154:-0.04461, 153: 0.12717,
                152: 0.21599, 151: 0.13970, 150: 0.02596, 149: 0.10200, 148: 0.02720, 147: 0.18969, 146: 0.25242, 145:-0.09100,
                144:-0.06881, 143:-0.08310, 142: 0.06983, 141:-0.11648, 140: 0.20230, 139:-0.00771, 138:-0.01580, 137: 0.05709,
                136: 0.06034, 135:-0.13883, 134: 0.08450, 133:-0.03281, 132: 0.02683, 131:-0.27488, 130: 0.07570, 129:-0.04850,
                128: 0.02114, 127:-0.08878, 126:-0.23131, 125:-0.20339, 124: 0.08317, 123: 0.06439, 122: 0.16819, 121: 0.03479,
                120: 0.08728, 119: 0.09033, 118: 0.19148, 117: 0.21116, 116:-0.04473, 115:-0.00286, 114:-0.05231, 113: 0.03405,
                112: 0.45151, 111: 0.26828, 110:-0.04529, 109: 0.06394, 108: 0.28531, 107: 0.34355, 106: 0.20946, 105: 0.05000,
                104:-0.02516, 103: 0.29625, 102: 0.55174, 101: 0.27523, 100:-0.04389,  99: 0.10369,  98: 0.21242,  97: 0.08743,
                 96: 0.17765,  95:-0.04686,  94:-0.05993,  93: 0.02043,  92: 0.48193,  91: 0.20775,  90: 0.13081,  89:-0.00505,
                 88:-0.02801,  87:-0.09333,  86: 0.25587,  85: 0.04891,  84: 0.16151,  83: 0.00702,  82: 0.08686,  81: 0.30090,
                 80: 0.26285,  79: 0.23625,  78: 0.14086,  77: 0.00217,  76:-0.08318,  75:-0.12858,  74: 0.02221,  73:-0.06654,
                 72: 0.11817,  71:-0.02882,  70: 0.18926,  69: 0.17494,  68:-0.00255,  67: 0.05808,  66: 0.00042,  65:-0.07800,
                 64:-0.09098,  63:-0.14573,  62: 0.05722,  61:-0.06897,  60: 0.53768,  59: 0.20786,  58: 0.01303,  57:-0.22845,
                 56:-0.07191,  55:-0.08344,  54:-0.01503,  53:-0.23347,  52:-0.09823,  51:-0.09007,  50: 0.44875,  49: 0.28946,
                 48: 0.23272,  47:-0.20534,  46: 0.00122,  45:-0.07944,  44: 0.11123,  43: 0.02694,  42: 0.00843,  41: 0.04047,
                 40: 0.09963,  39: 0.15008,  38:-0.19917,  37:-0.39031,  36: 0.00161,  35:-0.29935,  34:-0.14096,  33: 0.13221,
                 32: 0.09129,  31:-0.06575,  30:-0.05892,  29:-0.01159,  28:-0.07306,  27:-0.16350,  26:-0.03875,  25:-0.33718,
                 24:-0.18569,  23:-0.04319,  22:-0.07039,  21: 0.04480,  20:-0.27098,  19:-0.01389,  18:-0.11394,  17:-0.50604,
                 16:-0.04197,  15:-0.15394,  14:-0.09933,  13:-0.18635,  12:-0.09435,  11:-0.04411,  10:-0.32051,   9: 0.02612,
                  8: 0.01611,   7:-0.09837,   6:-0.16092,   5: 0.02443,   4: 0.12274,   3:-0.20412,   2:-0.41009,   1:-0.13782
   190 |      | 160: 0.11946, 159:-0.02049, 158:-0.22990, 157: 0.02910, 156:-0.09502, 155:-0.44160, 154:-0.70970, 153:-0.45938,
                152:-0.06882, 151:-0.11107, 150: 0.09040, 149: 0.03305, 148:-0.01465, 147:-0.41402, 146:-0.14136, 145: 0.12284,
                144:-0.29403, 143:-0.06124, 142: 0.00467, 141:-0.13517, 140:-0.25998, 139:-0.07906, 138: 0.25775, 137:-0.00306,
                136:-0.00844, 135: 0.15103, 134: 0.21425, 133: 0.44769, 132:-0.01164, 131: 0.10931, 130:-0.12097, 129: 0.02914,
                128: 0.37508, 127:-0.04562, 126: 0.19657, 125: 0.36287, 124: 0.14152, 123: 0.10804, 122: 0.07510, 121:-0.15241,
                120:-0.36755, 119:-0.24550, 118:-0.00743, 117:-0.23057, 116: 0.31976, 115: 0.14650, 114:-0.39762, 113:-0.01468,
                112:-0.05812, 111: 0.09020, 110:-0.16360, 109: 0.13662, 108: 0.34108, 107: 0.07649, 106: 0.08509, 105:-0.09800,
                104:-0.04846, 103: 0.17659, 102:-0.14495, 101:-0.17829, 100:-0.04772,  99: 0.08035,  98: 0.14349,  97: 0.07947,
                 96: 0.02043,  95: 0.12055,  94:-0.37768,  93: 0.21714,  92:-0.22091,  91: 0.21385,  90:-0.05463,  89:-0.04835,
                 88: 0.23802,  87: 0.12698,  86: 0.11806,  85: 0.08146,  84:-0.06559,  83: 0.07064,  82:-0.20126,  81:-0.02642,
                 80:-0.43959,  79:-0.21743,  78: 0.18548,  77: 0.02542,  76: 0.02364,  75: 0.16342,  74: 0.03749,  73:-0.01353,
                 72:-0.10674,  71: 0.29974,  70:-0.88531,  69:-0.21467,  68:-0.01013,  67:-0.31242,  66:-0.23976,  65: 0.05018,
                 64: 0.00475,  63:-0.06133,  62:-0.31724,  61:-0.13401,  60:-0.58257,  59:-0.63641,  58:-0.27245,  57:-0.16882,
                 56:-0.28043,  55:-0.36250,  54:-0.38790,  53:-0.39959,  52:-0.25568,  51:-0.02726,  50:-0.32892,  49:-0.24004,
                 48:-0.56861,  47:-0.32362,  46:-0.31929,  45:-0.52353,  44:-0.32833,  43:-0.20522,  42:-0.34673,  41:-0.18438,
                 40:-0.21789,  39:-0.01330,  38: 0.03866,  37: 0.12669,  36:-0.27798,  35:-0.14666,  34:-0.07011,  33:-0.09691,
                 32: 0.00624,  31:-0.31166,  30: 0.13297,  29: 0.28922,  28: 0.50061,  27: 0.15786,  26: 0.18479,  25: 0.28896,
                 24: 0.06133,  23: 0.09570,  22:-0.12147,  21:-0.09770,  20: 0.67042,  19: 0.38331,  18: 0.42084,  17: 0.45711,
                 16: 0.15567,  15: 0.44291,  14: 0.06579,  13: 0.42345,  12:-0.05817,  11: 0.15078,  10: 0.36329,   9: 0.03759,
                  8: 0.04960,   7: 0.04012,   6: 0.16335,   5:-0.14410,   4: 0.05134,   3: 0.00506,   2: 0.16521,   1: 0.35772
   191 |      | 190:-1.07023, 189: 0.18315, 188: 0.08359, 187: 1.06550, 186:-0.56923, 185: 0.09208, 184: 0.59795, 183: 0.20467,
                182:-0.50196, 181:-0.83846, 180:-0.33618, 179:-0.33436, 178: 0.55434, 177: 0.60171, 176:-0.23272, 175: 1.06200,
                174:-0.25730, 173: 0.82063, 172: 1.00689, 171: 0.17933, 170:-0.04430, 169:-1.13493, 168: 1.19213, 167:-0.16824,
                166: 1.00908, 165:-0.41462, 164:-1.39070, 163: 0.16529, 162: 0.62043, 161:-1.77298
   192 |      | 190:-0.63508, 189: 1.97874, 188: 0.01721, 187:-0.41396, 186:-0.79354, 185: 0.53508, 184:-2.04182, 183: 0.14785,
                182: 0.56910, 181: 0.65584, 180:-0.37420, 179: 0.28882, 178: 0.65200, 177:-0.52162, 176: 0.07700, 175: 0.10955,
                174: 0.99949, 173:-0.15811, 172:-1.44850, 171: 0.50755, 170: 0.43897, 169:-0.03215, 168: 0.12756, 167: 0.62182,
                166: 0.01176, 165:-0.94579, 164:-0.03457, 163: 0.34833, 162:-1.56282, 161: 0.84697
   193 |      | 190: 0.84184, 189:-0.63280, 188: 0.47958, 187:-0.72630, 186: 0.46313, 185: 1.00615, 184: 0.88674, 183: 1.19661,
                182: 0.56679, 181:-0.48102, 180: 0.39808, 179:-0.25137, 178: 0.85384, 177: 0.93084, 176: 0.25943, 175: 1.06207,
                174:-0.24795, 173: 0.28437, 172: 0.53730, 171: 0.26295, 170: 0.43963, 169: 0.54883, 168:-0.46920, 167:-1.02779,
                166:-1.33325, 165:-0.19454, 164: 0.80392, 163: 0.80839, 162: 0.67282, 161: 0.52960
   194 |      | 190: 0.35097, 189:-0.51175, 188: 0.87092, 187: 0.53928, 186: 0.08348, 185: 0.78626, 184: 0.28360, 183:-0.07195,
                182:-0.02070, 181: 0.29864, 180: 0.04448, 179:-0.18595, 178:-0.84207, 177:-1.36391, 176: 0.43807, 175: 1.00196,
                174:-1.47224, 173: 0.51737, 172: 0.28486, 171:-0.00956, 170: 0.27487, 169: 0.39866, 168:-0.31637, 167: 0.86929,
                166: 0.95772, 165:-1.08893, 164: 0.41751, 163: 1.00009, 162: 0.47112, 161: 0.23307
   195 |      | 190:-0.25168, 189: 0.13169, 188:-0.47067, 187:-0.22477, 186: 0.77226, 185: 0.53721, 184: 0.76357, 183:-0.15243,
                182:-0.20404, 181:-1.11388, 180: 1.05644, 179:-1.19644, 178:-0.05639, 177:-0.50685, 176:-0.81327, 175: 1.52936,
                174: 0.36607, 173: 0.80242, 172: 0.70923, 171: 0.72368, 170: 1.11205, 169: 1.17981, 168: 1.02753, 167: 0.26519,
                166:-0.73178, 165: 0.74428, 164: 0.31549, 163:-0.53803, 162: 0.72476, 161: 0.79931
   196 |      | 190:-1.30520, 189: 0.23504, 188:-0.12368, 187: 0.91327, 186:-0.98045, 185:-0.57247, 184: 0.21433, 183:-0.19827,
                182: 0.82577, 181: 0.91714, 180: 0.49490, 179: 0.14505, 178: 0.80063, 177: 1.83259, 176:-0.41012, 175: 0.19385,
                174: 0.31072, 173: 0.11684, 172: 0.34365, 171: 1.76084, 170:-0.05043, 169: 0.32536, 168:-0.02174, 167:-2.24034,
                166: 0.85501, 165:-0.87091, 164: 0.43407, 163:-0.00887, 162:-0.34128, 161:-0.71262
   197 |      | 190: 0.00030, 189:-0.75833, 188: 0.12938, 187: 0.89221, 186: 0.65063, 185:-0.61077, 184: 0.08075, 183:-0.69927,
                182: 0.77903, 181:-0.12969, 180: 0.84165, 179: 0.21498, 178:-0.89814, 177:-1.59872, 176: 2.06444, 175:-0.14081,
